{"learner":{"attributes":{"scikit_learn":"{\"_estimator_type\": \"regressor\"}"},"feature_names":["POSS_home","FGM_100_home","FGA_100_home","FG3M_100_home","FG3A_100_home","FTM_100_home","FTA_100_home","OREB_100_home","DREB_100_home","AST_100_home","STL_100_home","BLK_100_home","TO_100_home","PTS_100_home","rolling_FGM_100_last5_home","rolling_FGA_100_last5_home","rolling_FG3M_100_last5_home","rolling_FG3A_100_last5_home","rolling_FTM_100_last5_home","rolling_FTA_100_last5_home","rolling_OREB_100_last5_home","rolling_DREB_100_last5_home","rolling_AST_100_last5_home","rolling_STL_100_last5_home","rolling_BLK_100_last5_home","rolling_TO_100_last5_home","rolling_PTS_100_last5_home","rolling_POSS_last5_home","rolling_wins_last5_home","rolling_losses_last5_home","FGM_100_allowed_home","FGA_100_allowed_home","FG3M_100_allowed_home","FG3A_100_allowed_home","FTM_100_allowed_home","FTA_100_allowed_home","OREB_100_allowed_home","DREB_100_allowed_home","AST_100_allowed_home","STL_100_allowed_home","BLK_100_allowed_home","TO_100_allowed_home","PTS_100_allowed_home","POSS_allowed_home","rolling_FGM_100_allowed_last5_home","rolling_FGA_100_allowed_last5_home","rolling_FG3M_100_allowed_last5_home","rolling_FG3A_100_allowed_last5_home","rolling_FTM_100_allowed_last5_home","rolling_FTA_100_allowed_last5_home","rolling_OREB_100_allowed_last5_home","rolling_DREB_100_allowed_last5_home","rolling_AST_100_allowed_last5_home","rolling_STL_100_allowed_last5_home","rolling_BLK_100_allowed_last5_home","rolling_TO_100_allowed_last5_home","rolling_PTS_100_allowed_last5_home","rolling_POSS_allowed_last5_home","wins_home","losses_home","POSS_away","FGM_100_away","FGA_100_away","FG3M_100_away","FG3A_100_away","FTM_100_away","FTA_100_away","OREB_100_away","DREB_100_away","AST_100_away","STL_100_away","BLK_100_away","TO_100_away","PTS_100_away","rolling_FGM_100_last5_away","rolling_FGA_100_last5_away","rolling_FG3M_100_last5_away","rolling_FG3A_100_last5_away","rolling_FTM_100_last5_away","rolling_FTA_100_last5_away","rolling_OREB_100_last5_away","rolling_DREB_100_last5_away","rolling_AST_100_last5_away","rolling_STL_100_last5_away","rolling_BLK_100_last5_away","rolling_TO_100_last5_away","rolling_PTS_100_last5_away","rolling_POSS_last5_away","rolling_wins_last5_away","rolling_losses_last5_away","FGM_100_allowed_away","FGA_100_allowed_away","FG3M_100_allowed_away","FG3A_100_allowed_away","FTM_100_allowed_away","FTA_100_allowed_away","OREB_100_allowed_away","DREB_100_allowed_away","AST_100_allowed_away","STL_100_allowed_away","BLK_100_allowed_away","TO_100_allowed_away","PTS_100_allowed_away","POSS_allowed_away","rolling_FGM_100_allowed_last5_away","rolling_FGA_100_allowed_last5_away","rolling_FG3M_100_allowed_last5_away","rolling_FG3A_100_allowed_last5_away","rolling_FTM_100_allowed_last5_away","rolling_FTA_100_allowed_last5_away","rolling_OREB_100_allowed_last5_away","rolling_DREB_100_allowed_last5_away","rolling_AST_100_allowed_last5_away","rolling_STL_100_allowed_last5_away","rolling_BLK_100_allowed_last5_away","rolling_TO_100_allowed_last5_away","rolling_PTS_100_allowed_last5_away","rolling_POSS_allowed_last5_away","wins_away","losses_away"],"feature_types":["float","float","float","float","float","float","float","float","float","float","float","float","float","float","float","float","float","float","float","float","float","float","float","float","float","float","float","float","float","float","float","float","float","float","float","float","float","float","float","float","float","float","float","float","float","float","float","float","float","float","float","float","float","float","float","float","float","float","float","float","float","float","float","float","float","float","float","float","float","float","float","float","float","float","float","float","float","float","float","float","float","float","float","float","float","float","float","float","float","float","float","float","float","float","float","float","float","float","float","float","float","float","float","float","float","float","float","float","float","float","float","float","float","float","float","float","float","float","float","float"],"gradient_booster":{"model":{"gbtree_model_param":{"num_parallel_tree":"1","num_trees":"500"},"iteration_indptr":[0,1,2,3,4,5,6,7,8,9,10,11,12,13,14,15,16,17,18,19,20,21,22,23,24,25,26,27,28,29,30,31,32,33,34,35,36,37,38,39,40,41,42,43,44,45,46,47,48,49,50,51,52,53,54,55,56,57,58,59,60,61,62,63,64,65,66,67,68,69,70,71,72,73,74,75,76,77,78,79,80,81,82,83,84,85,86,87,88,89,90,91,92,93,94,95,96,97,98,99,100,101,102,103,104,105,106,107,108,109,110,111,112,113,114,115,116,117,118,119,120,121,122,123,124,125,126,127,128,129,130,131,132,133,134,135,136,137,138,139,140,141,142,143,144,145,146,147,148,149,150,151,152,153,154,155,156,157,158,159,160,161,162,163,164,165,166,167,168,169,170,171,172,173,174,175,176,177,178,179,180,181,182,183,184,185,186,187,188,189,190,191,192,193,194,195,196,197,198,199,200,201,202,203,204,205,206,207,208,209,210,211,212,213,214,215,216,217,218,219,220,221,222,223,224,225,226,227,228,229,230,231,232,233,234,235,236,237,238,239,240,241,242,243,244,245,246,247,248,249,250,251,252,253,254,255,256,257,258,259,260,261,262,263,264,265,266,267,268,269,270,271,272,273,274,275,276,277,278,279,280,281,282,283,284,285,286,287,288,289,290,291,292,293,294,295,296,297,298,299,300,301,302,303,304,305,306,307,308,309,310,311,312,313,314,315,316,317,318,319,320,321,322,323,324,325,326,327,328,329,330,331,332,333,334,335,336,337,338,339,340,341,342,343,344,345,346,347,348,349,350,351,352,353,354,355,356,357,358,359,360,361,362,363,364,365,366,367,368,369,370,371,372,373,374,375,376,377,378,379,380,381,382,383,384,385,386,387,388,389,390,391,392,393,394,395,396,397,398,399,400,401,402,403,404,405,406,407,408,409,410,411,412,413,414,415,416,417,418,419,420,421,422,423,424,425,426,427,428,429,430,431,432,433,434,435,436,437,438,439,440,441,442,443,444,445,446,447,448,449,450,451,452,453,454,455,456,457,458,459,460,461,462,463,464,465,466,467,468,469,470,471,472,473,474,475,476,477,478,479,480,481,482,483,484,485,486,487,488,489,490,491,492,493,494,495,496,497,498,499,500],"tree_info":[0,0,0,0,0,0,0,0,0,0,0,0,0,0,0,0,0,0,0,0,0,0,0,0,0,0,0,0,0,0,0,0,0,0,0,0,0,0,0,0,0,0,0,0,0,0,0,0,0,0,0,0,0,0,0,0,0,0,0,0,0,0,0,0,0,0,0,0,0,0,0,0,0,0,0,0,0,0,0,0,0,0,0,0,0,0,0,0,0,0,0,0,0,0,0,0,0,0,0,0,0,0,0,0,0,0,0,0,0,0,0,0,0,0,0,0,0,0,0,0,0,0,0,0,0,0,0,0,0,0,0,0,0,0,0,0,0,0,0,0,0,0,0,0,0,0,0,0,0,0,0,0,0,0,0,0,0,0,0,0,0,0,0,0,0,0,0,0,0,0,0,0,0,0,0,0,0,0,0,0,0,0,0,0,0,0,0,0,0,0,0,0,0,0,0,0,0,0,0,0,0,0,0,0,0,0,0,0,0,0,0,0,0,0,0,0,0,0,0,0,0,0,0,0,0,0,0,0,0,0,0,0,0,0,0,0,0,0,0,0,0,0,0,0,0,0,0,0,0,0,0,0,0,0,0,0,0,0,0,0,0,0,0,0,0,0,0,0,0,0,0,0,0,0,0,0,0,0,0,0,0,0,0,0,0,0,0,0,0,0,0,0,0,0,0,0,0,0,0,0,0,0,0,0,0,0,0,0,0,0,0,0,0,0,0,0,0,0,0,0,0,0,0,0,0,0,0,0,0,0,0,0,0,0,0,0,0,0,0,0,0,0,0,0,0,0,0,0,0,0,0,0,0,0,0,0,0,0,0,0,0,0,0,0,0,0,0,0,0,0,0,0,0,0,0,0,0,0,0,0,0,0,0,0,0,0,0,0,0,0,0,0,0,0,0,0,0,0,0,0,0,0,0,0,0,0,0,0,0,0,0,0,0,0,0,0,0,0,0,0,0,0,0,0,0,0,0,0,0,0,0,0,0,0,0,0,0,0,0,0,0,0,0,0,0,0,0,0,0,0,0,0,0,0,0,0,0,0,0,0,0,0,0,0,0,0,0,0,0,0,0,0,0,0,0,0,0,0,0,0,0,0,0,0,0,0,0,0,0,0,0,0,0,0,0,0,0,0,0,0],"trees":[{"base_weights":[1.1404882E-1,-2.979442E0,3.7742236E0,-6.1556554E0,4.4581753E-1,-1.0885712E0,7.027402E0,-4.7240644E0,-1.5093404E1,-3.2298958E0,4.5208106E0,1.2579205E0,-9.091037E0,5.354376E0,1.5712009E1,-1.9977684E1,-4.047967E0,-1.2240972E1,-2.158632E1,-4.0854397E0,6.952574E0,2.1745725E0,1.1249257E1,-8.42523E0,2.5426688E0,-1.0770613E1,5.410491E0,6.2722607E0,-5.920311E0,1.3169387E1,2.8772057E1,-6.8608254E-2,-2.809804E-1,-8.07202E-2,-1.6472517E-2,-8.756645E-2,-1.9771917E-1,-1.0478556E-1,-2.6623026E-1,-4.360109E-2,2.4418299E-1,-4.1216176E-2,1.1888777E-1,1.1254451E-2,1.4435877E-1,1.8322545E-1,2.666553E-2,-1.3546203E-1,7.433292E-2,8.154093E-2,4.467238E-3,-1.1689612E-1,1.8218298E-1,1.2405729E-1,-1.0647605E-1,-9.7734695E-3,7.267849E-2,3.388777E-2,-1.2587442E-1,-1.0339533E-2,1.4992626E-1,9.685727E-2,3.2500142E-1],"categories":[],"categories_nodes":[],"categories_segments":[],"categories_sizes":[],"default_left":[0,0,0,0,0,0,0,0,0,0,0,0,0,0,0,0,0,0,0,0,0,0,0,0,0,0,0,0,0,0,0,0,0,0,0,0,0,0,0,0,0,0,0,0,0,0,0,0,0,0,0,0,0,0,0,0,0,0,0,0,0,0,0],"id":0,"left_children":[1,3,5,7,9,11,13,15,17,19,21,23,25,27,29,31,33,35,37,39,41,43,45,47,49,51,53,55,57,59,61,-1,-1,-1,-1,-1,-1,-1,-1,-1,-1,-1,-1,-1,-1,-1,-1,-1,-1,-1,-1,-1,-1,-1,-1,-1,-1,-1,-1,-1,-1,-1,-1],"loss_changes":[4.5336082E4,2.3610941E4,2.9020682E4,1.4336098E4,1.5667143E4,1.3831837E4,1.5883871E4,9.943299E3,2.606457E3,4.819756E3,7.805659E3,7.112457E3,4.125796E3,9.589137E3,5.4986875E3,4.1742793E3,8.99039E3,2.713293E3,2.2945703E3,4.0836484E3,2.3995728E3,4.7304473E3,7.721758E3,5.5418345E3,5.92402E3,4.209084E3,2.1540352E3,6.170953E3,4.3871987E3,3.899912E3,1.6775645E3,0E0,0E0,0E0,0E0,0E0,0E0,0E0,0E0,0E0,0E0,0E0,0E0,0E0,0E0,0E0,0E0,0E0,0E0,0E0,0E0,0E0,0E0,0E0,0E0,0E0,0E0,0E0,0E0,0E0,0E0,0E0,0E0],"parents":[2147483647,0,0,1,1,2,2,3,3,4,4,5,5,6,6,7,7,8,8,9,9,10,10,11,11,12,12,13,13,14,14,15,15,16,16,17,17,18,18,19,19,20,20,21,21,22,22,23,23,24,24,25,25,26,26,27,27,28,28,29,29,30,30],"right_children":[2,4,6,8,10,12,14,16,18,20,22,24,26,28,30,32,34,36,38,40,42,44,46,48,50,52,54,56,58,60,62,-1,-1,-1,-1,-1,-1,-1,-1,-1,-1,-1,-1,-1,-1,-1,-1,-1,-1,-1,-1,-1,-1,-1,-1,-1,-1,-1,-1,-1,-1,-1,-1],"split_conditions":[3.2327518E-1,4.7438383E-1,5.179915E-1,4.9390006E-1,2.7419537E-1,4.8646486E-1,5.29219E-1,2.8239533E-1,4.3668675E-1,6.960833E-1,5.65996E-1,4.0084526E-1,5.826198E-1,5.4757696E-1,4.9905437E-1,4.293387E-1,3.937563E-1,5.400582E-1,3.1922764E-1,5.846364E-1,3.7028608E-1,5.762323E-1,3.8921684E-1,4.969619E-1,4.4981357E-1,6.897663E-1,5.768174E-1,4.253149E-1,5.622878E-1,3.5975575E-1,5.281603E-1,-6.8608254E-2,-2.809804E-1,-8.07202E-2,-1.6472517E-2,-8.756645E-2,-1.9771917E-1,-1.0478556E-1,-2.6623026E-1,-4.360109E-2,2.4418299E-1,-4.1216176E-2,1.1888777E-1,1.1254451E-2,1.4435877E-1,1.8322545E-1,2.666553E-2,-1.3546203E-1,7.433292E-2,8.154093E-2,4.467238E-3,-1.1689612E-1,1.8218298E-1,1.2405729E-1,-1.0647605E-1,-9.7734695E-3,7.267849E-2,3.388777E-2,-1.2587442E-1,-1.0339533E-2,1.4992626E-1,9.685727E-2,3.2500142E-1],"split_indices":[60,73,116,37,0,51,56,106,67,104,44,87,77,97,45,27,27,4,6,67,87,38,68,116,41,82,105,1,105,4,1,0,0,0,0,0,0,0,0,0,0,0,0,0,0,0,0,0,0,0,0,0,0,0,0,0,0,0,0,0,0,0,0],"split_type":[0,0,0,0,0,0,0,0,0,0,0,0,0,0,0,0,0,0,0,0,0,0,0,0,0,0,0,0,0,0,0,0,0,0,0,0,0,0,0,0,0,0,0,0,0,0,0,0,0,0,0,0,0,0,0,0,0,0,0,0,0,0,0],"sum_hessian":[4.002E3,2.169E3,1.833E3,1.125E3,1.044E3,7.35E2,1.098E3,9.71E2,1.54E2,5.49E2,4.95E2,5.69E2,1.66E2,9.22E2,1.76E2,4E1,9.31E2,1.09E2,4.5E1,5.07E2,4.2E1,3.68E2,1.27E2,6.6E1,5.03E2,1.49E2,1.7E1,8.53E2,6.9E1,1.49E2,2.7E1,1.6E1,2.4E1,3.47E2,5.84E2,7.6E1,3.3E1,1.5E1,3E1,5.03E2,4E0,1.3E1,2.9E1,3.4E2,2.8E1,6.9E1,5.8E1,5E1,1.6E1,1.36E2,3.67E2,1.45E2,4E0,1.2E1,5E0,1.03E2,7.5E2,2.9E1,4E1,1.7E1,1.32E2,5E0,2.2E1],"tree_param":{"num_deleted":"0","num_feature":"120","num_nodes":"63","size_leaf_vector":"1"}},{"base_weights":[-1.2097778E-1,-3.2150025E0,4.334117E0,-4.8231997E0,4.5129485E0,-4.795021E-1,7.424287E0,-6.4825025E0,1.0583874E0,4.4087744E-1,8.7239485E0,-8.319513E0,1.9192125E0,2.0963292E0,9.865482E0,-9.21491E0,-3.3778055E0,-4.748491E0,3.441608E0,7.57763E0,-3.030086E0,3.223759E0,1.4644527E1,-1.1688633E1,2.8612235E0,-3.2888842E0,5.180766E0,3.8652408E0,-5.899917E0,8.765767E0,1.8780937E1,-1.15443006E-1,-4.8180316E-2,-6.6551074E-2,-1.0454925E-2,-9.624854E-2,4.0473852E-2,-3.3087647E-3,7.391167E-2,3.5529785E-2,2.182951E-1,-5.5707708E-2,9.6937284E-2,1.5519592E-1,3.381168E-5,-8.094696E-2,1.6503075E-1,-7.7150665E-2,-2.0071611E-1,-3.836379E-2,1.8431808E-1,3.1861183E-1,-4.2062324E-2,-3.7655372E-3,9.628836E-2,-5.5078063E-2,5.293397E-2,-2.9085053E-2,-3.1340733E-1,5.4573968E-2,1.12739876E-1,1.0978608E-1,3.0118474E-1],"categories":[],"categories_nodes":[],"categories_segments":[],"categories_sizes":[],"default_left":[0,0,0,0,0,0,0,0,0,0,0,0,0,0,0,0,0,0,0,0,0,0,0,0,0,0,0,0,0,0,0,0,0,0,0,0,0,0,0,0,0,0,0,0,0,0,0,0,0,0,0,0,0,0,0,0,0,0,0,0,0,0,0],"id":1,"left_children":[1,3,5,7,9,11,13,15,17,19,21,23,25,27,29,31,33,35,37,39,41,43,45,47,49,51,53,55,57,59,61,-1,-1,-1,-1,-1,-1,-1,-1,-1,-1,-1,-1,-1,-1,-1,-1,-1,-1,-1,-1,-1,-1,-1,-1,-1,-1,-1,-1,-1,-1,-1,-1],"loss_changes":[5.566064E4,2.9637854E4,2.462152E4,1.9262027E4,7.0437734E3,1.2202222E4,1.3089957E4,1.3024672E4,6.036339E3,5.224956E3,6.5307783E3,5.759168E3,8.459323E3,4.5208047E3,6.610258E3,8.322375E3,5.511789E3,5.4862246E3,4.6064365E3,3.8802012E3,4.644464E3,4.197254E3,4.232994E3,3.7424531E3,3.8249924E3,6.325027E3,7.567748E3,3.5229468E3,4.3228745E3,5.058418E3,6.303783E3,0E0,0E0,0E0,0E0,0E0,0E0,0E0,0E0,0E0,0E0,0E0,0E0,0E0,0E0,0E0,0E0,0E0,0E0,0E0,0E0,0E0,0E0,0E0,0E0,0E0,0E0,0E0,0E0,0E0,0E0,0E0,0E0],"parents":[2147483647,0,0,1,1,2,2,3,3,4,4,5,5,6,6,7,7,8,8,9,9,10,10,11,11,12,12,13,13,14,14,15,15,16,16,17,17,18,18,19,19,20,20,21,21,22,22,23,23,24,24,25,25,26,26,27,27,28,28,29,29,30,30],"right_children":[2,4,6,8,10,12,14,16,18,20,22,24,26,28,30,32,34,36,38,40,42,44,46,48,50,52,54,56,58,60,62,-1,-1,-1,-1,-1,-1,-1,-1,-1,-1,-1,-1,-1,-1,-1,-1,-1,-1,-1,-1,-1,-1,-1,-1,-1,-1,-1,-1,-1,-1,-1,-1],"split_conditions":[3.3178988E-1,5.165676E-1,4.8734057E-1,5.43471E-1,4.7891304E-1,2.4515645E-1,5.6700826E-1,5.2840537E-1,1.641791E-1,4.1679543E-1,4.6858382E-1,5.321693E-1,4.2981118E-1,5.4316974E-1,6.481727E-1,4.7382367E-1,4.5913196E-1,5.041705E-1,4.524795E-1,6.200499E-1,5.867741E-1,2.9725745E-1,2.9506546E-1,3.6079428E-1,3.030303E-1,3.171414E-1,4.0709904E-1,3.1758174E-1,5.864807E-1,5.0808614E-1,5.1853555E-1,-1.15443006E-1,-4.8180316E-2,-6.6551074E-2,-1.0454925E-2,-9.624854E-2,4.0473852E-2,-3.3087647E-3,7.391167E-2,3.5529785E-2,2.182951E-1,-5.5707708E-2,9.6937284E-2,1.5519592E-1,3.381168E-5,-8.094696E-2,1.6503075E-1,-7.7150665E-2,-2.0071611E-1,-3.836379E-2,1.8431808E-1,3.1861183E-1,-4.2062324E-2,-3.7655372E-3,9.628836E-2,-5.5078063E-2,5.293397E-2,-2.9085053E-2,-3.1340733E-1,5.4573968E-2,1.12739876E-1,1.0978608E-1,3.0118474E-1],"split_indices":[60,56,13,27,110,0,104,13,118,106,4,108,56,110,86,73,110,14,93,86,27,33,27,39,59,5,98,98,41,14,5,0,0,0,0,0,0,0,0,0,0,0,0,0,0,0,0,0,0,0,0,0,0,0,0,0,0,0,0,0,0,0,0],"split_type":[0,0,0,0,0,0,0,0,0,0,0,0,0,0,0,0,0,0,0,0,0,0,0,0,0,0,0,0,0,0,0,0,0,0,0,0,0,0,0,0,0,0,0,0,0,0,0,0,0,0,0,0,0,0,0,0,0,0,0,0,0,0,0],"sum_hessian":[4.036E3,2.382E3,1.654E3,1.972E3,4.1E2,6.47E2,1.007E3,1.538E3,4.34E2,2.09E2,2.01E2,1.51E2,4.96E2,3.17E2,6.9E2,8.17E2,7.21E2,1.26E2,3.08E2,6.8E1,1.41E2,1.05E2,9.6E1,1.16E2,3.5E1,1.91E2,3.05E2,2.6E2,5.7E1,6.16E2,7.4E1,5.33E2,2.84E2,2.99E2,4.22E2,8.1E1,4.5E1,1.58E2,1.5E2,5.4E1,1.4E1,1.18E2,2.3E1,2.1E1,8.4E1,7E0,8.9E1,8E1,3.6E1,2.5E1,1E1,4E0,1.87E2,1.36E2,1.69E2,3.4E1,2.26E2,5.2E1,5E0,2.67E2,3.49E2,4.5E1,2.9E1],"tree_param":{"num_deleted":"0","num_feature":"120","num_nodes":"63","size_leaf_vector":"1"}},{"base_weights":[-1.0121751E-1,-4.670777E0,2.564249E0,-1.1752129E1,-3.2243972E0,-1.3940728E0,5.3566446E0,-1.5512048E1,-6.6770787E0,-7.6152244E0,-1.140143E0,-8.196479E0,1.4956199E0,2.9374821E-2,7.7969832E0,-1.7260565E1,5.1600304E0,-1.2221715E1,2.1175187E0,-1.3974571E1,-4.981657E0,-3.325159E0,4.0593333E0,-9.692128E0,8.801016E0,-6.382133E0,2.9210064E0,-4.721071E0,4.1764727E0,3.8843796E-1,9.006102E0,-2.0733283E-1,-1.1452423E-1,7.986145E-3,2.6567802E-1,-1.5183778E-1,2.6197216E-2,7.06391E-2,-5.8630757E-2,6.024182E-2,-1.5511739E-1,-7.6308146E-2,3.8440693E-2,-5.838871E-2,8.305768E-3,9.102583E-2,-4.0773046E-3,-5.9005838E-2,-1.5665291E-1,2.0821062E-1,-2.9890988E-2,-1.3009285E-2,-1.1809227E-1,3.7715195E-3,8.0680534E-2,-1.3855855E-1,-1.5921677E-2,2.3780197E-2,1.5637788E-1,-2.4873983E-2,1.0621466E-1,6.5913066E-2,1.2223289E-1],"categories":[],"categories_nodes":[],"categories_segments":[],"categories_sizes":[],"default_left":[0,0,0,0,0,0,0,0,0,0,0,0,0,0,0,0,0,0,0,0,0,0,0,0,0,0,0,0,0,0,0,0,0,0,0,0,0,0,0,0,0,0,0,0,0,0,0,0,0,0,0,0,0,0,0,0,0,0,0,0,0,0,0],"id":2,"left_children":[1,3,5,7,9,11,13,15,17,19,21,23,25,27,29,31,33,35,37,39,41,43,45,47,49,51,53,55,57,59,61,-1,-1,-1,-1,-1,-1,-1,-1,-1,-1,-1,-1,-1,-1,-1,-1,-1,-1,-1,-1,-1,-1,-1,-1,-1,-1,-1,-1,-1,-1,-1,-1],"loss_changes":[4.9194848E4,1.5202676E4,2.820418E4,4.705035E3,1.1311848E4,2.0769904E4,1.9448281E4,5.2940195E3,5.341029E3,6.595994E3,9.5566875E3,8.0933223E3,8.350445E3,9.298684E3,9.187211E3,2.445168E3,1.0992009E3,2.9851836E3,1.7388478E3,3.659455E3,6.6460825E3,6.189073E3,5.613312E3,6.4753457E3,3.746897E3,3.1283203E3,8.232666E3,6.2659478E3,5.1571973E3,4.293554E3,6.7715547E3,0E0,0E0,0E0,0E0,0E0,0E0,0E0,0E0,0E0,0E0,0E0,0E0,0E0,0E0,0E0,0E0,0E0,0E0,0E0,0E0,0E0,0E0,0E0,0E0,0E0,0E0,0E0,0E0,0E0,0E0,0E0,0E0],"parents":[2147483647,0,0,1,1,2,2,3,3,4,4,5,5,6,6,7,7,8,8,9,9,10,10,11,11,12,12,13,13,14,14,15,15,16,16,17,17,18,18,19,19,20,20,21,21,22,22,23,23,24,24,25,25,26,26,27,27,28,28,29,29,30,30],"right_children":[2,4,6,8,10,12,14,16,18,20,22,24,26,28,30,32,34,36,38,40,42,44,46,48,50,52,54,56,58,60,62,-1,-1,-1,-1,-1,-1,-1,-1,-1,-1,-1,-1,-1,-1,-1,-1,-1,-1,-1,-1,-1,-1,-1,-1,-1,-1,-1,-1,-1,-1,-1,-1],"split_conditions":[4.4873953E-1,3.3257478E-1,4.1254875E-1,4.5761043E-1,4.604236E-1,4.5761043E-1,4.8557952E-1,4.1713184E-1,4.1758978E-1,4.0380633E-1,3.2985756E-1,5.867113E-1,3.0681437E-1,4.9244976E-1,4.8479992E-1,4.0216157E-1,3.6728832E-1,4.367589E-1,5.47459E-1,2.7467516E-1,3.7725556E-1,4.167892E-1,4.2060605E-1,5.3777105E-1,3.6311132E-1,4.5372888E-1,5.152006E-1,3.6619863E-1,4.319081E-1,5.8208954E-1,5.295839E-1,-2.0733283E-1,-1.1452423E-1,7.986145E-3,2.6567802E-1,-1.5183778E-1,2.6197216E-2,7.06391E-2,-5.8630757E-2,6.024182E-2,-1.5511739E-1,-7.6308146E-2,3.8440693E-2,-5.838871E-2,8.305768E-3,9.102583E-2,-4.0773046E-3,-5.9005838E-2,-1.5665291E-1,2.0821062E-1,-2.9890988E-2,-1.3009285E-2,-1.1809227E-1,3.7715195E-3,8.0680534E-2,-1.3855855E-1,-1.5921677E-2,2.3780197E-2,1.5637788E-1,-2.4873983E-2,1.0621466E-1,6.5913066E-2,1.2223289E-1],"split_indices":[42,87,87,73,13,73,1,43,27,61,103,34,27,34,102,11,39,42,81,114,57,80,106,81,11,16,42,98,31,118,87,0,0,0,0,0,0,0,0,0,0,0,0,0,0,0,0,0,0,0,0,0,0,0,0,0,0,0,0,0,0,0,0],"split_type":[0,0,0,0,0,0,0,0,0,0,0,0,0,0,0,0,0,0,0,0,0,0,0,0,0,0,0,0,0,0,0,0,0,0,0,0,0,0,0,0,0,0,0,0,0,0,0,0,0,0,0,0,0,0,0,0,0,0,0,0,0,0,0],"sum_hessian":[4.037E3,1.487E3,2.55E3,2.51E2,1.236E3,1.055E3,1.495E3,1.43E2,1.08E2,3.97E2,8.39E2,3.14E2,7.41E2,4.7E2,1.025E3,1.32E2,1.1E1,6.6E1,4.2E1,1.15E2,2.82E2,5.91E2,2.48E2,2.89E2,2.5E1,1.13E2,6.28E2,2.19E2,2.51E2,1.44E2,8.81E2,8.1E1,5.1E1,1E1,1E0,5.5E1,1.1E1,2.6E1,1.6E1,8E0,1.07E2,2.17E2,6.5E1,3.68E2,2.23E2,1.16E2,1.32E2,1.78E2,1.11E2,1.2E1,1.3E1,5.9E1,5.4E1,4.21E2,2.07E2,5.5E1,1.64E2,2.18E2,3.3E1,1.13E2,3.1E1,5.05E2,3.76E2],"tree_param":{"num_deleted":"0","num_feature":"120","num_nodes":"63","size_leaf_vector":"1"}},{"base_weights":[3.3326855E-1,-2.5399773E0,3.8621304E0,-6.0268016E0,9.584441E-1,-7.5262004E-1,6.7557516E0,-8.937829E0,-5.251813E-1,-3.4637618E0,4.052536E0,-1.9410766E0,6.9929976E0,1.7535105E0,9.68538E0,-1.4210907E1,-7.5386543E0,-2.732921E0,7.195256E0,-1.9307148E0,-1.7627092E1,1.7924851E0,1.1103992E1,-1.8283056E-1,-8.395532E0,2.000376E1,3.6482942E0,-3.7154024E0,4.0620146E0,7.3725696E0,1.3790275E1,-1.4942501E-1,1.04328156E-1,-9.289643E-2,-2.810926E-2,-1.3211995E-1,-1.621957E-2,1.4218343E-2,1.5732287E-1,-7.045644E-2,1.5691595E-2,-2.1446371E-1,2.7178667E-2,1.3857048E-2,2.3875837E-1,3.4379125E-2,1.579281E-1,1.5058883E-1,-9.445188E-3,-1.854746E-1,-6.288822E-2,4.5632422E-1,1.01272866E-1,1.06944114E-1,-4.525134E-3,2.8066137E-1,-4.735326E-2,-5.8688644E-2,5.8876533E-2,-8.714065E-3,9.878967E-2,-1.2859611E-1,1.4377058E-1],"categories":[],"categories_nodes":[],"categories_segments":[],"categories_sizes":[],"default_left":[0,0,0,0,0,0,0,0,0,0,0,0,0,0,0,0,0,0,0,0,0,0,0,0,0,0,0,0,0,0,0,0,0,0,0,0,0,0,0,0,0,0,0,0,0,0,0,0,0,0,0,0,0,0,0,0,0,0,0,0,0,0,0],"id":3,"left_children":[1,3,5,7,9,11,13,15,17,19,21,23,25,27,29,31,33,35,37,39,41,43,45,47,49,51,53,55,57,59,61,-1,-1,-1,-1,-1,-1,-1,-1,-1,-1,-1,-1,-1,-1,-1,-1,-1,-1,-1,-1,-1,-1,-1,-1,-1,-1,-1,-1,-1,-1,-1,-1],"loss_changes":[4.1276707E4,2.737894E4,2.4401639E4,1.7996574E4,1.5352356E4,6.503332E3,1.644025E4,5.315672E3,6.667103E3,9.9973955E3,1.0498286E4,6.943759E3,4.0176323E3,5.2670947E3,6.6199766E3,2.9143652E3,4.800078E3,3.5177004E3,4.265677E3,7.49393E3,3.5549268E3,4.4674336E3,5.696881E3,5.60997E3,2.6850762E3,4.3471626E3,2.2008418E3,4.152331E3,5.3467017E3,9.410129E3,4.156867E3,0E0,0E0,0E0,0E0,0E0,0E0,0E0,0E0,0E0,0E0,0E0,0E0,0E0,0E0,0E0,0E0,0E0,0E0,0E0,0E0,0E0,0E0,0E0,0E0,0E0,0E0,0E0,0E0,0E0,0E0,0E0,0E0],"parents":[2147483647,0,0,1,1,2,2,3,3,4,4,5,5,6,6,7,7,8,8,9,9,10,10,11,11,12,12,13,13,14,14,15,15,16,16,17,17,18,18,19,19,20,20,21,21,22,22,23,23,24,24,25,25,26,26,27,27,28,28,29,29,30,30],"right_children":[2,4,6,8,10,12,14,16,18,20,22,24,26,28,30,32,34,36,38,40,42,44,46,48,50,52,54,56,58,60,62,-1,-1,-1,-1,-1,-1,-1,-1,-1,-1,-1,-1,-1,-1,-1,-1,-1,-1,-1,-1,-1,-1,-1,-1,-1,-1,-1,-1,-1,-1,-1,-1],"split_conditions":[3.2501966E-1,4.3605235E-1,5.179915E-1,5.465375E-1,4.5920375E-1,5.23562E-1,4.6601704E-1,4.0647277E-1,3.137147E-1,5.8293104E-1,5.235516E-1,4.7644484E-1,4.446958E-1,4.5460626E-1,5.4336315E-1,6.3859165E-1,4.9242264E-1,1.1940298E-1,4.708363E-1,4.1913086E-1,4.5358983E-1,5.8710647E-1,5.817173E-1,2.0506138E-1,2.0841114E-1,3.2878155E-1,4.8278347E-1,2.576977E-1,3.880802E-1,3.6723733E-1,2E-1,-1.4942501E-1,1.04328156E-1,-9.289643E-2,-2.810926E-2,-1.3211995E-1,-1.621957E-2,1.4218343E-2,1.5732287E-1,-7.045644E-2,1.5691595E-2,-2.1446371E-1,2.7178667E-2,1.3857048E-2,2.3875837E-1,3.4379125E-2,1.579281E-1,1.5058883E-1,-9.445188E-3,-1.854746E-1,-6.288822E-2,4.5632422E-1,1.01272866E-1,1.06944114E-1,-4.525134E-3,2.8066137E-1,-4.735326E-2,-5.8688644E-2,5.8876533E-2,-8.714065E-3,9.878967E-2,-1.2859611E-1,1.4377058E-1],"split_indices":[60,27,116,26,73,76,61,73,43,55,56,37,1,13,26,79,56,118,96,98,56,98,90,77,46,95,55,8,109,27,28,0,0,0,0,0,0,0,0,0,0,0,0,0,0,0,0,0,0,0,0,0,0,0,0,0,0,0,0,0,0,0,0],"split_type":[0,0,0,0,0,0,0,0,0,0,0,0,0,0,0,0,0,0,0,0,0,0,0,0,0,0,0,0,0,0,0,0,0,0,0,0,0,0,0,0,0,0,0,0,0,0,0,0,0,0,0,0,0,0,0,0,0,0,0,0,0,0,0],"sum_hessian":[4.069E3,2.243E3,1.826E3,1.123E3,1.12E3,7.04E2,1.122E3,7.34E2,3.89E2,4.61E2,6.59E2,6.11E2,9.3E1,4.15E2,7.07E2,1.52E2,5.82E2,3.03E2,8.6E1,4.17E2,4.4E1,5E2,1.59E2,4.81E2,1.3E2,1.8E1,7.5E1,1.23E2,2.92E2,4.54E2,2.53E2,1.48E2,4E0,4.24E2,1.58E2,2.8E1,2.75E2,5.2E1,3.4E1,1.69E2,2.48E2,3.7E1,7E0,4.92E2,8E0,6.1E1,9.8E1,2.2E1,4.59E2,2.1E1,1.09E2,4E0,1.4E1,2.7E1,4.8E1,3E0,1.2E2,4.5E1,2.47E2,1.06E2,3.48E2,5E0,2.48E2],"tree_param":{"num_deleted":"0","num_feature":"120","num_nodes":"63","size_leaf_vector":"1"}},{"base_weights":[-3.557589E-1,-3.3351166E0,3.3574817E0,-4.9142895E0,3.8810465E0,-1.8571361E0,6.607142E0,-9.77201E0,-3.1686165E0,-2.1006827E0,7.6130495E0,-1.0109862E1,-2.657917E-1,3.3815198E0,9.763489E0,-1.1980187E1,-4.268396E0,-5.682433E0,1.2307685E-1,6.0858154E-1,-1.1148468E1,9.651746E0,-7.0349336E0,-1.8458862E1,-4.226819E0,-2.7956817E0,3.70296E0,-2.606567E0,4.6031327E0,2.1926842E1,8.862782E0,-2.075755E-1,-9.52494E-2,-6.482081E-2,2.2482617E-1,-9.4801985E-2,-2.8577162E-2,-1.8280808E-2,5.1480398E-2,4.5763806E-2,-8.886954E-2,-2.0950161E-1,-3.149632E-2,3.22715E-2,1.3702965E-1,4.6998527E-2,-1.0039277E-1,4.3369263E-2,-2.073315E-1,-3.4251548E-3,-1.658663E-1,-4.2082485E-2,5.182159E-2,9.50197E-2,7.7909306E-3,-5.126759E-2,1.5041977E-1,6.637305E-2,2.1067266E-3,1.3492224E-1,3.2681173E-1,7.453501E-2,1.6947123E-1],"categories":[],"categories_nodes":[],"categories_segments":[],"categories_sizes":[],"default_left":[0,0,0,0,0,0,0,0,0,0,0,0,0,0,0,0,0,0,0,0,0,0,0,0,0,0,0,0,0,0,0,0,0,0,0,0,0,0,0,0,0,0,0,0,0,0,0,0,0,0,0,0,0,0,0,0,0,0,0,0,0,0,0],"id":4,"left_children":[1,3,5,7,9,11,13,15,17,19,21,23,25,27,29,31,33,35,37,39,41,43,45,47,49,51,53,55,57,59,61,-1,-1,-1,-1,-1,-1,-1,-1,-1,-1,-1,-1,-1,-1,-1,-1,-1,-1,-1,-1,-1,-1,-1,-1,-1,-1,-1,-1,-1,-1,-1,-1],"loss_changes":[4.480558E4,2.5624916E4,3.0565434E4,1.5606141E4,9.03482E3,9.098432E3,1.1278281E4,5.8673516E3,1.123776E4,3.8307886E3,7.5037324E3,5.4231416E3,5.8539263E3,4.0426309E3,5.9517695E3,7.2803438E3,8.495518E3,8.233168E3,5.784259E3,4.5995117E3,2.7564912E3,5.655789E3,1.140098E3,2.474749E3,3.2109395E3,4.0336545E3,3.8415034E3,4.258023E3,4.0908408E3,3.0059902E3,5.843672E3,0E0,0E0,0E0,0E0,0E0,0E0,0E0,0E0,0E0,0E0,0E0,0E0,0E0,0E0,0E0,0E0,0E0,0E0,0E0,0E0,0E0,0E0,0E0,0E0,0E0,0E0,0E0,0E0,0E0,0E0,0E0,0E0],"parents":[2147483647,0,0,1,1,2,2,3,3,4,4,5,5,6,6,7,7,8,8,9,9,10,10,11,11,12,12,13,13,14,14,15,15,16,16,17,17,18,18,19,19,20,20,21,21,22,22,23,23,24,24,25,25,26,26,27,27,28,28,29,29,30,30],"right_children":[2,4,6,8,10,12,14,16,18,20,22,24,26,28,30,32,34,36,38,40,42,44,46,48,50,52,54,56,58,60,62,-1,-1,-1,-1,-1,-1,-1,-1,-1,-1,-1,-1,-1,-1,-1,-1,-1,-1,-1,-1,-1,-1,-1,-1,-1,-1,-1,-1,-1,-1,-1,-1],"split_conditions":[3.2501966E-1,5.1308024E-1,4.8873407E-1,4.2256457E-1,4.9019533E-1,2.622122E-1,4.706921E-1,3.6468646E-1,4.474656E-1,5.152453E-1,4.4861057E-1,4.0776017E-1,5.620936E-1,1.09375E-1,5.003013E-1,4.2346692E-1,5.2597445E-1,4.6967748E-1,4.8051974E-1,4.4618404E-1,3.7875283E-1,3.2166138E-1,2.950118E-1,2.3562635E-1,2.5731778E-1,5.986945E-1,4.4515657E-1,5.590442E-1,4.2465788E-1,4.8681912E-1,6.481727E-1,-2.075755E-1,-9.52494E-2,-6.482081E-2,2.2482617E-1,-9.4801985E-2,-2.8577162E-2,-1.8280808E-2,5.1480398E-2,4.5763806E-2,-8.886954E-2,-2.0950161E-1,-3.149632E-2,3.22715E-2,1.3702965E-1,4.6998527E-2,-1.0039277E-1,4.3369263E-2,-2.073315E-1,-3.4251548E-3,-1.658663E-1,-4.2082485E-2,5.182159E-2,9.50197E-2,7.7909306E-3,-5.126759E-2,1.5041977E-1,6.637305E-2,2.1067266E-3,1.3492224E-1,3.2681173E-1,7.453501E-2,1.6947123E-1],"split_indices":[60,42,13,73,22,43,42,43,27,41,51,56,87,58,13,110,86,30,35,113,99,57,20,36,57,102,81,49,68,62,86,0,0,0,0,0,0,0,0,0,0,0,0,0,0,0,0,0,0,0,0,0,0,0,0,0,0,0,0,0,0,0,0],"split_type":[0,0,0,0,0,0,0,0,0,0,0,0,0,0,0,0,0,0,0,0,0,0,0,0,0,0,0,0,0,0,0,0,0,0,0,0,0,0,0,0,0,0,0,0,0,0,0,0,0,0,0,0,0,0,0,0,0,0,0,0,0,0,0],"sum_hessian":[4.048E3,2.246E3,1.802E3,1.843E3,4.03E2,6.92E2,1.11E3,4.86E2,1.357E3,1.55E2,2.48E2,1.11E2,5.81E2,5.5E2,5.6E2,3.46E2,1.4E2,7.69E2,5.88E2,1.2E2,3.5E1,2.18E2,3E1,4.5E1,6.6E1,3.55E2,2.26E2,9.3E1,4.57E2,3.7E1,5.23E2,7.4E1,2.72E2,1.3E2,1E1,3.27E2,4.42E2,4.24E2,1.64E2,8.5E1,3.5E1,1.5E1,2E1,8.5E1,1.33E2,6E0,2.4E1,4E0,4.1E1,5.1E1,1.5E1,3.02E2,5.3E1,7.5E1,1.51E2,8.2E1,1.1E1,3.12E2,1.45E2,2.2E1,1.5E1,4.47E2,7.6E1],"tree_param":{"num_deleted":"0","num_feature":"120","num_nodes":"63","size_leaf_vector":"1"}},{"base_weights":[-5.301713E-4,-4.3329477E0,2.291659E0,-1.0505452E1,-1.3819703E0,-1.7754189E0,4.313557E0,-1.3371689E1,-6.164124E0,-4.370356E0,2.376315E0,-7.85675E0,-1.0070342E-1,1.2210506E0,7.238017E0,-1.6334652E1,-7.198424E0,-1.7553836E0,-1.16397705E1,-2.6258292E0,-1.0424379E1,9.852484E0,-3.9855364E-1,-1.4028169E1,-4.139855E0,-1.7554227E0,6.664919E0,-9.2616946E-1,6.944821E0,2.431707E0,9.243726E0,-1.7548072E-1,-2.5728226E-2,-9.107848E-2,1.09983824E-1,9.970158E-2,-5.2953534E-2,-1.4028586E-1,6.723691E-2,-6.6215E-2,2.6532486E-3,-2.161112E-1,-7.635636E-2,1.4367972E-1,3.992801E-2,-2.6046626E-2,8.222103E-2,-2.324031E-1,-1.04610205E-1,8.517538E-2,-8.2671285E-2,-4.9394887E-2,1.4007978E-2,8.69822E-3,1.3170813E-1,-6.443626E-2,1.3800508E-2,1.2636748E-1,4.453477E-2,-1.2084312E-2,8.5956246E-2,-3.2277177E-3,1.02869995E-1],"categories":[],"categories_nodes":[],"categories_segments":[],"categories_sizes":[],"default_left":[0,0,0,0,0,0,0,0,0,0,0,0,0,0,0,0,0,0,0,0,0,0,0,0,0,0,0,0,0,0,0,0,0,0,0,0,0,0,0,0,0,0,0,0,0,0,0,0,0,0,0,0,0,0,0,0,0,0,0,0,0,0,0],"id":5,"left_children":[1,3,5,7,9,11,13,15,17,19,21,23,25,27,29,31,33,35,37,39,41,43,45,47,49,51,53,55,57,59,61,-1,-1,-1,-1,-1,-1,-1,-1,-1,-1,-1,-1,-1,-1,-1,-1,-1,-1,-1,-1,-1,-1,-1,-1,-1,-1,-1,-1,-1,-1,-1,-1],"loss_changes":[4.0209492E4,2.550459E4,2.1782736E4,5.554375E3,1.0668801E4,8.961569E3,1.598984E4,4.8576133E3,4.3731753E3,5.5596123E3,8.737734E3,4.300243E3,7.7475874E3,1.0588289E4,8.740336E3,3.01075E3,3.2272607E3,4.286618E3,3.6475469E3,4.7612227E3,3.5162266E3,2.958996E3,5.878993E3,2.0900186E3,6.3392793E3,5.594506E3,5.116054E3,7.9871357E3,3.2761514E3,6.0460786E3,6.400801E3,0E0,0E0,0E0,0E0,0E0,0E0,0E0,0E0,0E0,0E0,0E0,0E0,0E0,0E0,0E0,0E0,0E0,0E0,0E0,0E0,0E0,0E0,0E0,0E0,0E0,0E0,0E0,0E0,0E0,0E0,0E0,0E0],"parents":[2147483647,0,0,1,1,2,2,3,3,4,4,5,5,6,6,7,7,8,8,9,9,10,10,11,11,12,12,13,13,14,14,15,15,16,16,17,17,18,18,19,19,20,20,21,21,22,22,23,23,24,24,25,25,26,26,27,27,28,28,29,29,30,30],"right_children":[2,4,6,8,10,12,14,16,18,20,22,24,26,28,30,32,34,36,38,40,42,44,46,48,50,52,54,56,58,60,62,-1,-1,-1,-1,-1,-1,-1,-1,-1,-1,-1,-1,-1,-1,-1,-1,-1,-1,-1,-1,-1,-1,-1,-1,-1,-1,-1,-1,-1,-1,-1,-1],"split_conditions":[3.9954486E-1,4.4407663E-1,4.585218E-1,4.572004E-1,3.1279793E-1,2.7361712E-1,4.7214353E-1,5.2487135E-1,3.5428473E-1,5.060918E-1,3.8160285E-1,3.3606875E-1,5.238757E-1,5.664527E-1,4.5714283E-1,5.426905E-1,5.381289E-1,3.7518418E-1,5.3742087E-1,4.2864478E-1,3.112109E-1,3.6681205E-1,6.23859E-1,4.2366028E-1,5.292002E-1,3.5656843E-1,3.8825214E-1,2.721022E-1,4.333048E-1,4.3939394E-1,3.4094706E-1,-1.7548072E-1,-2.5728226E-2,-9.107848E-2,1.09983824E-1,9.970158E-2,-5.2953534E-2,-1.4028586E-1,6.723691E-2,-6.6215E-2,2.6532486E-3,-2.161112E-1,-7.635636E-2,1.4367972E-1,3.992801E-2,-2.6046626E-2,8.222103E-2,-2.324031E-1,-1.04610205E-1,8.517538E-2,-8.2671285E-2,-4.9394887E-2,1.4007978E-2,8.69822E-3,1.3170813E-1,-6.443626E-2,1.3800508E-2,1.2636748E-1,4.453477E-2,-1.2084312E-2,8.5956246E-2,-3.2277177E-3,1.02869995E-1],"split_indices":[87,73,30,27,43,43,34,13,10,23,8,3,86,22,96,113,96,19,52,92,33,57,14,8,91,60,51,43,41,59,31,0,0,0,0,0,0,0,0,0,0,0,0,0,0,0,0,0,0,0,0,0,0,0,0,0,0,0,0,0,0,0,0],"split_type":[0,0,0,0,0,0,0,0,0,0,0,0,0,0,0,0,0,0,0,0,0,0,0,0,0,0,0,0,0,0,0,0,0,0,0,0,0,0,0,0,0,0,0,0,0,0,0,0,0,0,0,0,0,0,0,0,0,0,0,0,0,0,0],"sum_hessian":[4.047E3,1.4E3,2.647E3,4.52E2,9.48E2,8.79E2,1.768E3,2.71E2,1.81E2,5.28E2,4.2E2,1.89E2,6.9E2,8.6E2,9.08E2,1.82E2,8.9E1,1.01E2,8E1,4.11E2,1.17E2,1.13E2,3.07E2,7E1,1.19E2,5.55E2,1.35E2,6.26E2,2.34E2,2.68E2,6.4E2,1.67E2,1.5E1,8.1E1,8E0,2.3E1,7.8E1,7.1E1,9E0,1.72E2,2.39E2,2.2E1,9.5E1,6.3E1,5E1,2.45E2,6.2E1,1.8E1,5.2E1,2.9E1,9E1,2.76E2,2.79E2,7.2E1,6.3E1,1.84E2,4.42E2,7E1,1.64E2,1.69E2,9.9E1,6.3E1,5.77E2],"tree_param":{"num_deleted":"0","num_feature":"120","num_nodes":"63","size_leaf_vector":"1"}},{"base_weights":[-4.3380573E-2,-3.6218166E0,2.8101056E0,-7.8865604E0,-1.4303056E0,6.996238E-2,6.492279E0,-1.1263525E1,-3.7385168E0,-3.8874168E0,1.7782503E0,-5.0728855E0,1.7346884E0,-1.5259585E0,8.423228E0,-1.6700964E1,-8.790279E0,-6.478596E0,7.4940014E0,-1.0053036E1,-1.6443056E0,-3.405735E-1,7.2480865E0,-6.926829E0,7.0985284E0,-1.7942079E0,4.524655E0,-1.1044962E1,2.3503735E0,7.0038013E0,1.4806215E1,-2.917996E-1,-1.2748502E-1,-4.5874782E-2,-1.1852588E-1,-1.4190534E-1,-3.9461218E-2,9.468935E-2,-1.375413E-1,-8.071733E-2,-2.1855736E-1,-1.3641022E-1,-6.078459E-3,3.5796802E-2,-3.727222E-2,-7.5968124E-2,8.918051E-2,-9.1100425E-2,2.0960221E-2,-2.5160113E-2,2.8739887E-1,-3.8446493E-2,7.4820705E-2,2.9165443E-2,1.1517329E-1,-1.4046772E-1,1.1116731E-1,9.62772E-2,-3.0672774E-2,1.659013E-2,8.414328E-2,1.1568281E-1,2.4096984E-1],"categories":[],"categories_nodes":[],"categories_segments":[],"categories_sizes":[],"default_left":[0,0,0,0,0,0,0,0,0,0,0,0,0,0,0,0,0,0,0,0,0,0,0,0,0,0,0,0,0,0,0,0,0,0,0,0,0,0,0,0,0,0,0,0,0,0,0,0,0,0,0,0,0,0,0,0,0,0,0,0,0,0,0],"id":6,"left_children":[1,3,5,7,9,11,13,15,17,19,21,23,25,27,29,31,33,35,37,39,41,43,45,47,49,51,53,55,57,59,61,-1,-1,-1,-1,-1,-1,-1,-1,-1,-1,-1,-1,-1,-1,-1,-1,-1,-1,-1,-1,-1,-1,-1,-1,-1,-1,-1,-1,-1,-1,-1,-1],"loss_changes":[4.1038047E4,1.6653053E4,2.2560078E4,8.432609E3,9.301888E3,1.0993118E4,1.4783449E4,4.331418E3,8.450943E3,9.222023E3,5.9363535E3,7.134614E3,9.558256E3,6.88914E3,6.863586E3,4.708244E3,2.9186602E3,4.240665E3,2.3962732E3,3.9860664E3,6.0968574E3,4.925655E3,3.6127837E3,5.396871E3,8.811322E3,8.188547E3,6.0611953E3,3.7485146E3,5.273205E3,4.743129E3,3.9027617E3,0E0,0E0,0E0,0E0,0E0,0E0,0E0,0E0,0E0,0E0,0E0,0E0,0E0,0E0,0E0,0E0,0E0,0E0,0E0,0E0,0E0,0E0,0E0,0E0,0E0,0E0,0E0,0E0,0E0,0E0,0E0,0E0],"parents":[2147483647,0,0,1,1,2,2,3,3,4,4,5,5,6,6,7,7,8,8,9,9,10,10,11,11,12,12,13,13,14,14,15,15,16,16,17,17,18,18,19,19,20,20,21,21,22,22,23,23,24,24,25,25,26,26,27,27,28,28,29,29,30,30],"right_children":[2,4,6,8,10,12,14,16,18,20,22,24,26,28,30,32,34,36,38,40,42,44,46,48,50,52,54,56,58,60,62,-1,-1,-1,-1,-1,-1,-1,-1,-1,-1,-1,-1,-1,-1,-1,-1,-1,-1,-1,-1,-1,-1,-1,-1,-1,-1,-1,-1,-1,-1,-1,-1],"split_conditions":[4.5846826E-1,3.9954486E-1,2.8863868E-1,4.3758342E-1,5.1313674E-1,4.7614217E-1,7.8125E-2,3.645489E-1,4.9522865E-1,2.7157003E-1,4.0298507E-1,4.0910342E-1,5.729459E-1,3.4459335E-1,5.3355855E-1,2.1724145E-1,3.3670157E-1,4.497244E-1,5.157429E-1,4.2685774E-1,3.7177217E-1,5.606664E-1,2.8459713E-1,6.5109533E-1,4.477612E-1,4.105211E-1,3.234391E-1,5.0978076E-1,3.1317312E-1,4.3177223E-1,4.5669603E-1,-2.917996E-1,-1.2748502E-1,-4.5874782E-2,-1.1852588E-1,-1.4190534E-1,-3.9461218E-2,9.468935E-2,-1.375413E-1,-8.071733E-2,-2.1855736E-1,-1.3641022E-1,-6.078459E-3,3.5796802E-2,-3.727222E-2,-7.5968124E-2,8.918051E-2,-9.1100425E-2,2.0960221E-2,-2.5160113E-2,2.8739887E-1,-3.8446493E-2,7.4820705E-2,2.9165443E-2,1.1517329E-1,-1.4046772E-1,1.1116731E-1,9.62772E-2,-3.0672774E-2,1.659013E-2,8.414328E-2,1.1568281E-1,2.4096984E-1],"split_indices":[42,87,103,27,13,13,58,3,73,43,119,43,105,112,42,0,64,1,97,100,108,105,78,74,119,64,0,24,10,110,99,0,0,0,0,0,0,0,0,0,0,0,0,0,0,0,0,0,0,0,0,0,0,0,0,0,0,0,0,0,0,0,0],"split_type":[0,0,0,0,0,0,0,0,0,0,0,0,0,0,0,0,0,0,0,0,0,0,0,0,0,0,0,0,0,0,0,0,0,0,0,0,0,0,0,0,0,0,0,0,0,0,0,0,0,0,0,0,0,0,0,0,0,0,0,0,0,0,0],"sum_hessian":[4.017E3,1.782E3,2.235E3,6.04E2,1.178E3,1.282E3,9.53E2,3.32E2,2.72E2,6.67E2,5.11E2,3.13E2,9.69E2,1.85E2,7.68E2,1.02E2,2.3E2,2.19E2,5.3E1,1.77E2,4.9E2,3.69E2,1.42E2,2.72E2,4.1E1,4.28E2,5.41E2,5.3E1,1.32E2,6.3E2,1.38E2,2.3E1,7.9E1,9.8E1,1.32E2,5.3E1,1.66E2,4.9E1,4E0,1.53E2,2.4E1,3.8E1,4.52E2,1.71E2,1.98E2,1.4E1,1.28E2,2.19E2,5.3E1,2.9E1,1.2E1,3.51E2,7.7E1,4.41E2,1E2,4.7E1,6E0,5.6E1,7.6E1,1.32E2,4.98E2,1.04E2,3.4E1],"tree_param":{"num_deleted":"0","num_feature":"120","num_nodes":"63","size_leaf_vector":"1"}},{"base_weights":[3.8701674E-1,-1.6022953E0,5.463984E0,-4.5321484E0,2.035673E0,-1.8878691E0,7.430841E0,-8.30361E0,-2.7871685E0,3.64209E0,-6.268657E0,1.3378479E1,-3.4539595E0,1.0173319E1,2.6462052E0,-1.0048007E1,-1.9780821E0,-6.227732E0,-8.37147E-1,5.108719E-2,6.1840196E0,-3.0453827E0,-1.3775622E1,-2.3370953E0,2.0400112E1,-2.380872E0,-2.3918835E1,7.374616E0,1.5618867E1,-2.6794548E0,7.16281E0,-1.664914E-1,-7.971372E-2,-1.8027936E-1,4.736948E-3,-7.506167E-2,1.2483738E-2,-2.943871E-2,2.7593676E-2,-8.078773E-2,2.9527452E-2,2.5300986E-1,5.7521243E-2,-5.792957E-2,6.226377E-2,-1.6786785E-1,6.7164865E-3,3.3359643E-2,-6.408124E-2,2.6510945E-1,-4.560131E-2,-1.9025424E-1,-1.1142933E-2,-2.6626298E-1,1.577896E-2,3.0409005E-2,9.980232E-2,1.0453814E-1,2.3136048E-1,-4.1557513E-2,2.1567069E-1,-1.4444841E-2,1.05506286E-1],"categories":[],"categories_nodes":[],"categories_segments":[],"categories_sizes":[],"default_left":[0,0,0,0,0,0,0,0,0,0,0,0,0,0,0,0,0,0,0,0,0,0,0,0,0,0,0,0,0,0,0,0,0,0,0,0,0,0,0,0,0,0,0,0,0,0,0,0,0,0,0,0,0,0,0,0,0,0,0,0,0,0,0],"id":7,"left_children":[1,3,5,7,9,11,13,15,17,19,21,23,25,27,29,31,33,35,37,39,41,43,45,47,49,51,53,55,57,59,61,-1,-1,-1,-1,-1,-1,-1,-1,-1,-1,-1,-1,-1,-1,-1,-1,-1,-1,-1,-1,-1,-1,-1,-1,-1,-1,-1,-1,-1,-1,-1,-1],"loss_changes":[4.1508312E4,3.1484408E4,1.6744293E4,1.074357E4,1.7605238E4,5.903786E3,1.1953246E4,5.684828E3,7.5090596E3,1.0086208E4,5.136208E3,2.585704E3,4.8402656E3,8.724293E3,8.0531943E3,5.419082E3,4.455164E3,3.880246E3,5.4331577E3,1.0851698E4,5.1964375E3,3.8827715E3,2.7954707E3,2.061388E2,2.5613398E3,4.4691885E3,8.013589E2,4.3170703E3,7.36816E3,5.6020654E3,5.2931924E3,0E0,0E0,0E0,0E0,0E0,0E0,0E0,0E0,0E0,0E0,0E0,0E0,0E0,0E0,0E0,0E0,0E0,0E0,0E0,0E0,0E0,0E0,0E0,0E0,0E0,0E0,0E0,0E0,0E0,0E0,0E0,0E0],"parents":[2147483647,0,0,1,1,2,2,3,3,4,4,5,5,6,6,7,7,8,8,9,9,10,10,11,11,12,12,13,13,14,14,15,15,16,16,17,17,18,18,19,19,20,20,21,21,22,22,23,23,24,24,25,25,26,26,27,27,28,28,29,29,30,30],"right_children":[2,4,6,8,10,12,14,16,18,20,22,24,26,28,30,32,34,36,38,40,42,44,46,48,50,52,54,56,58,60,62,-1,-1,-1,-1,-1,-1,-1,-1,-1,-1,-1,-1,-1,-1,-1,-1,-1,-1,-1,-1,-1,-1,-1,-1,-1,-1,-1,-1,-1,-1,-1,-1],"split_conditions":[4.9869508E-1,2.8936267E-1,4.6255928E-1,4.7935304E-1,4.9042955E-1,4.5750025E-1,2.9941773E-1,3.7880278E-1,2.3016655E-1,4.351537E-1,4.9315715E-1,4.6116605E-1,4.641606E-1,2.912404E-1,6.193586E-1,4.1573074E-1,3.118124E-1,4.5454547E-1,3.2777178E-1,4.447554E-1,2.800686E-1,4.6198818E-1,4.939709E-1,4.0627724E-1,4.5985526E-1,2.5403988E-1,4.3579414E-1,4.7710958E-1,4.2352784E-1,7.783767E-1,2.768504E-1,-1.664914E-1,-7.971372E-2,-1.8027936E-1,4.736948E-3,-7.506167E-2,1.2483738E-2,-2.943871E-2,2.7593676E-2,-8.078773E-2,2.9527452E-2,2.5300986E-1,5.7521243E-2,-5.792957E-2,6.226377E-2,-1.6786785E-1,6.7164865E-3,3.3359643E-2,-6.408124E-2,2.6510945E-1,-4.560131E-2,-1.9025424E-1,-1.1142933E-2,-2.6626298E-1,1.577896E-2,3.0409005E-2,9.980232E-2,1.0453814E-1,2.3136048E-1,-4.1557513E-2,2.1567069E-1,-1.4444841E-2,1.05506286E-1],"split_indices":[42,103,13,13,51,52,46,57,103,42,101,97,3,63,90,74,22,59,57,102,93,115,1,1,86,78,5,110,4,74,57,0,0,0,0,0,0,0,0,0,0,0,0,0,0,0,0,0,0,0,0,0,0,0,0,0,0,0,0,0,0,0,0],"split_type":[0,0,0,0,0,0,0,0,0,0,0,0,0,0,0,0,0,0,0,0,0,0,0,0,0,0,0,0,0,0,0,0,0,0,0,0,0,0,0,0,0,0,0,0,0,0,0,0,0,0,0,0,0,0,0,0,0,0,0,0,0,0,0],"sum_hessian":[4.108E3,2.952E3,1.156E3,1.635E3,1.317E3,2.44E2,9.12E2,5.16E2,1.119E3,1.104E3,2.13E2,2.2E1,2.22E2,5.79E2,3.33E2,4.04E2,1.12E2,4.04E2,7.15E2,4.58E2,6.46E2,1.5E2,6.3E1,7E0,1.5E1,2.12E2,1E1,3.84E2,1.95E2,1.53E2,1.8E2,9.5E1,3.09E2,1.4E1,9.8E1,3.45E2,5.9E1,4.51E2,2.64E2,1.2E2,3.38E2,1.3E1,6.33E2,1.16E2,3.4E1,5.2E1,1.1E1,3E0,4E0,1.2E1,3E0,1.4E1,1.98E2,9E0,1E0,1.45E2,2.39E2,1.17E2,7.8E1,1.45E2,8E0,5.1E1,1.29E2],"tree_param":{"num_deleted":"0","num_feature":"120","num_nodes":"63","size_leaf_vector":"1"}},{"base_weights":[2.7967173E-1,-1.3621858E0,5.9610276E0,-5.6387806E0,8.921934E-1,3.5409446E0,1.1992749E1,-8.782034E0,-2.560276E0,-2.657764E0,3.4241443E0,-4.0826082E-1,6.8274865E0,3.422354E0,1.4758278E1,-1.1265907E1,-1.0335779E0,-4.6515913E0,1.4246166E0,-4.7569523E0,3.7524192E0,-3.8393035E0,4.6301794E0,1.4217056E0,-1.1378339E1,-5.2959576E0,8.492473E0,4.7138098E-1,1.4962988E1,1.0104943E1,1.94033E1,-1.373676E-1,-6.277355E-2,-5.203249E-2,1.2450315E-1,-5.3913217E-2,1.2573688E-1,-1.873983E-3,1.1942449E-1,-6.9340065E-2,3.2405037E-4,7.173245E-2,-6.5163136E-2,-7.887959E-3,-1.5172058E-1,2.5472881E-2,7.616703E-2,7.949755E-2,-8.428952E-3,-6.379278E-2,-2.2039376E-1,-1.3546662E-1,3.1954728E-2,3.0681893E-2,1.262839E-1,-3.89909E-2,1.2612595E-1,2.1634561E-1,3.5737254E-2,7.91448E-2,2.283886E-1,1.2946048E-1,2.6140612E-1],"categories":[],"categories_nodes":[],"categories_segments":[],"categories_sizes":[],"default_left":[0,0,0,0,0,0,0,0,0,0,0,0,0,0,0,0,0,0,0,0,0,0,0,0,0,0,0,0,0,0,0,0,0,0,0,0,0,0,0,0,0,0,0,0,0,0,0,0,0,0,0,0,0,0,0,0,0,0,0,0,0,0,0],"id":8,"left_children":[1,3,5,7,9,11,13,15,17,19,21,23,25,27,29,31,33,35,37,39,41,43,45,47,49,51,53,55,57,59,61,-1,-1,-1,-1,-1,-1,-1,-1,-1,-1,-1,-1,-1,-1,-1,-1,-1,-1,-1,-1,-1,-1,-1,-1,-1,-1,-1,-1,-1,-1,-1,-1],"loss_changes":[3.7403977E4,2.9998387E4,1.3080482E4,1.0370094E4,1.8327293E4,8.348432E3,6.040824E3,1.0208078E4,4.540141E3,1.1442149E4,1.0442145E4,5.8981147E3,7.130035E3,2.172537E3,3.997211E3,4.8688125E3,7.373825E3,4.6167065E3,3.1897598E3,6.6733076E3,7.4235264E3,5.865044E3,6.331834E3,3.7321248E3,2.0978022E3,3.0558801E3,6.8934824E3,2.8084446E3,9.1048E2,2.580666E3,3.8380195E3,0E0,0E0,0E0,0E0,0E0,0E0,0E0,0E0,0E0,0E0,0E0,0E0,0E0,0E0,0E0,0E0,0E0,0E0,0E0,0E0,0E0,0E0,0E0,0E0,0E0,0E0,0E0,0E0,0E0,0E0,0E0,0E0],"parents":[2147483647,0,0,1,1,2,2,3,3,4,4,5,5,6,6,7,7,8,8,9,9,10,10,11,11,12,12,13,13,14,14,15,15,16,16,17,17,18,18,19,19,20,20,21,21,22,22,23,23,24,24,25,25,26,26,27,27,28,28,29,29,30,30],"right_children":[2,4,6,8,10,12,14,16,18,20,22,24,26,28,30,32,34,36,38,40,42,44,46,48,50,52,54,56,58,60,62,-1,-1,-1,-1,-1,-1,-1,-1,-1,-1,-1,-1,-1,-1,-1,-1,-1,-1,-1,-1,-1,-1,-1,-1,-1,-1,-1,-1,-1,-1,-1,-1],"split_conditions":[5.060351E-1,3.9954486E-1,6.1836004E-1,4.7063875E-1,4.9305645E-1,3.1252587E-1,3.6723733E-1,5.474992E-1,5.959034E-1,3.8027138E-1,8.955224E-2,5.147644E-1,3.5051098E-1,5.8270234E-1,4.160792E-1,4.7816408E-1,4.968987E-1,5.560696E-1,5.980023E-1,3.5001284E-1,5.7002574E-1,5.861277E-1,3.0858195E-1,3.58732E-1,5.3464395E-1,4.0112874E-1,5.0218195E-1,4.5242262E-1,4.9868926E-1,5.991548E-1,4.947835E-1,-1.373676E-1,-6.277355E-2,-5.203249E-2,1.2450315E-1,-5.3913217E-2,1.2573688E-1,-1.873983E-3,1.1942449E-1,-6.9340065E-2,3.2405037E-4,7.173245E-2,-6.5163136E-2,-7.887959E-3,-1.5172058E-1,2.5472881E-2,7.616703E-2,7.949755E-2,-8.428952E-3,-6.379278E-2,-2.2039376E-1,-1.3546662E-1,3.1954728E-2,3.0681893E-2,1.262839E-1,-3.89909E-2,1.2612595E-1,2.1634561E-1,3.5737254E-2,7.91448E-2,2.283886E-1,1.2946048E-1,2.6140612E-1],"split_indices":[42,87,102,26,13,57,27,27,75,43,119,55,31,30,3,73,78,99,69,117,21,72,117,115,56,26,27,8,77,87,86,0,0,0,0,0,0,0,0,0,0,0,0,0,0,0,0,0,0,0,0,0,0,0,0,0,0,0,0,0,0,0,0],"split_type":[0,0,0,0,0,0,0,0,0,0,0,0,0,0,0,0,0,0,0,0,0,0,0,0,0,0,0,0,0,0,0,0,0,0,0,0,0,0,0,0,0,0,0,0,0,0,0,0,0,0,0,0,0,0,0,0,0,0,0,0,0,0,0],"sum_hessian":[4.008E3,3.11E3,8.98E2,1.073E3,2.037E3,6.42E2,2.56E2,5.3E2,5.43E2,8.48E2,1.189E3,2.92E2,3.5E2,6.3E1,1.93E2,4.01E2,1.29E2,3.56E2,1.87E2,6.39E2,2.09E2,1.69E2,1.02E3,2.51E2,4.1E1,4.2E1,3.08E2,5.1E1,1.2E1,9.8E1,9.5E1,2.67E2,1.34E2,9.9E1,3E1,3.42E2,1.4E1,1.63E2,2.4E1,4.39E2,2E2,1.57E2,5.2E1,1.34E2,3.5E1,6.02E2,4.18E2,6.4E1,1.87E2,2.9E1,1.2E1,2.1E1,2.1E1,1.34E2,1.74E2,3.8E1,1.3E1,7E0,5E0,8.5E1,1.3E1,5E1,4.5E1],"tree_param":{"num_deleted":"0","num_feature":"120","num_nodes":"63","size_leaf_vector":"1"}},{"base_weights":[2.932436E-1,-4.4354963E0,2.490502E0,-6.29926E0,1.2450925E0,6.5773326E-1,7.805893E0,-8.875264E0,-2.795613E0,-7.7132635E0,3.2085E0,-8.289951E-1,7.165281E0,3.9243124E0,1.0667393E1,-1.151106E1,-3.6952055E0,-9.3157015E0,-3.8427925E-1,-2.9618728E0,-2.5680105E1,-2.8695045E-2,1.1070632E1,-3.8093548E0,1.8606308E0,1.06181726E-1,9.6665535E0,1.23499975E1,1.810471E0,7.9613004E0,1.5576766E1,-1.1863872E-1,1.1987765E-1,-7.655083E-2,2.6691291E-2,-6.415624E-2,-1.7028724E-1,-4.651339E-2,4.326851E-2,-1.0481877E-1,6.847746E-2,-3.383377E-2,-3.2736415E-1,-2.4236793E-2,7.207825E-2,3.1268618E-1,7.230534E-2,-1.3087459E-1,-2.8482735E-2,-1.2982623E-1,2.2522504E-2,-1.5911305E-2,2.0248492E-1,6.1676897E-2,1.6490693E-1,1.9139965E-1,1.0846329E-2,-1.1349049E-2,6.721096E-2,1.2345423E-1,4.6642143E-2,1.691813E-1,-6.572535E-2],"categories":[],"categories_nodes":[],"categories_segments":[],"categories_sizes":[],"default_left":[0,0,0,0,0,0,0,0,0,0,0,0,0,0,0,0,0,0,0,0,0,0,0,0,0,0,0,0,0,0,0,0,0,0,0,0,0,0,0,0,0,0,0,0,0,0,0,0,0,0,0,0,0,0,0,0,0,0,0,0,0,0,0],"id":9,"left_children":[1,3,5,7,9,11,13,15,17,19,21,23,25,27,29,31,33,35,37,39,41,43,45,47,49,51,53,55,57,59,61,-1,-1,-1,-1,-1,-1,-1,-1,-1,-1,-1,-1,-1,-1,-1,-1,-1,-1,-1,-1,-1,-1,-1,-1,-1,-1,-1,-1,-1,-1,-1,-1],"loss_changes":[4.2444883E4,1.3728955E4,2.7164975E4,8.783988E3,5.6707856E3,2.0081473E4,7.899742E3,7.6307773E3,6.521095E3,4.875253E3,6.71945E3,1.3554216E4,6.8144727E3,5.409862E3,5.336211E3,3.2263438E3,4.8340117E3,2.3960068E3,6.131339E3,3.538891E3,1.7772324E3,3.2757637E3,5.746204E3,7.114166E3,5.196917E3,3.519373E3,6.70316E3,4.6452188E3,3.5512183E3,3.8018594E3,4.4191914E3,0E0,0E0,0E0,0E0,0E0,0E0,0E0,0E0,0E0,0E0,0E0,0E0,0E0,0E0,0E0,0E0,0E0,0E0,0E0,0E0,0E0,0E0,0E0,0E0,0E0,0E0,0E0,0E0,0E0,0E0,0E0,0E0],"parents":[2147483647,0,0,1,1,2,2,3,3,4,4,5,5,6,6,7,7,8,8,9,9,10,10,11,11,12,12,13,13,14,14,15,15,16,16,17,17,18,18,19,19,20,20,21,21,22,22,23,23,24,24,25,25,26,26,27,27,28,28,29,29,30,30],"right_children":[2,4,6,8,10,12,14,16,18,20,22,24,26,28,30,32,34,36,38,40,42,44,46,48,50,52,54,56,58,60,62,-1,-1,-1,-1,-1,-1,-1,-1,-1,-1,-1,-1,-1,-1,-1,-1,-1,-1,-1,-1,-1,-1,-1,-1,-1,-1,-1,-1,-1,-1,-1,-1],"split_conditions":[4.7614217E-1,3.761276E-1,5.3446037E-1,4.720416E-1,3.146455E-1,5.1739025E-1,4.5706195E-1,4.7487643E-1,4.7463623E-1,5.16239E-1,5.6843543E-1,3.9954486E-1,3.937563E-1,3.9066726E-1,3.0896932E-1,6.81101E-1,4.2513475E-1,5.1413494E-1,4.8962823E-1,4.6293887E-1,3.863524E-1,4.7656956E-1,3.190508E-1,1.8847784E-1,3.6280867E-1,6.4610493E-1,5.3451073E-1,4.5725286E-1,3.5820895E-1,3.4170887E-1,4.4392493E-1,-1.1863872E-1,1.1987765E-1,-7.655083E-2,2.6691291E-2,-6.415624E-2,-1.7028724E-1,-4.651339E-2,4.326851E-2,-1.0481877E-1,6.847746E-2,-3.383377E-2,-3.2736415E-1,-2.4236793E-2,7.207825E-2,3.1268618E-1,7.230534E-2,-1.3087459E-1,-2.8482735E-2,-1.2982623E-1,2.2522504E-2,-1.5911305E-2,2.0248492E-1,6.1676897E-2,1.6490693E-1,1.9139965E-1,1.0846329E-2,-1.1349049E-2,6.721096E-2,1.2345423E-1,4.6642143E-2,1.691813E-1,-6.572535E-2],"split_indices":[13,43,87,87,78,56,56,73,102,113,74,87,27,81,0,27,83,70,30,87,15,99,67,0,62,84,73,44,118,47,43,0,0,0,0,0,0,0,0,0,0,0,0,0,0,0,0,0,0,0,0,0,0,0,0,0,0,0,0,0,0,0,0],"split_type":[0,0,0,0,0,0,0,0,0,0,0,0,0,0,0,0,0,0,0,0,0,0,0,0,0,0,0,0,0,0,0,0,0,0,0,0,0,0,0,0,0,0,0,0,0,0,0,0,0,0,0,0,0,0,0,0,0,0,0,0,0,0,0],"sum_hessian":[4.083E3,1.295E3,2.788E3,9.75E2,3.2E2,2.074E3,7.14E2,5.61E2,4.14E2,5.7E1,2.63E2,1.689E3,3.85E2,3.04E2,4.1E2,3.71E2,1.9E2,1.11E2,3.03E2,4.6E1,1.1E1,1.87E2,7.6E1,8.01E2,8.88E2,1.01E2,2.84E2,6E1,2.44E2,2.66E2,1.44E2,3.66E2,5E0,1.17E2,7.3E1,8.2E1,2.9E1,1.59E2,1.44E2,2.6E1,2E1,3E0,8E0,1.41E2,4.6E1,1.1E1,6.5E1,7.4E1,7.27E2,2.2E1,8.66E2,9.4E1,7E0,1.89E2,9.5E1,3.7E1,2.3E1,1.53E2,9.1E1,1.13E2,1.53E2,1.36E2,8E0],"tree_param":{"num_deleted":"0","num_feature":"120","num_nodes":"63","size_leaf_vector":"1"}},{"base_weights":[-1.7686628E-1,-4.093078E0,2.919184E0,-9.133132E0,-1.5802304E0,1.0543852E-1,6.9239473E0,-1.106078E1,-1.1610123E0,-7.2692094E0,2.6283237E-1,-2.5827258E0,3.63141E0,1.119934E0,9.261444E0,-9.149682E0,-1.8135899E1,3.0130522E0,-1.221209E1,-8.507201E0,7.4721427E0,-1.9380715E0,4.007555E0,-4.2275777E0,3.0443137E0,4.2205068E-1,7.55093E0,-9.724087E0,3.1873693E0,5.8205824E0,1.2405315E1,-1.0286685E-1,-5.577999E-3,-2.0896623E-1,-1.02905795E-1,1.4939756E-2,2.701948E-1,-1.8689087E-1,1.8520938E-2,-1.5337262E-1,-6.2446833E-2,-1.312211E-2,2.4106832E-1,1.2411143E-2,-5.780296E-2,1.835944E-2,1.3250847E-1,-6.3135706E-2,7.164274E-3,-5.9200447E-2,7.0448786E-2,-7.212748E-2,2.8379783E-2,2.2721632E-1,5.056803E-2,-2.2155301E-1,-5.2856795E-2,-9.772616E-3,9.218599E-2,-1.0126779E-1,7.044205E-2,9.897944E-2,1.906609E-1],"categories":[],"categories_nodes":[],"categories_segments":[],"categories_sizes":[],"default_left":[0,0,0,0,0,0,0,0,0,0,0,0,0,0,0,0,0,0,0,0,0,0,0,0,0,0,0,0,0,0,0,0,0,0,0,0,0,0,0,0,0,0,0,0,0,0,0,0,0,0,0,0,0,0,0,0,0,0,0,0,0,0,0],"id":10,"left_children":[1,3,5,7,9,11,13,15,17,19,21,23,25,27,29,31,33,35,37,39,41,43,45,47,49,51,53,55,57,59,61,-1,-1,-1,-1,-1,-1,-1,-1,-1,-1,-1,-1,-1,-1,-1,-1,-1,-1,-1,-1,-1,-1,-1,-1,-1,-1,-1,-1,-1,-1,-1,-1],"loss_changes":[4.8717223E4,2.245308E4,2.5285525E4,9.053945E3,1.2426807E4,1.2511375E4,1.2552543E4,6.2566484E3,5.387633E3,5.3559736E3,7.3923965E3,6.945348E3,7.179507E3,6.0169507E3,7.067422E3,3.6674043E3,1.9508398E3,3.0593801E3,2.9496113E3,4.045664E3,3.3925078E3,6.908731E3,6.639853E3,5.986157E3,6.138331E3,5.8306826E3,9.609381E3,2.2554102E3,5.6605254E3,6.257133E3,5.5564414E3,0E0,0E0,0E0,0E0,0E0,0E0,0E0,0E0,0E0,0E0,0E0,0E0,0E0,0E0,0E0,0E0,0E0,0E0,0E0,0E0,0E0,0E0,0E0,0E0,0E0,0E0,0E0,0E0,0E0,0E0,0E0,0E0],"parents":[2147483647,0,0,1,1,2,2,3,3,4,4,5,5,6,6,7,7,8,8,9,9,10,10,11,11,12,12,13,13,14,14,15,15,16,16,17,17,18,18,19,19,20,20,21,21,22,22,23,23,24,24,25,25,26,26,27,27,28,28,29,29,30,30],"right_children":[2,4,6,8,10,12,14,16,18,20,22,24,26,28,30,32,34,36,38,40,42,44,46,48,50,52,54,56,58,60,62,-1,-1,-1,-1,-1,-1,-1,-1,-1,-1,-1,-1,-1,-1,-1,-1,-1,-1,-1,-1,-1,-1,-1,-1,-1,-1,-1,-1,-1,-1,-1,-1],"split_conditions":[4.5901212E-1,3.96619E-1,2.905823E-1,3.7165383E-1,2.7157003E-1,5.1418096E-1,4.6743947E-1,4.7863233E-1,4.9522048E-1,6.044129E-1,3.385094E-1,3.300637E-1,3.2166138E-1,2.4446759E-1,3.9386955E-1,5.23898E-1,4.3114543E-1,5.581804E-1,4.0447268E-1,2.3242855E-1,5.2630883E-1,4.6390605E-1,4.7849113E-1,5.1983875E-1,3.0735335E-1,3.2253903E-1,3.1920066E-1,4.4423234E-1,2.238806E-1,3.5078025E-1,5.3267175E-1,-1.0286685E-1,-5.577999E-3,-2.0896623E-1,-1.02905795E-1,1.4939756E-2,2.701948E-1,-1.8689087E-1,1.8520938E-2,-1.5337262E-1,-6.2446833E-2,-1.312211E-2,2.4106832E-1,1.2411143E-2,-5.780296E-2,1.835944E-2,1.3250847E-1,-6.3135706E-2,7.164274E-3,-5.9200447E-2,7.0448786E-2,-7.212748E-2,2.8379783E-2,2.2721632E-1,5.056803E-2,-2.2155301E-1,-5.2856795E-2,-9.772616E-3,9.218599E-2,-1.0126779E-1,7.044205E-2,9.897944E-2,1.906609E-1],"split_indices":[42,87,117,43,43,26,13,37,70,86,117,0,57,0,50,73,65,80,65,46,110,12,76,62,39,84,8,116,118,87,42,0,0,0,0,0,0,0,0,0,0,0,0,0,0,0,0,0,0,0,0,0,0,0,0,0,0,0,0,0,0,0,0],"split_type":[0,0,0,0,0,0,0,0,0,0,0,0,0,0,0,0,0,0,0,0,0,0,0,0,0,0,0,0,0,0,0,0,0,0,0,0,0,0,0,0,0,0,0,0,0,0,0,0,0,0,0,0,0,0,0,0,0,0,0,0,0,0,0],"sum_hessian":[4.016E3,1.773E3,2.243E3,5.89E2,1.184E3,1.318E3,9.25E2,4.74E2,1.15E2,2.89E2,8.95E2,7.48E2,5.7E2,2.66E2,6.59E2,3.75E2,9.9E1,8.4E1,3.1E1,2.67E2,2.2E1,5.64E2,3.31E2,5.79E2,1.69E2,3.14E2,2.56E2,4.2E1,2.24E2,3.16E2,3.43E2,3.31E2,4.4E1,7.2E1,2.7E1,8E1,4E0,2.1E1,1E1,6.5E1,2.02E2,1.5E1,7E0,3.09E2,2.55E2,2.69E2,6.2E1,4.07E2,1.72E2,5.2E1,1.17E2,7.5E1,2.39E2,3.5E1,2.21E2,1E1,3.2E1,1.33E2,9.1E1,2.2E1,2.94E2,2.51E2,9.2E1],"tree_param":{"num_deleted":"0","num_feature":"120","num_nodes":"63","size_leaf_vector":"1"}},{"base_weights":[-8.993286E-2,-1.7606589E0,6.1724606E0,-4.995685E0,1.5202361E0,9.738608E-1,1.0163571E1,-7.7182302E0,-1.628949E0,-3.6383436E0,3.9455566E0,4.4295845E0,-4.5911064E0,1.2786797E-1,1.2430196E1,-1.0137389E1,-2.669776E0,-3.2899265E0,2.604758E0,-5.994845E0,6.9670253E0,2.1811714E0,8.215613E0,-5.3689995E0,6.3358884E0,-1.4195479E1,-1.580745E0,-1.293007E1,2.7034101E0,9.076248E0,1.7825441E1,-1.1832228E-1,-4.186855E-2,-8.656458E-2,3.3732706E-3,-7.376545E-2,-1.0610208E-2,9.720016E-3,1.2833084E-1,-1.1127384E-1,-3.0089077E-2,1.0790258E-1,-2.7782943E-2,-3.804998E-3,7.0916764E-2,1.4953646E-1,4.4429988E-2,-8.904319E-2,1.4970095E-1,1.0735067E-1,1.779061E-2,-3.886389E-2,-2.1217524E-1,1.5430906E-2,-1.0784231E-1,-2.2065738E-1,-2.1781424E-2,-2.6275865E-3,1.3013217E-1,1.00924544E-1,-6.0989894E-2,2.0213693E-1,1.0509805E-1],"categories":[],"categories_nodes":[],"categories_segments":[],"categories_sizes":[],"default_left":[0,0,0,0,0,0,0,0,0,0,0,0,0,0,0,0,0,0,0,0,0,0,0,0,0,0,0,0,0,0,0,0,0,0,0,0,0,0,0,0,0,0,0,0,0,0,0,0,0,0,0,0,0,0,0,0,0,0,0,0,0,0,0],"id":11,"left_children":[1,3,5,7,9,11,13,15,17,19,21,23,25,27,29,31,33,35,37,39,41,43,45,47,49,51,53,55,57,59,61,-1,-1,-1,-1,-1,-1,-1,-1,-1,-1,-1,-1,-1,-1,-1,-1,-1,-1,-1,-1,-1,-1,-1,-1,-1,-1,-1,-1,-1,-1,-1,-1],"loss_changes":[4.2426832E4,3.398231E4,1.7709055E4,1.4763164E4,1.990718E4,7.1742646E3,1.0985293E4,1.085473E4,5.08574E3,1.2762473E4,8.1338945E3,4.3302056E3,4.1120674E3,3.0617695E3,6.967785E3,6.021754E3,5.223666E3,4.7195825E3,3.3944006E3,6.3572246E3,3.4950303E3,9.650868E3,7.9662812E3,2.8656968E3,3.8498374E3,2.378831E3,3.1791606E3,1.4253284E3,2.327547E3,3.8397441E3,2.4082969E3,0E0,0E0,0E0,0E0,0E0,0E0,0E0,0E0,0E0,0E0,0E0,0E0,0E0,0E0,0E0,0E0,0E0,0E0,0E0,0E0,0E0,0E0,0E0,0E0,0E0,0E0,0E0,0E0,0E0,0E0,0E0,0E0],"parents":[2147483647,0,0,1,1,2,2,3,3,4,4,5,5,6,6,7,7,8,8,9,9,10,10,11,11,12,12,13,13,14,14,15,15,16,16,17,17,18,18,19,19,20,20,21,21,22,22,23,23,24,24,25,25,26,26,27,27,28,28,29,29,30,30],"right_children":[2,4,6,8,10,12,14,16,18,20,22,24,26,28,30,32,34,36,38,40,42,44,46,48,50,52,54,56,58,60,62,-1,-1,-1,-1,-1,-1,-1,-1,-1,-1,-1,-1,-1,-1,-1,-1,-1,-1,-1,-1,-1,-1,-1,-1,-1,-1,-1,-1,-1,-1,-1,-1],"split_conditions":[5.0669426E-1,2.777614E-1,3.106576E-1,5.3056E-1,4.604236E-1,4.3513173E-1,5.028349E-1,4.7328487E-1,5.0050354E-1,4.0910342E-1,3.7313432E-1,5.684845E-1,4.3018964E-1,3.9972812E-1,5.700554E-1,5.474992E-1,2.731302E-1,5.219359E-1,6.6002774E-1,4.1852486E-1,4.4384432E-1,5.0609785E-1,4.5532924E-1,5.910402E-1,4.5457825E-1,4.4508314E-1,5.7595E-1,5.8237964E-1,5.781948E-1,5.38091E-1,4.73331E-1,-1.1832228E-1,-4.186855E-2,-8.656458E-2,3.3732706E-3,-7.376545E-2,-1.0610208E-2,9.720016E-3,1.2833084E-1,-1.1127384E-1,-3.0089077E-2,1.0790258E-1,-2.7782943E-2,-3.804998E-3,7.0916764E-2,1.4953646E-1,4.4429988E-2,-8.904319E-2,1.4970095E-1,1.0735067E-1,1.779061E-2,-3.886389E-2,-2.1217524E-1,1.5430906E-2,-1.0784231E-1,-2.2065738E-1,-2.1781424E-2,-2.6275865E-3,1.3013217E-1,1.00924544E-1,-6.0989894E-2,2.0213693E-1,1.0509805E-1],"split_indices":[42,103,43,13,13,70,102,73,27,43,119,90,96,35,14,27,43,102,75,42,11,34,41,21,41,66,105,38,72,101,97,0,0,0,0,0,0,0,0,0,0,0,0,0,0,0,0,0,0,0,0,0,0,0,0,0,0,0,0,0,0,0,0],"split_type":[0,0,0,0,0,0,0,0,0,0,0,0,0,0,0,0,0,0,0,0,0,0,0,0,0,0,0,0,0,0,0,0,0,0,0,0,0,0,0,0,0,0,0,0,0,0,0,0,0,0,0,0,0,0,0,0,0,0,0,0,0,0,0],"sum_hessian":[4.053E3,3.2E3,8.53E2,1.611E3,1.589E3,3.71E2,4.82E2,8.9E2,7.21E2,5.08E2,1.081E3,2.29E2,1.42E2,8.9E1,3.93E2,6.01E2,2.89E2,5.18E2,2.03E2,4.16E2,9.2E1,7.66E2,3.15E2,3.7E1,1.92E2,3.3E1,1.09E2,1.4E1,7.5E1,2.44E2,1.49E2,4.67E2,1.34E2,9.6E1,1.93E2,1.82E2,3.36E2,1.76E2,2.7E1,1.52E2,2.64E2,6.6E1,2.6E1,5.04E2,2.62E2,1.12E2,2.03E2,3.2E1,5E0,9.7E1,9.5E1,1.4E1,1.9E1,8.2E1,2.7E1,7E0,7E0,5.9E1,1.6E1,2.29E2,1.5E1,1.11E2,3.8E1],"tree_param":{"num_deleted":"0","num_feature":"120","num_nodes":"63","size_leaf_vector":"1"}},{"base_weights":[1.12752765E-1,-2.5494645E0,3.8241765E0,-7.238565E0,-2.9383862E-1,4.0046337E-1,7.7984743E0,-1.0687253E1,-3.7621899E0,1.4264024E0,-5.0167994E0,-6.6836023E0,2.9787629E0,8.735881E-1,9.843804E0,-1.5703793E1,-8.028873E0,-8.359617E0,9.7528636E-1,2.1680956E-1,6.5487366E0,-7.110196E0,-3.8498163E-2,-3.4840987E0,-1.479416E1,-8.768999E-1,7.2347813E0,-4.530967E0,5.706069E0,8.075092E0,1.6113218E1,-1.6944759E-1,3.276732E-2,-3.4693353E-2,-1.2056097E-1,-5.5214398E-2,-1.4856376E-1,-1.0306271E-2,1.02681994E-1,-3.86628E-2,2.0147664E-2,-3.5105225E-2,1.0657251E-1,-4.8112378E-2,-1.6114092E-1,-6.647652E-2,5.8908675E-2,-1.388952E-1,-1.0030678E-2,-1.7492673E-1,2.8763397E-2,1.7485319E-2,-7.035915E-2,-6.818977E-2,8.2446404E-2,-1.1104979E-1,2.9552644E-2,-4.2062968E-2,1.0275422E-1,3.0312134E-2,1.0424748E-1,3.0386364E-1,1.3467813E-1],"categories":[],"categories_nodes":[],"categories_segments":[],"categories_sizes":[],"default_left":[0,0,0,0,0,0,0,0,0,0,0,0,0,0,0,0,0,0,0,0,0,0,0,0,0,0,0,0,0,0,0,0,0,0,0,0,0,0,0,0,0,0,0,0,0,0,0,0,0,0,0,0,0,0,0,0,0,0,0,0,0,0,0],"id":12,"left_children":[1,3,5,7,9,11,13,15,17,19,21,23,25,27,29,31,33,35,37,39,41,43,45,47,49,51,53,55,57,59,61,-1,-1,-1,-1,-1,-1,-1,-1,-1,-1,-1,-1,-1,-1,-1,-1,-1,-1,-1,-1,-1,-1,-1,-1,-1,-1,-1,-1,-1,-1,-1,-1],"loss_changes":[4.0332547E4,2.5139062E4,2.3196566E4,9.21525E3,1.3055313E4,1.6768768E4,1.1166543E4,5.0348984E3,8.415312E3,7.2973965E3,4.470575E3,6.3061465E3,1.105012E4,4.7531055E3,6.622957E3,3.1882344E3,4.6405527E3,3.5320059E3,3.570972E3,7.011312E3,9.336352E3,6.173744E3,5.055236E3,4.5555303E3,3.3405166E3,5.736509E3,4.5977617E3,4.265272E3,4.391359E3,5.6215117E3,4.6126094E3,0E0,0E0,0E0,0E0,0E0,0E0,0E0,0E0,0E0,0E0,0E0,0E0,0E0,0E0,0E0,0E0,0E0,0E0,0E0,0E0,0E0,0E0,0E0,0E0,0E0,0E0,0E0,0E0,0E0,0E0,0E0,0E0],"parents":[2147483647,0,0,1,1,2,2,3,3,4,4,5,5,6,6,7,7,8,8,9,9,10,10,11,11,12,12,13,13,14,14,15,15,16,16,17,17,18,18,19,19,20,20,21,21,22,22,23,23,24,24,25,25,26,26,27,27,28,28,29,29,30,30],"right_children":[2,4,6,8,10,12,14,16,18,20,22,24,26,28,30,32,34,36,38,40,42,44,46,48,50,52,54,56,58,60,62,-1,-1,-1,-1,-1,-1,-1,-1,-1,-1,-1,-1,-1,-1,-1,-1,-1,-1,-1,-1,-1,-1,-1,-1,-1,-1,-1,-1,-1,-1,-1,-1],"split_conditions":[4.8069826E-1,3.96619E-1,2.917093E-1,4.5828608E-1,4.5783436E-1,4.6877342E-1,4.9803257E-1,4.2556E-1,4.3034574E-1,5.6608224E-1,4.7443697E-1,5.524754E-1,2.7547014E-1,4.320546E-1,6.613918E-1,3.8881665E-1,3.4621453E-1,4.0821227E-1,5.748334E-1,4.8957083E-1,2.436816E-1,5.716614E-1,3.9087266E-1,3.842441E-1,5.1866394E-1,4.2821804E-1,4.5771158E-1,4.4104663E-1,3.302669E-1,2.578106E-1,4.4075406E-1,-1.6944759E-1,3.276732E-2,-3.4693353E-2,-1.2056097E-1,-5.5214398E-2,-1.4856376E-1,-1.0306271E-2,1.02681994E-1,-3.86628E-2,2.0147664E-2,-3.5105225E-2,1.0657251E-1,-4.8112378E-2,-1.6114092E-1,-6.647652E-2,5.8908675E-2,-1.388952E-1,-1.0030678E-2,-1.7492673E-1,2.8763397E-2,1.7485319E-2,-7.035915E-2,-6.818977E-2,8.2446404E-2,-1.1104979E-1,2.9552644E-2,-4.2062968E-2,1.0275422E-1,3.0312134E-2,1.0424748E-1,3.0386364E-1,1.3467813E-1],"split_indices":[42,87,0,73,51,13,102,14,27,82,86,81,103,87,74,87,83,6,69,13,0,55,112,98,51,83,116,17,11,103,108,0,0,0,0,0,0,0,0,0,0,0,0,0,0,0,0,0,0,0,0,0,0,0,0,0,0,0,0,0,0,0,0],"split_type":[0,0,0,0,0,0,0,0,0,0,0,0,0,0,0,0,0,0,0,0,0,0,0,0,0,0,0,0,0,0,0,0,0,0,0,0,0,0,0,0,0,0,0,0,0,0,0,0,0,0,0,0,0,0,0,0,0,0,0,0,0,0,0],"sum_hessian":[4.08E3,2.376E3,1.704E3,7.71E2,1.605E3,9.16E2,7.88E2,3.86E2,3.85E2,1.177E3,4.28E2,2.44E2,6.72E2,1.8E2,6.08E2,1.32E2,2.54E2,1.95E2,1.9E2,9.53E2,2.24E2,3.01E2,1.27E2,1.76E2,6.8E1,3.53E2,3.19E2,8.5E1,9.5E1,4.76E2,1.32E2,1.24E2,8E0,1.2E2,1.34E2,1.37E2,5.8E1,1.57E2,3.3E1,2.91E2,6.62E2,6.5E1,1.59E2,2.41E2,6E1,6E1,6.7E1,3.3E1,1.43E2,5.9E1,9E0,2.48E2,1.05E2,2.1E1,2.98E2,4.5E1,4E1,3E1,6.5E1,1.52E2,3.24E2,1.9E1,1.13E2],"tree_param":{"num_deleted":"0","num_feature":"120","num_nodes":"63","size_leaf_vector":"1"}},{"base_weights":[1.1652287E-1,-3.728957E0,2.582834E0,-8.38657E0,-1.8199083E0,-5.720371E-1,5.712924E0,-1.0765564E1,-2.3849707E0,-6.93595E-1,-8.525164E0,-4.152742E0,2.1651664E0,-9.277873E-1,7.4833746E0,-1.4696029E1,-7.405364E0,-1.6496368E1,4.0820545E-1,-2.7489002E0,2.777358E0,3.3174586E0,-1.1005985E1,-1.1446607E1,-2.440781E0,5.900412E-1,8.078542E0,-3.2386837E0,8.555841E0,3.1611392E0,1.02306E1,-2.0102338E-1,-9.0252124E-2,-1.1490091E-1,-4.0561732E-2,-1.9277236E-1,7.5415395E-2,-2.172476E-2,1.3154303E-1,-1.230852E-1,-1.985352E-2,7.215015E-2,-1.6511763E-2,-1.215999E-1,9.7926766E-2,-5.4116E-3,-1.361718E-1,-8.017687E-2,-2.600359E-1,-1.302887E-1,-1.1920747E-2,1.8958566E-1,1.1623722E-3,1.3548636E-1,1.7897407E-2,-5.5513844E-2,8.2863E-2,-6.182252E-2,1.4148356E-1,1.2635788E-1,1.0155482E-2,8.254454E-2,1.408382E-1],"categories":[],"categories_nodes":[],"categories_segments":[],"categories_sizes":[],"default_left":[0,0,0,0,0,0,0,0,0,0,0,0,0,0,0,0,0,0,0,0,0,0,0,0,0,0,0,0,0,0,0,0,0,0,0,0,0,0,0,0,0,0,0,0,0,0,0,0,0,0,0,0,0,0,0,0,0,0,0,0,0,0,0],"id":13,"left_children":[1,3,5,7,9,11,13,15,17,19,21,23,25,27,29,31,33,35,37,39,41,43,45,47,49,51,53,55,57,59,61,-1,-1,-1,-1,-1,-1,-1,-1,-1,-1,-1,-1,-1,-1,-1,-1,-1,-1,-1,-1,-1,-1,-1,-1,-1,-1,-1,-1,-1,-1,-1,-1],"loss_changes":[3.8761867E4,1.4184637E4,2.4592096E4,6.599211E3,8.558303E3,1.2172179E4,1.4703258E4,4.2759414E3,5.2490117E3,6.9417534E3,4.8253574E3,6.689965E3,6.552505E3,5.81345E3,1.1687453E4,4.478621E3,2.4295713E3,1.6159976E3,3.712662E3,4.435393E3,7.126052E3,3.0254546E3,3.6815996E3,4.8828145E3,5.7622275E3,4.845412E3,5.067001E3,5.723268E3,4.373466E3,7.8137246E3,4.4753047E3,0E0,0E0,0E0,0E0,0E0,0E0,0E0,0E0,0E0,0E0,0E0,0E0,0E0,0E0,0E0,0E0,0E0,0E0,0E0,0E0,0E0,0E0,0E0,0E0,0E0,0E0,0E0,0E0,0E0,0E0,0E0,0E0],"parents":[2147483647,0,0,1,1,2,2,3,3,4,4,5,5,6,6,7,7,8,8,9,9,10,10,11,11,12,12,13,13,14,14,15,15,16,16,17,17,18,18,19,19,20,20,21,21,22,22,23,23,24,24,25,25,26,26,27,27,28,28,29,29,30,30],"right_children":[2,4,6,8,10,12,14,16,18,20,22,24,26,28,30,32,34,36,38,40,42,44,46,48,50,52,54,56,58,60,62,-1,-1,-1,-1,-1,-1,-1,-1,-1,-1,-1,-1,-1,-1,-1,-1,-1,-1,-1,-1,-1,-1,-1,-1,-1,-1,-1,-1,-1,-1,-1,-1],"split_conditions":[4.5090625E-1,3.8329E-1,2.7396792E-1,4.9647066E-1,4.9636394E-1,4.8211142E-1,4.3723202E-1,4.4519365E-1,1.9406967E-1,4.7171235E-1,3.1814003E-1,3.8593775E-1,5.582705E-1,4.1791046E-1,3.8000944E-1,3.7382436E-1,4.892903E-1,4.6677944E-1,5.0288737E-1,3.203725E-1,4.522445E-1,4.5454547E-2,3.496094E-1,4.5478103E-1,4.1224474E-1,2.577056E-1,3.904042E-1,5.5717146E-1,2.9761714E-1,3.638093E-1,6.1708313E-1,-2.0102338E-1,-9.0252124E-2,-1.1490091E-1,-4.0561732E-2,-1.9277236E-1,7.5415395E-2,-2.172476E-2,1.3154303E-1,-1.230852E-1,-1.985352E-2,7.215015E-2,-1.6511763E-2,-1.215999E-1,9.7926766E-2,-5.4116E-3,-1.361718E-1,-8.017687E-2,-2.600359E-1,-1.302887E-1,-1.1920747E-2,1.8958566E-1,1.1623722E-3,1.3548636E-1,1.7897407E-2,-5.5513844E-2,8.2863E-2,-6.182252E-2,1.4148356E-1,1.2635788E-1,1.0155482E-2,8.254454E-2,1.408382E-1],"split_indices":[56,87,103,27,51,14,13,73,103,86,68,35,30,119,50,11,62,65,110,65,12,59,12,7,110,10,51,77,103,85,74,0,0,0,0,0,0,0,0,0,0,0,0,0,0,0,0,0,0,0,0,0,0,0,0,0,0,0,0,0,0,0,0],"split_type":[0,0,0,0,0,0,0,0,0,0,0,0,0,0,0,0,0,0,0,0,0,0,0,0,0,0,0,0,0,0,0,0,0,0,0,0,0,0,0,0,0,0,0,0,0,0,0,0,0,0,0,0,0,0,0,0,0,0,0,0,0,0,0],"sum_hessian":[4.085E3,1.596E3,2.489E3,4.63E2,1.133E3,1.24E3,1.249E3,3.31E2,1.32E2,9.71E2,1.62E2,5.37E2,7.03E2,2.63E2,9.86E2,1.51E2,1.8E2,2.1E1,1.11E2,6.1E2,3.61E2,2.8E1,1.34E2,1.01E2,4.36E2,5.56E2,1.47E2,2.12E2,5.1E1,3.84E2,6.02E2,7.6E1,7.5E1,8E1,1E2,1.9E1,2E0,9.3E1,1.8E1,4.4E1,5.66E2,1.8E2,1.81E2,8E0,2E1,2.7E1,1.07E2,8.3E1,1.8E1,4.5E1,3.91E2,1.3E1,5.43E2,7.8E1,6.9E1,1.77E2,3.5E1,1.4E1,3.7E1,7E1,3.14E2,4E2,2.02E2],"tree_param":{"num_deleted":"0","num_feature":"120","num_nodes":"63","size_leaf_vector":"1"}},{"base_weights":[9.3926564E-2,-3.7381883E0,2.4862719E0,-2.3138375E0,-9.414479E0,-4.40556E-1,5.6835623E0,-7.77663E0,-6.6346097E-1,-1.0703412E1,1.4392499E0,-2.030842E0,5.97755E0,5.5046755E-1,8.404252E0,-4.824997E0,-1.7117704E1,-2.5298522E0,3.3794966E0,-2.2760452E1,-9.734781E0,-1.13997965E1,9.9300785E0,-6.4558716E0,-3.3881503E-1,3.0217667E0,1.3055005E1,-3.960686E0,3.8375566E0,-1.1572278E1,9.054596E0,-1.2000947E-1,-1.7580887E-2,-2.500406E-1,-1.145257E-1,-4.480812E-2,2.1393446E-2,2.6141929E-2,2.1720256E-1,-2.6329195E-1,6.2388252E-2,-1.3298416E-1,-7.1556464E-2,-1.8455474E-1,1.0836868E-2,-4.963781E-2,1.4894645E-1,-1.7021012E-1,-4.7885556E-2,-2.3335269E-2,4.2705357E-2,2.2330321E-2,2.6048714E-1,1.5401211E-1,-1.2272057E-1,-1.7897405E-1,-1.8397367E-2,1.0514945E-1,-1.6135372E-2,-1.541392E-1,6.877078E-2,1.0755388E-1,2.1801976E-2],"categories":[],"categories_nodes":[],"categories_segments":[],"categories_sizes":[],"default_left":[0,0,0,0,0,0,0,0,0,0,0,0,0,0,0,0,0,0,0,0,0,0,0,0,0,0,0,0,0,0,0,0,0,0,0,0,0,0,0,0,0,0,0,0,0,0,0,0,0,0,0,0,0,0,0,0,0,0,0,0,0,0,0],"id":14,"left_children":[1,3,5,7,9,11,13,15,17,19,21,23,25,27,29,31,33,35,37,39,41,43,45,47,49,51,53,55,57,59,61,-1,-1,-1,-1,-1,-1,-1,-1,-1,-1,-1,-1,-1,-1,-1,-1,-1,-1,-1,-1,-1,-1,-1,-1,-1,-1,-1,-1,-1,-1,-1,-1],"loss_changes":[3.7138645E4,1.2566605E4,2.3341154E4,1.1228357E4,4.380201E3,1.3311372E4,1.664232E4,7.885549E3,7.237369E3,3.0368281E3,3.819682E3,7.822009E3,5.3786807E3,6.1542246E3,1.0225242E4,4.842665E3,2.796371E3,5.9853633E3,4.1962017E3,2.234083E3,2.2945254E3,1.2531119E3,1.6267065E3,5.0093545E3,6.970071E3,3.2836665E3,4.705117E3,5.139911E3,8.752742E3,1.8778989E3,8.803949E3,0E0,0E0,0E0,0E0,0E0,0E0,0E0,0E0,0E0,0E0,0E0,0E0,0E0,0E0,0E0,0E0,0E0,0E0,0E0,0E0,0E0,0E0,0E0,0E0,0E0,0E0,0E0,0E0,0E0,0E0,0E0,0E0],"parents":[2147483647,0,0,1,1,2,2,3,3,4,4,5,5,6,6,7,7,8,8,9,9,10,10,11,11,12,12,13,13,14,14,15,15,16,16,17,17,18,18,19,19,20,20,21,21,22,22,23,23,24,24,25,25,26,26,27,27,28,28,29,29,30,30],"right_children":[2,4,6,8,10,12,14,16,18,20,22,24,26,28,30,32,34,36,38,40,42,44,46,48,50,52,54,56,58,60,62,-1,-1,-1,-1,-1,-1,-1,-1,-1,-1,-1,-1,-1,-1,-1,-1,-1,-1,-1,-1,-1,-1,-1,-1,-1,-1,-1,-1,-1,-1,-1,-1],"split_conditions":[4.487653E-1,5.332614E-1,2.7649575E-1,2.622122E-1,6.073942E-1,6.139907E-1,4.8472106E-1,5.001947E-1,5.2083415E-1,3.6384973E-1,3.702797E-1,4.4174463E-1,4.985398E-1,4.9411005E-1,2.1895154E-1,3.999062E-1,2.7759558E-1,3.4082195E-1,6.9378704E-1,6.362087E-1,3.7937897E-1,4.249342E-1,3.141966E-1,3.3529484E-1,5.516261E-1,6.3069713E-1,6.028305E-1,3.0417785E-1,5.143317E-1,4.5560554E-1,4.9275964E-1,-1.2000947E-1,-1.7580887E-2,-2.500406E-1,-1.145257E-1,-4.480812E-2,2.1393446E-2,2.6141929E-2,2.1720256E-1,-2.6329195E-1,6.2388252E-2,-1.3298416E-1,-7.1556464E-2,-1.8455474E-1,1.0836868E-2,-4.963781E-2,1.4894645E-1,-1.7021012E-1,-4.7885556E-2,-2.3335269E-2,4.2705357E-2,2.2330321E-2,2.6048714E-1,1.5401211E-1,-1.2272057E-1,-1.7897405E-1,-1.8397367E-2,1.0514945E-1,-1.6135372E-2,-1.541392E-1,6.877078E-2,1.0755388E-1,2.1801976E-2],"split_indices":[56,97,103,43,1,86,1,37,26,1,7,96,4,48,57,56,39,117,102,101,84,37,100,26,26,48,3,112,41,8,23,0,0,0,0,0,0,0,0,0,0,0,0,0,0,0,0,0,0,0,0,0,0,0,0,0,0,0,0,0,0,0,0],"split_type":[0,0,0,0,0,0,0,0,0,0,0,0,0,0,0,0,0,0,0,0,0,0,0,0,0,0,0,0,0,0,0,0,0,0,0,0,0,0,0,0,0,0,0,0,0,0,0,0,0,0,0,0,0,0,0,0,0,0,0,0,0,0,0],"sum_hessian":[4.049E3,1.556E3,2.493E3,1.245E3,3.11E2,1.302E3,1.191E3,2.88E2,9.57E2,2.78E2,3.3E1,1.044E3,2.58E2,4.13E2,7.78E2,2.2E2,6.8E1,6.55E2,3.02E2,1.9E1,2.59E2,1.3E1,2E1,2.88E2,7.56E2,1.83E2,7.5E1,1.74E2,2.39E2,2.4E1,7.54E2,6.5E1,1.55E2,2.7E1,4.1E1,4.62E2,1.93E2,2.91E2,1.1E1,1.7E1,2E0,1.07E2,1.52E2,8E0,5E0,5E0,1.5E1,3.8E1,2.5E2,5.28E2,2.28E2,1.78E2,5E0,6.9E1,6E0,2.2E1,1.52E2,1.07E2,1.32E2,2E1,4E0,6.04E2,1.5E2],"tree_param":{"num_deleted":"0","num_feature":"120","num_nodes":"63","size_leaf_vector":"1"}},{"base_weights":[2.0218427E-1,-2.5500462E0,3.7386637E0,-4.4844484E0,3.8360925E0,-6.524831E-1,6.7317348E0,-1.7602608E1,-4.049683E0,-8.940557E-1,7.938691E0,-5.678368E0,1.6637881E0,9.72399E0,4.304996E0,-2.0214975E1,5.984669E-1,-2.9684947E0,-8.7756195E0,-2.4737432E1,-3.0165112E-1,2.8592737E0,1.1668876E1,-7.0157657E0,1.526584E1,-2.3075142E0,5.9272227E0,4.935976E0,1.4273972E1,-1.0644333E1,5.187709E0,-2.570974E-1,-1.3420023E-1,-6.0503896E-2,1.369669E-1,-4.8343863E-2,-1.4399777E-3,-1.0580586E-1,-3.884802E-3,-8.2969815E-2,-3.088341E-1,-4.9694367E-2,2.5752077E-2,-1.1725863E-1,5.1714253E-2,4.6999667E-2,1.5142179E-1,-9.3930624E-2,6.1678053E-3,4.9777296E-1,5.3658217E-2,1.95455E-2,-6.7542195E-2,3.4359224E-2,1.4605448E-1,6.298303E-2,-6.59602E-2,9.371618E-2,2.0688905E-1,6.6586375E-2,-1.5558927E-1,3.0350255E-2,9.755656E-2],"categories":[],"categories_nodes":[],"categories_segments":[],"categories_sizes":[],"default_left":[0,0,0,0,0,0,0,0,0,0,0,0,0,0,0,0,0,0,0,0,0,0,0,0,0,0,0,0,0,0,0,0,0,0,0,0,0,0,0,0,0,0,0,0,0,0,0,0,0,0,0,0,0,0,0,0,0,0,0,0,0,0,0],"id":15,"left_children":[1,3,5,7,9,11,13,15,17,19,21,23,25,27,29,31,33,35,37,39,41,43,45,47,49,51,53,55,57,59,61,-1,-1,-1,-1,-1,-1,-1,-1,-1,-1,-1,-1,-1,-1,-1,-1,-1,-1,-1,-1,-1,-1,-1,-1,-1,-1,-1,-1,-1,-1,-1,-1],"loss_changes":[3.9565285E4,2.8256984E4,2.3385816E4,9.938051E3,1.0331036E4,8.414476E3,7.6407227E3,2.6747793E3,8.66032E3,3.4955195E3,5.366578E3,6.4935493E3,8.394713E3,1.0234027E4,7.7880547E3,1.4844707E3,7.7957605E2,7.298537E3,4.7796543E3,3.5001685E2,3.2759375E3,4.174851E3,3.8984746E3,3.9069326E3,4.5162E3,4.883903E3,5.1170127E3,3.6863442E3,7.4165938E3,2.9098247E3,5.4180645E3,0E0,0E0,0E0,0E0,0E0,0E0,0E0,0E0,0E0,0E0,0E0,0E0,0E0,0E0,0E0,0E0,0E0,0E0,0E0,0E0,0E0,0E0,0E0,0E0,0E0,0E0,0E0,0E0,0E0,0E0,0E0,0E0],"parents":[2147483647,0,0,1,1,2,2,3,3,4,4,5,5,6,6,7,7,8,8,9,9,10,10,11,11,12,12,13,13,14,14,15,15,16,16,17,17,18,18,19,19,20,20,21,21,22,22,23,23,24,24,25,25,26,26,27,27,28,28,29,29,30,30],"right_children":[2,4,6,8,10,12,14,16,18,20,22,24,26,28,30,32,34,36,38,40,42,44,46,48,50,52,54,56,58,60,62,-1,-1,-1,-1,-1,-1,-1,-1,-1,-1,-1,-1,-1,-1,-1,-1,-1,-1,-1,-1,-1,-1,-1,-1,-1,-1,-1,-1,-1,-1,-1,-1],"split_conditions":[3.2563257E-1,5.060351E-1,4.8957083E-1,2.9631838E-1,3.1771833E-1,4.1941723E-1,4.7521347E-1,5.011318E-1,4.8051646E-1,2.150358E-1,5.342199E-1,5.39144E-1,4.5188153E-1,4.213077E-1,2.4788377E-1,3.7850538E-1,3.0162266E-1,4.632427E-1,5.070027E-1,3.7869635E-1,3.791741E-1,3.2669327E-1,5.453755E-1,3.561021E-1,3.7782243E-1,4.8266494E-1,6.0728216E-1,5.96102E-1,6.03939E-1,4.254491E-1,5.7474333E-1,-2.570974E-1,-1.3420023E-1,-6.0503896E-2,1.369669E-1,-4.8343863E-2,-1.4399777E-3,-1.0580586E-1,-3.884802E-3,-8.2969815E-2,-3.088341E-1,-4.9694367E-2,2.5752077E-2,-1.1725863E-1,5.1714253E-2,4.6999667E-2,1.5142179E-1,-9.3930624E-2,6.1678053E-3,4.9777296E-1,5.3658217E-2,1.95455E-2,-6.7542195E-2,3.4359224E-2,1.4605448E-1,6.298303E-2,-6.59602E-2,9.371618E-2,2.0688905E-1,6.6586375E-2,-1.5558927E-1,3.0350255E-2,9.755656E-2],"split_indices":[60,42,13,66,43,42,85,70,51,43,13,76,35,4,67,50,60,27,73,4,3,82,91,0,62,41,87,23,74,41,14,0,0,0,0,0,0,0,0,0,0,0,0,0,0,0,0,0,0,0,0,0,0,0,0,0,0,0,0,0,0,0,0],"split_type":[0,0,0,0,0,0,0,0,0,0,0,0,0,0,0,0,0,0,0,0,0,0,0,0,0,0,0,0,0,0,0,0,0,0,0,0,0,0,0,0,0,0,0,0,0,0,0,0,0,0,0,0,0,0,0,0,0,0,0,0,0,0,0],"sum_hessian":[4.063E3,2.285E3,1.778E3,1.754E3,5.31E2,7.21E2,1.057E3,5.5E1,1.699E3,2.47E2,2.84E2,2.27E2,4.94E2,4.72E2,5.85E2,4.8E1,7E0,1.384E3,3.15E2,5E0,2.42E2,1.21E2,1.63E2,2.14E2,1.3E1,2.56E2,2.38E2,2.31E2,2.41E2,3.2E1,5.53E2,2.5E1,2.3E1,5E0,2E0,8.33E2,5.51E2,2.59E2,5.6E1,2E0,3E0,9.2E1,1.5E2,1.6E1,1.05E2,5.5E1,1.08E2,1.63E2,5.1E1,2E0,1.1E1,1.31E2,1.25E2,1.86E2,5.2E1,2.07E2,2.4E1,1.38E2,1.03E2,7E0,2.5E1,3.77E2,1.76E2],"tree_param":{"num_deleted":"0","num_feature":"120","num_nodes":"63","size_leaf_vector":"1"}},{"base_weights":[5.098002E-3,-3.86915E0,2.427683E0,-6.863921E0,1.6418025E-2,-2.7598682E-1,5.843623E0,-8.395903E0,-4.3068904E-1,-2.331937E0,5.3922286E0,-2.7360344E0,3.1737232E0,-1.243801E0,7.898938E0,-1.7119457E1,-7.4470105E0,-8.61742E0,3.5228276E0,-1.0321839E1,-8.0121285E-1,-2.5090806E0,8.47307E0,-1.0054048E0,-8.191724E0,-3.8357642E0,5.2031155E0,-6.9758043E0,2.8250055E0,1.0047961E1,2.740631E0,-1.809151E-1,2.4004066E-1,-5.833405E-2,-1.1645934E-1,-1.5078121E-1,2.56077E-2,1.1309311E-1,-3.6560355E-3,-1.5482937E-1,-2.4969595E-2,-1.2470211E-1,3.7444395E-3,-5.1083453E-2,2.6064798E-1,1.0863162E-1,-3.6251023E-2,-1.8631984E-1,-5.9036706E-3,-1.3272887E-1,-4.154195E-2,-7.19424E-2,4.0990315E-2,1.2893564E-1,3.1287417E-2,-8.554578E-2,2.5363305E-1,9.897633E-3,2.4924773E-1,5.4574404E-2,1.2714273E-1,1.4373928E-2,1.7590839E-1],"categories":[],"categories_nodes":[],"categories_segments":[],"categories_sizes":[],"default_left":[0,0,0,0,0,0,0,0,0,0,0,0,0,0,0,0,0,0,0,0,0,0,0,0,0,0,0,0,0,0,0,0,0,0,0,0,0,0,0,0,0,0,0,0,0,0,0,0,0,0,0,0,0,0,0,0,0,0,0,0,0,0,0],"id":16,"left_children":[1,3,5,7,9,11,13,15,17,19,21,23,25,27,29,31,33,35,37,39,41,43,45,47,49,51,53,55,57,59,61,-1,-1,-1,-1,-1,-1,-1,-1,-1,-1,-1,-1,-1,-1,-1,-1,-1,-1,-1,-1,-1,-1,-1,-1,-1,-1,-1,-1,-1,-1,-1,-1],"loss_changes":[3.749586E4,1.7885236E4,2.2702656E4,8.551039E3,8.470863E3,1.1660581E4,1.5829465E4,5.6751875E3,5.467909E3,5.703297E3,4.9871665E3,7.5640693E3,8.156658E3,5.7336987E3,9.306301E3,3.1525215E3,4.227672E3,4.0106545E3,3.4557363E3,2.9902139E3,5.3961323E3,4.4408706E3,4.289994E3,4.4515747E3,3.9043232E3,3.4671865E3,7.0427295E3,5.4246963E3,5.815744E3,7.2010273E3,4.793702E3,0E0,0E0,0E0,0E0,0E0,0E0,0E0,0E0,0E0,0E0,0E0,0E0,0E0,0E0,0E0,0E0,0E0,0E0,0E0,0E0,0E0,0E0,0E0,0E0,0E0,0E0,0E0,0E0,0E0,0E0,0E0,0E0],"parents":[2147483647,0,0,1,1,2,2,3,3,4,4,5,5,6,6,7,7,8,8,9,9,10,10,11,11,12,12,13,13,14,14,15,15,16,16,17,17,18,18,19,19,20,20,21,21,22,22,23,23,24,24,25,25,26,26,27,27,28,28,29,29,30,30],"right_children":[2,4,6,8,10,12,14,16,18,20,22,24,26,28,30,32,34,36,38,40,42,44,46,48,50,52,54,56,58,60,62,-1,-1,-1,-1,-1,-1,-1,-1,-1,-1,-1,-1,-1,-1,-1,-1,-1,-1,-1,-1,-1,-1,-1,-1,-1,-1,-1,-1,-1,-1,-1,-1],"split_conditions":[4.4826117E-1,3.304689E-1,3.2327518E-1,3.740374E-1,4.8457578E-1,3.2541963E-1,4.969619E-1,3.0805793E-1,3.351688E-1,2.5852585E-1,3.32697E-1,4.5602742E-1,3.8748196E-1,1.04477614E-1,5.158239E-1,7.3600686E-1,4.7272044E-1,4.75458E-1,4.0291524E-1,5.5280185E-1,4.0034834E-1,6.118521E-1,6.271496E-1,1.8130468E-1,2.6688075E-1,3.880597E-1,3.485771E-1,5.096691E-1,3.9621553E-1,4.6971673E-1,7.4147177E-1,-1.809151E-1,2.4004066E-1,-5.833405E-2,-1.1645934E-1,-1.5078121E-1,2.56077E-2,1.1309311E-1,-3.6560355E-3,-1.5482937E-1,-2.4969595E-2,-1.2470211E-1,3.7444395E-3,-5.1083453E-2,2.6064798E-1,1.0863162E-1,-3.6251023E-2,-1.8631984E-1,-5.9036706E-3,-1.3272887E-1,-4.154195E-2,-7.19424E-2,4.0990315E-2,1.2893564E-1,3.1287417E-2,-8.554578E-2,2.5363305E-1,9.897633E-3,2.4924773E-1,5.4574404E-2,1.2714273E-1,1.4373928E-2,1.7590839E-1],"split_indices":[56,60,60,43,86,43,116,26,77,43,3,37,26,119,55,15,12,35,115,22,94,18,22,63,60,118,8,64,0,34,15,0,0,0,0,0,0,0,0,0,0,0,0,0,0,0,0,0,0,0,0,0,0,0,0,0,0,0,0,0,0,0,0],"split_type":[0,0,0,0,0,0,0,0,0,0,0,0,0,0,0,0,0,0,0,0,0,0,0,0,0,0,0,0,0,0,0,0,0,0,0,0,0,0,0,0,0,0,0,0,0,0,0,0,0,0,0,0,0,0,0,0,0,0,0,0,0,0,0],"sum_hessian":[3.993E3,1.536E3,2.457E3,8.67E2,6.69E2,1.372E3,1.085E3,7E2,1.67E2,4.66E2,2.03E2,8.01E2,5.71E2,2.44E2,8.41E2,6.7E1,6.33E2,5.4E1,1.13E2,7.4E1,3.92E2,5.7E1,1.46E2,6.09E2,1.92E2,1.28E2,4.43E2,1.01E2,1.43E2,5.93E2,2.48E2,6.6E1,1E0,4.59E2,1.74E2,3.4E1,2E1,3.7E1,7.6E1,4.4E1,3E1,3.5E1,3.57E2,5.3E1,4E0,1.22E2,2.4E1,1.3E1,5.96E2,8.4E1,1.08E2,9E1,3.8E1,9.3E1,3.5E2,9.7E1,4E0,1.33E2,1E1,2.19E2,3.74E2,2.29E2,1.9E1],"tree_param":{"num_deleted":"0","num_feature":"120","num_nodes":"63","size_leaf_vector":"1"}},{"base_weights":[8.4308E-2,-2.9733825E0,2.776538E0,-6.4990892E0,-1.184717E-1,1.2849334E-1,6.29547E0,-5.2323613E0,-1.691257E1,-4.804922E0,1.8478087E0,-2.769012E0,3.286002E0,1.2823102E0,8.4117E0,-9.92718E0,-3.4075384E0,-1.2384599E1,-2.367411E1,-7.7270155E0,3.7981827E0,1.3236363E1,1.0591012E0,1.1237652E0,-5.877563E0,2.8102713E1,2.6213353E0,-1.7659435E1,2.4611602E0,5.59155E0,1.1765036E1,-1.3516289E-1,-4.7800712E-2,-6.359049E-2,-4.977553E-3,-1.6309778E-1,-3.882419E-2,-4.4955928E-2,-2.600374E-1,-9.759094E-2,1.7792733E-2,1.7207969E-2,3.3783856E-1,1.7159832E-1,-8.03553E-2,-3.8084206E-3,5.289575E-2,-6.0262725E-2,4.049662E-2,-1.3611823E-1,-4.005002E-2,3.6240822E-1,1.3624758E-1,4.5070194E-2,-3.660298E-2,-2.8194958E-1,-6.332365E-2,1.1754624E-1,4.234326E-3,9.499873E-2,1.4676823E-2,6.312562E-2,1.4855033E-1],"categories":[],"categories_nodes":[],"categories_segments":[],"categories_sizes":[],"default_left":[0,0,0,0,0,0,0,0,0,0,0,0,0,0,0,0,0,0,0,0,0,0,0,0,0,0,0,0,0,0,0,0,0,0,0,0,0,0,0,0,0,0,0,0,0,0,0,0,0,0,0,0,0,0,0,0,0,0,0,0,0,0,0],"id":17,"left_children":[1,3,5,7,9,11,13,15,17,19,21,23,25,27,29,31,33,35,37,39,41,43,45,47,49,51,53,55,57,59,61,-1,-1,-1,-1,-1,-1,-1,-1,-1,-1,-1,-1,-1,-1,-1,-1,-1,-1,-1,-1,-1,-1,-1,-1,-1,-1,-1,-1,-1,-1,-1,-1],"loss_changes":[3.277164E4,1.8761469E4,1.9726006E4,1.0912844E4,9.509416E3,1.1070117E4,9.632793E3,6.348746E3,2.46225E3,7.696767E3,6.5160693E3,7.642272E3,9.476846E3,6.094751E3,5.9771797E3,3.7778867E3,4.617317E3,1.805543E3,1.4468574E3,4.4217607E3,4.800626E3,4.0604902E3,4.150423E3,5.903001E3,5.0289727E3,1.2735752E3,6.7090215E3,1.7308447E3,4.8430347E3,5.611032E3,4.809039E3,0E0,0E0,0E0,0E0,0E0,0E0,0E0,0E0,0E0,0E0,0E0,0E0,0E0,0E0,0E0,0E0,0E0,0E0,0E0,0E0,0E0,0E0,0E0,0E0,0E0,0E0,0E0,0E0,0E0,0E0,0E0,0E0],"parents":[2147483647,0,0,1,1,2,2,3,3,4,4,5,5,6,6,7,7,8,8,9,9,10,10,11,11,12,12,13,13,14,14,15,15,16,16,17,17,18,18,19,19,20,20,21,21,22,22,23,23,24,24,25,25,26,26,27,27,28,28,29,29,30,30],"right_children":[2,4,6,8,10,12,14,16,18,20,22,24,26,28,30,32,34,36,38,40,42,44,46,48,50,52,54,56,58,60,62,-1,-1,-1,-1,-1,-1,-1,-1,-1,-1,-1,-1,-1,-1,-1,-1,-1,-1,-1,-1,-1,-1,-1,-1,-1,-1,-1,-1,-1,-1,-1,-1],"split_conditions":[4.6328774E-1,3.114883E-1,3.2501966E-1,5.7883936E-1,4.5593393E-1,4.9943498E-1,4.7006467E-1,4.267678E-1,4.3089253E-1,3.549828E-1,2.6625514E-1,3.9748698E-1,2.5208512E-1,3.6275423E-1,2.8899994E-1,2.8966224E-1,4.2226365E-1,3.8852578E-1,2.9315796E-1,2.8066245E-1,6.437904E-1,4.6455735E-1,5.6493783E-1,3.9991522E-1,3.8593775E-1,5.350128E-1,5.4523224E-1,3.4424248E-1,2.9228872E-1,4.0839708E-1,5.40751E-1,-1.3516289E-1,-4.7800712E-2,-6.359049E-2,-4.977553E-3,-1.6309778E-1,-3.882419E-2,-4.4955928E-2,-2.600374E-1,-9.759094E-2,1.7792733E-2,1.7207969E-2,3.3783856E-1,1.7159832E-1,-8.03553E-2,-3.8084206E-3,5.289575E-2,-6.0262725E-2,4.049662E-2,-1.3611823E-1,-4.005002E-2,3.6240822E-1,1.3624758E-1,4.5070194E-2,-3.660298E-2,-2.8194958E-1,-6.332365E-2,1.1754624E-1,4.234326E-3,9.499873E-2,1.4676823E-2,6.312562E-2,1.4855033E-1],"split_indices":[42,60,60,41,13,26,13,14,101,0,68,101,21,116,0,0,56,101,82,46,66,66,13,79,35,79,72,114,80,23,116,0,0,0,0,0,0,0,0,0,0,0,0,0,0,0,0,0,0,0,0,0,0,0,0,0,0,0,0,0,0,0,0],"split_type":[0,0,0,0,0,0,0,0,0,0,0,0,0,0,0,0,0,0,0,0,0,0,0,0,0,0,0,0,0,0,0,0,0,0,0,0,0,0,0,0,0,0,0,0,0,0,0,0,0,0,0,0,0,0,0,0,0,0,0,0,0,0,0],"sum_hessian":[3.979E3,1.863E3,2.116E3,8.33E2,1.03E3,1.208E3,9.08E2,7.44E2,8.9E1,3.04E2,7.26E2,6.3E2,5.78E2,2.7E2,6.38E2,2.07E2,5.37E2,5.5E1,3.4E1,2.27E2,7.7E1,4.6E1,6.8E2,2.8E2,3.5E2,1.4E1,5.64E2,1.5E1,2.55E2,3.48E2,2.9E2,1.21E2,8.6E1,2.66E2,2.71E2,3.7E1,1.8E1,4E0,3E1,1.87E2,4E1,7.3E1,4E0,3.9E1,7E0,5.08E2,1.72E2,8.1E1,1.99E2,6.7E1,2.83E2,8E0,6E0,4.34E2,1.3E2,7E0,8E0,4.5E1,2.1E2,1.78E2,1.7E2,1.06E2,1.84E2],"tree_param":{"num_deleted":"0","num_feature":"120","num_nodes":"63","size_leaf_vector":"1"}},{"base_weights":[9.408935E-2,-3.2938585E0,2.2030425E0,-6.8694324E0,7.045635E-1,-1.3681066E0,4.3695774E0,-3.6175683E0,-9.314498E0,-3.1688716E0,5.908019E0,6.439921E-1,-5.9079566E0,8.516065E-1,6.549099E0,-7.898266E0,-8.664942E-2,-1.0073892E1,2.1084585E0,-8.136691E0,1.1647154E-1,-2.6738348E0,8.426477E0,-1.0917587E1,1.314271E0,-2.5305113E1,-5.052495E0,-4.7656403E0,3.255041E0,3.4238389E0,9.323102E0,7.940859E-2,-9.713314E-2,6.8960115E-3,-2.1033037E-1,-1.8736982E-1,-8.886896E-2,1.6330296E-1,-4.7642477E-2,3.1144938E-2,-1.1338282E-1,4.8315704E-2,-3.9799757E-2,5.379705E-2,-6.563857E-2,2.7333515E-2,1.199977E-1,-3.1500105E-2,-1.9413702E-1,-3.34318E-3,6.016362E-2,-6.289499E-2,-2.8479284E-1,2.7446859E-2,-6.68457E-2,9.482441E-2,-6.822584E-2,-9.251273E-3,7.561452E-2,1.1270038E-1,2.3112483E-2,4.673037E-2,1.1904816E-1],"categories":[],"categories_nodes":[],"categories_segments":[],"categories_sizes":[],"default_left":[0,0,0,0,0,0,0,0,0,0,0,0,0,0,0,0,0,0,0,0,0,0,0,0,0,0,0,0,0,0,0,0,0,0,0,0,0,0,0,0,0,0,0,0,0,0,0,0,0,0,0,0,0,0,0,0,0,0,0,0,0,0,0],"id":18,"left_children":[1,3,5,7,9,11,13,15,17,19,21,23,25,27,29,31,33,35,37,39,41,43,45,47,49,51,53,55,57,59,61,-1,-1,-1,-1,-1,-1,-1,-1,-1,-1,-1,-1,-1,-1,-1,-1,-1,-1,-1,-1,-1,-1,-1,-1,-1,-1,-1,-1,-1,-1,-1,-1],"loss_changes":[2.8958889E4,2.2236137E4,1.933305E4,6.49409E3,1.4832828E4,8.626892E3,1.1917375E4,5.349953E3,4.0809219E3,6.8884062E3,6.8090273E3,5.09026E3,4.6842686E3,8.06192E3,8.290781E3,4.6769355E3,3.1851355E3,4.347742E3,3.010077E3,6.086957E3,4.944594E3,2.2909604E3,4.9105996E3,2.3146382E3,4.8081367E3,5.4518604E2,3.5687847E3,5.3107393E3,7.5316333E3,3.9284639E3,6.0429805E3,0E0,0E0,0E0,0E0,0E0,0E0,0E0,0E0,0E0,0E0,0E0,0E0,0E0,0E0,0E0,0E0,0E0,0E0,0E0,0E0,0E0,0E0,0E0,0E0,0E0,0E0,0E0,0E0,0E0,0E0,0E0,0E0],"parents":[2147483647,0,0,1,1,2,2,3,3,4,4,5,5,6,6,7,7,8,8,9,9,10,10,11,11,12,12,13,13,14,14,15,15,16,16,17,17,18,18,19,19,20,20,21,21,22,22,23,23,24,24,25,25,26,26,27,27,28,28,29,29,30,30],"right_children":[2,4,6,8,10,12,14,16,18,20,22,24,26,28,30,32,34,36,38,40,42,44,46,48,50,52,54,56,58,60,62,-1,-1,-1,-1,-1,-1,-1,-1,-1,-1,-1,-1,-1,-1,-1,-1,-1,-1,-1,-1,-1,-1,-1,-1,-1,-1,-1,-1,-1,-1,-1,-1],"split_conditions":[4.0897268E-1,4.7714946E-1,4.4739223E-1,4.2227104E-1,2.8178883E-1,4.4058093E-1,2.03125E-1,4.4982073E-1,6.750436E-1,4.8111907E-1,4.9641368E-1,2.1990255E-1,3.1105834E-1,4.446958E-1,3.3109874E-1,3.634605E-1,7.365027E-1,2.2875947E-1,2.9258865E-1,3.7974784E-1,4.6601602E-1,3.6185715E-1,4.7063875E-1,4.689839E-1,5.46875E-1,1.7547384E-1,2.6316187E-1,2.3863626E-1,3.0108717E-1,3.5660785E-1,5.874238E-1,7.940859E-2,-9.713314E-2,6.8960115E-3,-2.1033037E-1,-1.8736982E-1,-8.886896E-2,1.6330296E-1,-4.7642477E-2,3.1144938E-2,-1.1338282E-1,4.8315704E-2,-3.9799757E-2,5.379705E-2,-6.563857E-2,2.7333515E-2,1.199977E-1,-3.1500105E-2,-1.9413702E-1,-3.34318E-3,6.016362E-2,-6.289499E-2,-2.8479284E-1,2.7446859E-2,-6.68457E-2,9.482441E-2,-6.822584E-2,-9.251273E-3,7.561452E-2,1.1270038E-1,2.3112483E-2,4.673037E-2,1.1904816E-1],"split_indices":[87,73,42,37,0,37,58,42,74,14,102,117,61,1,60,70,116,16,39,70,41,67,26,85,58,4,20,32,0,8,104,0,0,0,0,0,0,0,0,0,0,0,0,0,0,0,0,0,0,0,0,0,0,0,0,0,0,0,0,0,0,0,0],"split_type":[0,0,0,0,0,0,0,0,0,0,0,0,0,0,0,0,0,0,0,0,0,0,0,0,0,0,0,0,0,0,0,0,0,0,0,0,0,0,0,0,0,0,0,0,0,0,0,0,0,0,0,0,0,0,0,0,0,0,0,0,0,0,0],"sum_hessian":[4.051E3,1.554E3,2.497E3,8.2E2,7.34E2,9.43E2,1.554E3,3.53E2,4.67E2,4.21E2,3.13E2,6.54E2,2.89E2,5.95E2,9.59E2,1.59E2,1.94E2,4.38E2,2.9E1,1.67E2,2.54E2,7.1E1,2.42E2,3.5E1,6.19E2,1.1E1,2.78E2,1.78E2,4.17E2,4.52E2,5.07E2,1.6E1,1.43E2,1.88E2,6E0,5.1E1,3.87E2,9E0,2E1,3.7E1,1.3E2,1.18E2,1.36E2,2.3E1,4.8E1,9.4E1,1.48E2,1.9E1,1.6E1,4.59E2,1.6E2,2E0,9E0,4.8E1,2.3E2,2.2E1,1.56E2,2.12E2,2.05E2,5.5E1,3.97E2,1.82E2,3.25E2],"tree_param":{"num_deleted":"0","num_feature":"120","num_nodes":"63","size_leaf_vector":"1"}},{"base_weights":[4.6089277E-2,-4.0537186E0,2.427849E0,-5.834118E0,1.742919E0,-4.381228E-1,5.6396265E0,-8.4208975E0,-6.3828146E-1,-6.259899E0,4.6320987E0,-3.4868226E0,3.1736677E0,9.223974E-2,7.48251E0,-1.00179825E1,-2.7185118E0,6.006398E0,-2.8587263E0,-7.751566E0,2.1543753E1,5.9179463E0,-9.372089E0,-1.1748642E1,-1.9754157E0,-3.4156485E0,5.4251604E0,-1.7676735E0,1.0181295E1,5.8317227E0,1.3368927E1,-1.2140698E-1,-5.710924E-2,-1.8078002E-1,-1.0838381E-2,2.4952589E-1,2.9665565E-2,-1.9304599E-1,-1.6067404E-2,-1.5593743E-2,-1.37715E-1,2.682264E-1,2.141037E-3,3.147104E-2,1.3815492E-1,-1.4595664E-1,1.13071956E-1,-2.4626896E-1,-9.526186E-2,-5.72989E-2,7.882773E-3,-6.842894E-2,4.824079E-2,8.863924E-2,1.049542E-2,-7.672151E-2,1.9057853E-2,1.2994461E-1,-1.6048187E-1,7.984131E-3,7.706668E-2,1.460921E-1,-6.2285564E-3],"categories":[],"categories_nodes":[],"categories_segments":[],"categories_sizes":[],"default_left":[0,0,0,0,0,0,0,0,0,0,0,0,0,0,0,0,0,0,0,0,0,0,0,0,0,0,0,0,0,0,0,0,0,0,0,0,0,0,0,0,0,0,0,0,0,0,0,0,0,0,0,0,0,0,0,0,0,0,0,0,0,0,0],"id":19,"left_children":[1,3,5,7,9,11,13,15,17,19,21,23,25,27,29,31,33,35,37,39,41,43,45,47,49,51,53,55,57,59,61,-1,-1,-1,-1,-1,-1,-1,-1,-1,-1,-1,-1,-1,-1,-1,-1,-1,-1,-1,-1,-1,-1,-1,-1,-1,-1,-1,-1,-1,-1,-1,-1],"loss_changes":[3.9381344E4,1.5304895E4,2.3484074E4,1.5236137E4,8.0984277E3,1.4865263E4,1.2297809E4,6.866914E3,5.594237E3,4.0240603E3,4.6833276E3,9.117255E3,9.187055E3,5.666193E3,8.6966875E3,5.3339766E3,4.173402E3,5.3973516E3,5.816542E3,3.296142E3,5.572412E2,5.120875E3,2.5414717E3,2.9996104E3,6.437769E3,4.4948633E3,6.9272334E3,5.545535E3,3.6765674E3,6.6659355E3,3.427793E3,0E0,0E0,0E0,0E0,0E0,0E0,0E0,0E0,0E0,0E0,0E0,0E0,0E0,0E0,0E0,0E0,0E0,0E0,0E0,0E0,0E0,0E0,0E0,0E0,0E0,0E0,0E0,0E0,0E0,0E0,0E0,0E0],"parents":[2147483647,0,0,1,1,2,2,3,3,4,4,5,5,6,6,7,7,8,8,9,9,10,10,11,11,12,12,13,13,14,14,15,15,16,16,17,17,18,18,19,19,20,20,21,21,22,22,23,23,24,24,25,25,26,26,27,27,28,28,29,29,30,30],"right_children":[2,4,6,8,10,12,14,16,18,20,22,24,26,28,30,32,34,36,38,40,42,44,46,48,50,52,54,56,58,60,62,-1,-1,-1,-1,-1,-1,-1,-1,-1,-1,-1,-1,-1,-1,-1,-1,-1,-1,-1,-1,-1,-1,-1,-1,-1,-1,-1,-1,-1,-1,-1,-1],"split_conditions":[4.4873953E-1,3.740374E-1,3.1347635E-1,5.3480315E-1,4.0522927E-1,3.1900126E-1,5.069772E-1,5.1496905E-1,4.1845503E-1,4.8413512E-1,6.7169774E-1,4.2618126E-1,5.008006E-1,6.1765695E-1,5.314648E-1,5.127241E-1,4.113176E-1,3.6823046E-1,2.7859232E-1,3.7933004E-1,4.3678766E-1,6.0265183E-1,4.7443697E-1,4.37076E-1,5.2659625E-1,5.068547E-1,4.231575E-1,4.567514E-1,2.9991242E-1,1.71875E-1,6.309615E-1,-1.2140698E-1,-5.710924E-2,-1.8078002E-1,-1.0838381E-2,2.4952589E-1,2.9665565E-2,-1.9304599E-1,-1.6067404E-2,-1.5593743E-2,-1.37715E-1,2.682264E-1,2.141037E-3,3.147104E-2,1.3815492E-1,-1.4595664E-1,1.13071956E-1,-2.4626896E-1,-9.526186E-2,-5.72989E-2,7.882773E-3,-6.842894E-2,4.824079E-2,8.863924E-2,1.049542E-2,-7.672151E-2,1.9057853E-2,1.2994461E-1,-1.6048187E-1,7.984131E-3,7.706668E-2,1.460921E-1,-6.2285564E-3],"split_indices":[42,43,60,13,61,57,116,94,81,103,104,96,102,27,42,61,105,65,11,82,5,91,86,102,1,49,113,5,46,58,2,0,0,0,0,0,0,0,0,0,0,0,0,0,0,0,0,0,0,0,0,0,0,0,0,0,0,0,0,0,0,0,0],"split_type":[0,0,0,0,0,0,0,0,0,0,0,0,0,0,0,0,0,0,0,0,0,0,0,0,0,0,0,0,0,0,0,0,0,0,0,0,0,0,0,0,0,0,0,0,0,0,0,0,0,0,0,0,0,0,0,0,0,0,0,0,0,0,0],"sum_hessian":[4.031E3,1.481E3,2.55E3,1.133E3,3.48E2,1.348E3,1.202E3,7.56E2,3.77E2,9.2E1,2.56E2,7.31E2,6.17E2,3E2,9.02E2,5.9E2,1.66E2,9.4E1,2.83E2,8.8E1,4E0,2.35E2,2.1E1,1.12E2,6.19E2,1.57E2,4.6E2,2.54E2,4.6E1,7.06E2,1.96E2,3.94E2,1.96E2,1.5E1,1.51E2,1.2E1,8.2E1,1.9E1,2.64E2,4.4E1,4.4E1,3E0,1E0,1.75E2,6E1,1.7E1,4E0,1.5E1,9.7E1,2.62E2,3.57E2,1.11E2,4.6E1,2.57E2,2.03E2,9.7E1,1.57E2,4.2E1,4E0,1.92E2,5.14E2,1.8E2,1.6E1],"tree_param":{"num_deleted":"0","num_feature":"120","num_nodes":"63","size_leaf_vector":"1"}},{"base_weights":[-5.6539353E-2,-2.8449464E0,2.9982867E0,-5.6884003E0,2.5163543E-1,-1.0262605E0,5.3437514E0,-4.0610504E0,-1.1380818E1,-1.7318496E0,5.6199274E0,-3.645825E0,3.0817437E0,-3.3380554E0,6.9934177E0,-8.352946E0,-2.3780553E0,-1.3301305E1,-1.5476483E0,-1.714148E1,-1.3013989E0,-1.1909902E0,9.320713E0,-9.1691846E-1,-1.0697319E1,6.369545E0,-2.8939958E0,-7.800815E0,2.9069772E0,6.0771956E0,1.4245771E1,-9.891307E-2,4.7485545E-2,-5.672127E-2,8.602906E-3,-1.4787216E-1,-3.012649E-2,2.7738372E-2,-1.9720507E-1,-3.9397314E-2,-3.2839203E-1,-4.1420087E-2,7.843882E-3,3.791055E-2,-7.80536E-2,3.3135552E-2,1.5638594E-1,-1.2944303E-1,1.195783E-2,-1.9126351E-1,-7.0444986E-2,2.6996119E-2,1.0776382E-1,2.7089292E-2,-8.903539E-2,-1.4789009E-1,-1.9089594E-2,5.0191697E-2,-1.72582E-1,3.5696298E-2,9.059546E-2,-8.619987E-2,1.5822223E-1],"categories":[],"categories_nodes":[],"categories_segments":[],"categories_sizes":[],"default_left":[0,0,0,0,0,0,0,0,0,0,0,0,0,0,0,0,0,0,0,0,0,0,0,0,0,0,0,0,0,0,0,0,0,0,0,0,0,0,0,0,0,0,0,0,0,0,0,0,0,0,0,0,0,0,0,0,0,0,0,0,0,0,0],"id":20,"left_children":[1,3,5,7,9,11,13,15,17,19,21,23,25,27,29,31,33,35,37,39,41,43,45,47,49,51,53,55,57,59,61,-1,-1,-1,-1,-1,-1,-1,-1,-1,-1,-1,-1,-1,-1,-1,-1,-1,-1,-1,-1,-1,-1,-1,-1,-1,-1,-1,-1,-1,-1,-1,-1],"loss_changes":[3.4379055E4,1.8579951E4,1.8185832E4,1.0143691E4,1.0774786E4,7.6516733E3,1.745332E4,6.170454E3,4.5872246E3,4.879542E3,6.8922715E3,8.341596E3,5.4606646E3,5.457343E3,6.7110195E3,4.904285E3,6.5866304E3,3.074211E3,3.274585E3,4.0153706E3,4.269182E3,3.2260405E3,6.6657725E3,7.9943047E3,3.5908242E3,2.8658398E3,3.3575503E3,4.66554E3,3.579226E3,6.773043E3,4.245717E3,0E0,0E0,0E0,0E0,0E0,0E0,0E0,0E0,0E0,0E0,0E0,0E0,0E0,0E0,0E0,0E0,0E0,0E0,0E0,0E0,0E0,0E0,0E0,0E0,0E0,0E0,0E0,0E0,0E0,0E0,0E0,0E0],"parents":[2147483647,0,0,1,1,2,2,3,3,4,4,5,5,6,6,7,7,8,8,9,9,10,10,11,11,12,12,13,13,14,14,15,15,16,16,17,17,18,18,19,19,20,20,21,21,22,22,23,23,24,24,25,25,26,26,27,27,28,28,29,29,30,30],"right_children":[2,4,6,8,10,12,14,16,18,20,22,24,26,28,30,32,34,36,38,40,42,44,46,48,50,52,54,56,58,60,62,-1,-1,-1,-1,-1,-1,-1,-1,-1,-1,-1,-1,-1,-1,-1,-1,-1,-1,-1,-1,-1,-1,-1,-1,-1,-1,-1,-1,-1,-1,-1,-1],"split_conditions":[3.191859E-1,4.7487643E-1,4.4318494E-1,4.6818665E-1,5.213159E-1,4.5573854E-1,7.8125E-2,3.7529373E-1,5.451494E-1,2.0580256E-1,5.4931575E-1,4.795195E-1,4.3541488E-1,4.3348846E-1,4.9380398E-1,6.723756E-1,4.890806E-1,4.8179454E-1,6.0884583E-1,5.045376E-1,4.999137E-1,4.3295527E-1,4.8394004E-1,2.259134E-1,3.2898805E-1,4.607103E-1,4.708363E-1,2.9477993E-1,7.272854E-1,3.2295746E-1,3.36306E-1,-9.891307E-2,4.7485545E-2,-5.672127E-2,8.602906E-3,-1.4787216E-1,-3.012649E-2,2.7738372E-2,-1.9720507E-1,-3.9397314E-2,-3.2839203E-1,-4.1420087E-2,7.843882E-3,3.791055E-2,-7.80536E-2,3.3135552E-2,1.5638594E-1,-1.2944303E-1,1.195783E-2,-1.9126351E-1,-7.0444986E-2,2.6996119E-2,1.0776382E-1,2.7089292E-2,-8.903539E-2,-1.4789009E-1,-1.9089594E-2,5.0191697E-2,-1.72582E-1,3.5696298E-2,9.059546E-2,-8.619987E-2,1.5822223E-1],"split_indices":[60,73,56,37,27,86,58,27,27,57,91,70,68,98,31,14,22,87,81,22,14,97,93,0,11,9,96,0,85,57,112,0,0,0,0,0,0,0,0,0,0,0,0,0,0,0,0,0,0,0,0,0,0,0,0,0,0,0,0,0,0,0,0],"split_type":[0,0,0,0,0,0,0,0,0,0,0,0,0,0,0,0,0,0,0,0,0,0,0,0,0,0,0,0,0,0,0,0,0,0,0,0,0,0,0,0,0,0,0,0,0,0,0,0,0,0,0,0,0,0,0,0,0,0,0,0,0,0,0],"sum_hessian":[4.034E3,2.109E3,1.925E3,1.099E3,1.01E3,7.09E2,1.216E3,8.56E2,2.43E2,7.38E2,2.72E2,4.33E2,2.76E2,1.94E2,1.022E3,2.4E2,6.16E2,2.03E2,4E1,1.9E1,7.19E2,9.6E1,1.76E2,3.13E2,1.2E2,1.78E2,9.8E1,1.13E2,8.1E1,9.09E2,1.13E2,2.15E2,2.5E1,3.05E2,3.11E2,1.77E2,2.6E1,3.3E1,7E0,1.1E1,8E0,3.04E2,4.15E2,5.5E1,4.1E1,9.1E1,8.5E1,4.6E1,2.67E2,3.5E1,8.5E1,9.8E1,8E1,5.1E1,4.7E1,5.1E1,6.2E1,7.4E1,7E0,4.95E2,4.14E2,7E0,1.06E2],"tree_param":{"num_deleted":"0","num_feature":"120","num_nodes":"63","size_leaf_vector":"1"}},{"base_weights":[-7.671703E-2,-2.5519843E0,3.104426E0,-6.398882E0,1.0419756E-1,-2.9528642E0,4.929946E0,-4.8343844E0,-1.3136089E1,-1.3751508E0,5.653976E0,-4.4602103E0,1.0156103E1,1.6582398E0,7.338142E0,-7.7121153E0,-1.9212124E0,7.2440166E0,-1.40231E1,-2.3974214E0,6.2584343E0,6.555533E-1,9.87422E0,-3.083724E0,-1.5497604E1,-1.2509073E1,1.4910694E1,5.105029E0,-1.0557759E0,4.290174E0,1.1618237E1,-5.6681845E-2,-1.4704895E-1,-6.313189E-2,3.2597497E-2,2.112861E-1,-9.056168E-3,-1.6179638E-1,-7.904973E-2,-1.1229663E-1,-1.65782E-2,2.6092758E-2,1.5775956E-1,-4.9461536E-2,7.4600376E-2,-7.120071E-2,1.1350104E-1,-7.36313E-2,-1.6558932E-5,-2.2948994E-1,-8.019178E-2,-2.3578943E-1,4.455532E-2,5.284478E-2,2.3245494E-1,8.762157E-3,1.02376714E-1,-2.0343214E-2,2.0967016E-1,3.194871E-2,1.5793128E-1,7.5018845E-2,1.7447527E-1],"categories":[],"categories_nodes":[],"categories_segments":[],"categories_sizes":[],"default_left":[0,0,0,0,0,0,0,0,0,0,0,0,0,0,0,0,0,0,0,0,0,0,0,0,0,0,0,0,0,0,0,0,0,0,0,0,0,0,0,0,0,0,0,0,0,0,0,0,0,0,0,0,0,0,0,0,0,0,0,0,0,0,0],"id":21,"left_children":[1,3,5,7,9,11,13,15,17,19,21,23,25,27,29,31,33,35,37,39,41,43,45,47,49,51,53,55,57,59,61,-1,-1,-1,-1,-1,-1,-1,-1,-1,-1,-1,-1,-1,-1,-1,-1,-1,-1,-1,-1,-1,-1,-1,-1,-1,-1,-1,-1,-1,-1,-1,-1],"loss_changes":[3.2118822E4,2.3440895E4,1.9752564E4,9.812797E3,1.1157029E4,8.225836E3,1.0797691E4,6.3732754E3,3.2831973E3,8.388254E3,6.0265723E3,5.6039385E3,4.820356E3,5.4591455E3,1.0256176E4,5.3907773E3,8.667353E3,9.243693E2,2.1018828E3,6.1675083E3,4.369666E3,5.068306E3,3.9684658E3,4.378876E3,2.1006797E3,1.6074244E3,2.7655332E3,5.5692114E3,7.089604E3,5.7829805E3,7.7396055E3,0E0,0E0,0E0,0E0,0E0,0E0,0E0,0E0,0E0,0E0,0E0,0E0,0E0,0E0,0E0,0E0,0E0,0E0,0E0,0E0,0E0,0E0,0E0,0E0,0E0,0E0,0E0,0E0,0E0,0E0,0E0,0E0],"parents":[2147483647,0,0,1,1,2,2,3,3,4,4,5,5,6,6,7,7,8,8,9,9,10,10,11,11,12,12,13,13,14,14,15,15,16,16,17,17,18,18,19,19,20,20,21,21,22,22,23,23,24,24,25,25,26,26,27,27,28,28,29,29,30,30],"right_children":[2,4,6,8,10,12,14,16,18,20,22,24,26,28,30,32,34,36,38,40,42,44,46,48,50,52,54,56,58,60,62,-1,-1,-1,-1,-1,-1,-1,-1,-1,-1,-1,-1,-1,-1,-1,-1,-1,-1,-1,-1,-1,-1,-1,-1,-1,-1,-1,-1,-1,-1,-1,-1],"split_conditions":[3.2563257E-1,4.5761043E-1,4.865565E-1,4.7921792E-1,5.43471E-1,6.81101E-1,4.7739294E-1,3.9174253E-1,1.9222535E-1,6.200767E-1,5.8533883E-1,5.370681E-1,7.575758E-2,3.4101486E-1,2.8899994E-1,5.383311E-1,3.2368523E-1,3.3912483E-1,2.96875E-1,4.1020533E-1,3.3160248E-1,5.3129494E-1,5.043719E-1,3.0519366E-1,3.291746E-1,4.079742E-1,3.5915783E-1,4.48838E-1,4.8600608E-1,5.9450966E-1,4.1954374E-1,-5.6681845E-2,-1.4704895E-1,-6.313189E-2,3.2597497E-2,2.112861E-1,-9.056168E-3,-1.6179638E-1,-7.904973E-2,-1.1229663E-1,-1.65782E-2,2.6092758E-2,1.5775956E-1,-4.9461536E-2,7.4600376E-2,-7.120071E-2,1.1350104E-1,-7.36313E-2,-1.6558932E-5,-2.2948994E-1,-8.019178E-2,-2.3578943E-1,4.455532E-2,5.284478E-2,2.3245494E-1,8.762157E-3,1.02376714E-1,-2.0343214E-2,2.0967016E-1,3.194871E-2,1.5793128E-1,7.5018845E-2,1.7447527E-1],"split_indices":[60,73,102,51,27,27,61,87,83,102,90,111,59,10,0,41,64,14,58,44,43,1,105,43,112,96,117,77,31,18,77,0,0,0,0,0,0,0,0,0,0,0,0,0,0,0,0,0,0,0,0,0,0,0,0,0,0,0,0,0,0,0,0],"split_type":[0,0,0,0,0,0,0,0,0,0,0,0,0,0,0,0,0,0,0,0,0,0,0,0,0,0,0,0,0,0,0,0,0,0,0,0,0,0,0,0,0,0,0,0,0,0,0,0,0,0,0,0,0,0,0,0,0,0,0,0,0,0,0],"sum_hessian":[4.077E3,2.293E3,1.784E3,9.36E2,1.357E3,4.13E2,1.371E3,7.61E2,1.75E2,1.072E3,2.85E2,3.71E2,4.2E1,5.82E2,7.89E2,3.82E2,3.79E2,7E0,1.68E2,9.46E2,1.26E2,1.31E2,1.54E2,3.31E2,4E1,7E0,3.5E1,2.56E2,3.26E2,4.62E2,3.27E2,2.97E2,8.5E1,2.05E2,1.74E2,2E0,5E0,1.23E2,4.5E1,7.2E1,8.74E2,9.2E1,3.4E1,7.2E1,5.9E1,1.2E1,1.42E2,1.38E2,1.93E2,1.9E1,2.1E1,4E0,3E0,1.7E1,1.8E1,1.41E2,1.15E2,3.13E2,1.3E1,4.23E2,3.9E1,1.93E2,1.34E2],"tree_param":{"num_deleted":"0","num_feature":"120","num_nodes":"63","size_leaf_vector":"1"}},{"base_weights":[2.7043748E-1,-2.7026315E0,3.1367228E0,-5.635201E0,5.44345E-1,2.0437914E-1,6.648348E0,-8.518761E0,-2.7630298E0,-2.1159139E0,6.0737796E0,-2.3585334E0,3.660899E0,-2.5704496E0,8.293643E0,-9.072604E0,5.614801E0,-6.2765417E0,-1.4809977E-1,-9.564234E0,-5.909401E-1,2.4894836E0,1.1594965E1,-4.020096E0,3.9209263E0,1.3655949E0,7.743908E0,-5.426594E0,1.1579361E1,6.4233584E0,1.4645946E1,-1.2712471E-1,-7.02455E-2,-9.135333E-2,9.8732926E-2,-5.5741794E-2,-2.2201717E-1,-2.8838864E-2,5.550632E-2,-6.5981284E-2,-2.487902E-1,1.6900541E-1,-1.35480035E-2,3.8011003E-2,-1.3802484E-1,-6.0421202E-2,1.344728E-1,-6.6244885E-2,9.723083E-3,-7.806792E-3,1.15878664E-1,1.4059538E-1,4.700002E-3,-2.6063868E-1,8.507304E-2,-2.7792413E-2,-1.5679589E-1,2.2923662E-1,-1.6752446E-2,-1.4373155E-3,7.936069E-2,8.554869E-2,2.1834579E-1],"categories":[],"categories_nodes":[],"categories_segments":[],"categories_sizes":[],"default_left":[0,0,0,0,0,0,0,0,0,0,0,0,0,0,0,0,0,0,0,0,0,0,0,0,0,0,0,0,0,0,0,0,0,0,0,0,0,0,0,0,0,0,0,0,0,0,0,0,0,0,0,0,0,0,0,0,0,0,0,0,0,0,0],"id":22,"left_children":[1,3,5,7,9,11,13,15,17,19,21,23,25,27,29,31,33,35,37,39,41,43,45,47,49,51,53,55,57,59,61,-1,-1,-1,-1,-1,-1,-1,-1,-1,-1,-1,-1,-1,-1,-1,-1,-1,-1,-1,-1,-1,-1,-1,-1,-1,-1,-1,-1,-1,-1,-1,-1],"loss_changes":[3.4061047E4,1.8685201E4,2.0953627E4,8.515285E3,1.3722317E4,9.841855E3,1.40665625E4,4.074418E3,4.758241E3,7.150199E3,5.967371E3,6.672473E3,4.4222617E3,5.761196E3,9.244086E3,3.600754E3,1.3464624E3,2.3481826E3,4.6619805E3,4.6963486E3,7.0240854E3,4.0056958E3,3.968915E3,6.5725415E3,4.839335E3,3.449455E3,4.609218E3,3.159331E3,3.6471443E3,6.0510137E3,7.607207E3,0E0,0E0,0E0,0E0,0E0,0E0,0E0,0E0,0E0,0E0,0E0,0E0,0E0,0E0,0E0,0E0,0E0,0E0,0E0,0E0,0E0,0E0,0E0,0E0,0E0,0E0,0E0,0E0,0E0,0E0,0E0,0E0],"parents":[2147483647,0,0,1,1,2,2,3,3,4,4,5,5,6,6,7,7,8,8,9,9,10,10,11,11,12,12,13,13,14,14,15,15,16,16,17,17,18,18,19,19,20,20,21,21,22,22,23,23,24,24,25,25,26,26,27,27,28,28,29,29,30,30],"right_children":[2,4,6,8,10,12,14,16,18,20,22,24,26,28,30,32,34,36,38,40,42,44,46,48,50,52,54,56,58,60,62,-1,-1,-1,-1,-1,-1,-1,-1,-1,-1,-1,-1,-1,-1,-1,-1,-1,-1,-1,-1,-1,-1,-1,-1,-1,-1,-1,-1,-1,-1,-1,-1],"split_conditions":[2.759541E-1,4.474656E-1,4.706921E-1,5.27682E-1,4.941602E-1,5.1313674E-1,4.6650076E-1,5.815795E-1,5.465375E-1,3.26231E-1,5.5782515E-1,4.024569E-1,3.283582E-1,5.694224E-1,3.615695E-1,4.3207726E-1,4.333873E-1,6.514321E-1,5.1368606E-1,3.8154644E-1,2.1663183E-1,4.5515215E-1,3.0548394E-1,4.641192E-1,4.7877195E-1,3.6006895E-1,2.869033E-1,4.6380344E-1,4.3213385E-1,3.7591496E-1,5.476596E-1,-1.2712471E-1,-7.02455E-2,-9.135333E-2,9.8732926E-2,-5.5741794E-2,-2.2201717E-1,-2.8838864E-2,5.550632E-2,-6.5981284E-2,-2.487902E-1,1.6900541E-1,-1.35480035E-2,3.8011003E-2,-1.3802484E-1,-6.0421202E-2,1.344728E-1,-6.6244885E-2,9.723083E-3,-7.806792E-3,1.15878664E-1,1.4059538E-1,4.700002E-3,-2.6063868E-1,8.507304E-2,-2.7792413E-2,-1.5679589E-1,2.2923662E-1,-1.6752446E-2,-1.4373155E-3,7.936069E-2,8.554869E-2,2.1834579E-1],"split_indices":[103,27,42,13,73,13,102,34,26,26,13,43,119,48,43,73,96,20,44,64,77,99,71,77,23,21,67,71,14,26,74,0,0,0,0,0,0,0,0,0,0,0,0,0,0,0,0,0,0,0,0,0,0,0,0,0,0,0,0,0,0,0,0],"split_type":[0,0,0,0,0,0,0,0,0,0,0,0,0,0,0,0,0,0,0,0,0,0,0,0,0,0,0,0,0,0,0,0,0,0,0,0,0,0,0,0,0,0,0,0,0,0,0,0,0,0,0,0,0,0,0,0,0,0,0,0,0,0,0],"sum_hessian":[3.995E3,1.961E3,2.034E3,1.03E3,9.31E2,1.109E3,9.25E2,5.13E2,5.17E2,6.29E2,3.02E2,6.37E2,4.72E2,1.4E2,7.85E2,4.94E2,1.9E1,2.2E2,2.97E2,1.06E2,5.23E2,1.84E2,1.18E2,5.04E2,1.33E2,3.03E2,1.69E2,1.17E2,2.3E1,6.08E2,1.77E2,1.76E2,3.18E2,4E0,1.5E1,2.12E2,8E0,2.01E2,9.6E1,9E1,1.6E1,2.1E1,5.02E2,1.71E2,1.3E1,1.1E1,1.07E2,3.31E2,1.73E2,8.3E1,5E1,1.9E1,2.84E2,3E0,1.66E2,9.4E1,2.3E1,1.2E1,1.1E1,1.14E2,4.94E2,9.7E1,8E1],"tree_param":{"num_deleted":"0","num_feature":"120","num_nodes":"63","size_leaf_vector":"1"}},{"base_weights":[-2.3827372E-1,-3.1802588E0,2.9518435E0,-5.926291E0,4.7067904E-1,1.678504E-1,6.5805507E0,-8.648122E0,-2.3593764E0,-1.8700321E0,5.8526335E0,1.9293671E0,-5.45254E0,8.484263E0,-1.3114322E0,-1.0627603E1,-4.9457707E0,-5.3086185E0,3.3892016E0,-7.6219254E0,-3.863674E-1,1.37668085E1,3.2985654E0,4.790251E0,-7.421325E-1,-6.6687737E0,1.2897076E1,7.546931E0,1.881052E1,-8.1358E0,3.646135E0,-1.2760043E-1,-7.3343575E-2,2.4853379E-2,-7.60175E-2,-8.996825E-2,-6.704203E-3,-1.2925097E-2,8.575889E-2,-1.4587006E-1,2.3803564E-3,-3.167864E-2,4.1284397E-2,6.995061E-2,2.162357E-1,2.0871629E-1,2.2382915E-2,-2.305509E-1,5.2573934E-2,3.4473898E-4,-2.4542032E-1,-8.77533E-2,6.918222E-3,2.0575619E-1,-9.6465506E-2,6.697566E-2,1.6412981E-1,1.579796E-1,4.1784286E-1,-1.4382821E-1,-1.29935555E-2,-1.06660984E-1,7.223332E-2],"categories":[],"categories_nodes":[],"categories_segments":[],"categories_sizes":[],"default_left":[0,0,0,0,0,0,0,0,0,0,0,0,0,0,0,0,0,0,0,0,0,0,0,0,0,0,0,0,0,0,0,0,0,0,0,0,0,0,0,0,0,0,0,0,0,0,0,0,0,0,0,0,0,0,0,0,0,0,0,0,0,0,0],"id":23,"left_children":[1,3,5,7,9,11,13,15,17,19,21,23,25,27,29,31,33,35,37,39,41,43,45,47,49,51,53,55,57,59,61,-1,-1,-1,-1,-1,-1,-1,-1,-1,-1,-1,-1,-1,-1,-1,-1,-1,-1,-1,-1,-1,-1,-1,-1,-1,-1,-1,-1,-1,-1,-1,-1],"loss_changes":[3.8751812E4,2.153776E4,2.0011545E4,1.1882262E4,1.163853E4,1.111878E4,1.2931824E4,5.04091E3,9.037492E3,5.492874E3,5.614324E3,6.5381904E3,6.067077E3,6.565676E3,5.7134844E3,3.0806484E3,4.83469E3,6.015503E3,4.4062305E3,7.229846E3,6.4552915E3,3.4666143E3,3.9219548E3,5.493412E3,8.1888823E3,3.913461E3,3.1412214E3,4.6870117E3,3.2848555E3,3.013538E3,5.0944165E3,0E0,0E0,0E0,0E0,0E0,0E0,0E0,0E0,0E0,0E0,0E0,0E0,0E0,0E0,0E0,0E0,0E0,0E0,0E0,0E0,0E0,0E0,0E0,0E0,0E0,0E0,0E0,0E0,0E0,0E0,0E0,0E0],"parents":[2147483647,0,0,1,1,2,2,3,3,4,4,5,5,6,6,7,7,8,8,9,9,10,10,11,11,12,12,13,13,14,14,15,15,16,16,17,17,18,18,19,19,20,20,21,21,22,22,23,23,24,24,25,25,26,26,27,27,28,28,29,29,30,30],"right_children":[2,4,6,8,10,12,14,16,18,20,22,24,26,28,30,32,34,36,38,40,42,44,46,48,50,52,54,56,58,60,62,-1,-1,-1,-1,-1,-1,-1,-1,-1,-1,-1,-1,-1,-1,-1,-1,-1,-1,-1,-1,-1,-1,-1,-1,-1,-1,-1,-1,-1,-1,-1,-1],"split_conditions":[4.706921E-1,3.3178988E-1,3.2327518E-1,4.457872E-1,3.75E-1,4.4947302E-1,4.2840856E-1,4.6804118E-1,4.8146284E-1,2.7157003E-1,2.829512E-1,4.0412694E-1,7.255025E-1,6.674323E-1,4.4218045E-1,4.2380163E-1,3.532973E-1,3.7204853E-1,3.3148348E-1,3.9725545E-1,4.6444088E-1,6.09375E-1,3.6016026E-1,3.2952923E-1,6.1860937E-1,5.4551417E-1,3.6051747E-1,4.5781708E-1,7.3457134E-1,3.7707755E-1,2.953807E-1,-1.2760043E-1,-7.3343575E-2,2.4853379E-2,-7.60175E-2,-8.996825E-2,-6.704203E-3,-1.2925097E-2,8.575889E-2,-1.4587006E-1,2.3803564E-3,-3.167864E-2,4.1284397E-2,6.995061E-2,2.162357E-1,2.0871629E-1,2.2382915E-2,-2.305509E-1,5.2573934E-2,3.4473898E-4,-2.4542032E-1,-8.77533E-2,6.918222E-3,2.0575619E-1,-9.6465506E-2,6.697566E-2,1.6412981E-1,1.579796E-1,4.1784286E-1,-1.4382821E-1,-1.29935555E-2,-1.06660984E-1,7.223332E-2],"split_indices":[42,60,60,27,58,37,68,30,73,43,39,101,74,86,49,31,115,100,33,18,73,58,69,2,2,17,64,64,78,16,103,0,0,0,0,0,0,0,0,0,0,0,0,0,0,0,0,0,0,0,0,0,0,0,0,0,0,0,0,0,0,0,0],"split_type":[0,0,0,0,0,0,0,0,0,0,0,0,0,0,0,0,0,0,0,0,0,0,0,0,0,0,0,0,0,0,0,0,0,0,0,0,0,0,0,0,0,0,0,0,0,0,0,0,0,0,0,0,0,0,0,0,0,0,0,0,0,0,0],"sum_hessian":[4.127E3,2.147E3,1.98E3,1.225E3,9.22E2,1.121E3,8.59E2,6.94E2,5.31E2,6.43E2,2.79E2,8.54E2,2.67E2,6.92E2,1.67E2,4.51E2,2.43E2,3.51E2,1.8E2,1.31E2,5.12E2,6.7E1,2.12E2,4.12E2,4.42E2,2.51E2,1.6E1,6.36E2,5.6E1,7E1,9.7E1,2.72E2,1.79E2,6.4E1,1.79E2,1.95E2,1.56E2,9.5E1,8.5E1,6.9E1,6.2E1,3.17E2,1.95E2,3.7E1,3E1,1.1E1,2.01E2,6E0,4.06E2,4.29E2,1.3E1,1.95E2,5.6E1,1.2E1,4E0,5.82E2,5.4E1,5.1E1,5E0,3.6E1,3.4E1,1.9E1,7.8E1],"tree_param":{"num_deleted":"0","num_feature":"120","num_nodes":"63","size_leaf_vector":"1"}},{"base_weights":[4.0002155E-1,-1.1579385E0,5.9863715E0,-3.4824765E0,2.153814E0,-1.9716352E0,7.7076626E0,-5.6908545E0,-6.849016E-1,1.8786493E-1,7.0445943E0,3.7977993E0,-6.9712415E0,-1.5003325E0,9.060729E0,-7.41984E0,1.1051285E0,-4.4386005E0,9.3246347E-1,-3.2033854E0,2.5509362E0,3.6322925E0,1.0643176E1,1.6142893E1,-4.585326E-1,-4.003894E0,-2.1733938E1,7.048562E0,-8.24662E0,6.3846006E0,1.2442954E1,-1.0200189E-1,-3.024058E-2,-2.0621008E-1,2.396713E-2,-5.122939E-2,1.6731924E-1,-1.7131023E-2,3.937116E-2,-9.274761E-2,3.974831E-3,-4.788702E-3,6.4790554E-2,6.244219E-3,1.1033395E-1,8.058604E-2,1.7895488E-1,2.226101E-1,-5.440036E-2,-1.1132592E-1,5.323622E-2,1.2313923E-1,-5.4054312E-2,-2.8646243E-1,-3.5625424E-2,-4.829686E-2,1.1960851E-1,-1.5097274E-1,6.6030626E-3,3.5827633E-2,1.4385712E-1,9.030444E-2,1.745062E-1],"categories":[],"categories_nodes":[],"categories_segments":[],"categories_sizes":[],"default_left":[0,0,0,0,0,0,0,0,0,0,0,0,0,0,0,0,0,0,0,0,0,0,0,0,0,0,0,0,0,0,0,0,0,0,0,0,0,0,0,0,0,0,0,0,0,0,0,0,0,0,0,0,0,0,0,0,0,0,0,0,0,0,0],"id":24,"left_children":[1,3,5,7,9,11,13,15,17,19,21,23,25,27,29,31,33,35,37,39,41,43,45,47,49,51,53,55,57,59,61,-1,-1,-1,-1,-1,-1,-1,-1,-1,-1,-1,-1,-1,-1,-1,-1,-1,