{"learner":{"attributes":{"scikit_learn":"{\"_estimator_type\": \"regressor\"}"},"feature_names":["POSS_home","FGM_100_home","FGA_100_home","FG3M_100_home","FG3A_100_home","FTM_100_home","FTA_100_home","OREB_100_home","DREB_100_home","AST_100_home","STL_100_home","BLK_100_home","TO_100_home","PTS_100_home","rolling_FGM_100_last5_home","rolling_FGA_100_last5_home","rolling_FG3M_100_last5_home","rolling_FG3A_100_last5_home","rolling_FTM_100_last5_home","rolling_FTA_100_last5_home","rolling_OREB_100_last5_home","rolling_DREB_100_last5_home","rolling_AST_100_last5_home","rolling_STL_100_last5_home","rolling_BLK_100_last5_home","rolling_TO_100_last5_home","rolling_PTS_100_last5_home","rolling_POSS_last5_home","rolling_wins_last5_home","rolling_losses_last5_home","FGM_100_allowed_home","FGA_100_allowed_home","FG3M_100_allowed_home","FG3A_100_allowed_home","FTM_100_allowed_home","FTA_100_allowed_home","OREB_100_allowed_home","DREB_100_allowed_home","AST_100_allowed_home","STL_100_allowed_home","BLK_100_allowed_home","TO_100_allowed_home","PTS_100_allowed_home","POSS_allowed_home","rolling_FGM_100_allowed_last5_home","rolling_FGA_100_allowed_last5_home","rolling_FG3M_100_allowed_last5_home","rolling_FG3A_100_allowed_last5_home","rolling_FTM_100_allowed_last5_home","rolling_FTA_100_allowed_last5_home","rolling_OREB_100_allowed_last5_home","rolling_DREB_100_allowed_last5_home","rolling_AST_100_allowed_last5_home","rolling_STL_100_allowed_last5_home","rolling_BLK_100_allowed_last5_home","rolling_TO_100_allowed_last5_home","rolling_PTS_100_allowed_last5_home","rolling_POSS_allowed_last5_home","wins_home","losses_home","POSS_away","FGM_100_away","FGA_100_away","FG3M_100_away","FG3A_100_away","FTM_100_away","FTA_100_away","OREB_100_away","DREB_100_away","AST_100_away","STL_100_away","BLK_100_away","TO_100_away","PTS_100_away","rolling_FGM_100_last5_away","rolling_FGA_100_last5_away","rolling_FG3M_100_last5_away","rolling_FG3A_100_last5_away","rolling_FTM_100_last5_away","rolling_FTA_100_last5_away","rolling_OREB_100_last5_away","rolling_DREB_100_last5_away","rolling_AST_100_last5_away","rolling_STL_100_last5_away","rolling_BLK_100_last5_away","rolling_TO_100_last5_away","rolling_PTS_100_last5_away","rolling_POSS_last5_away","rolling_wins_last5_away","rolling_losses_last5_away","FGM_100_allowed_away","FGA_100_allowed_away","FG3M_100_allowed_away","FG3A_100_allowed_away","FTM_100_allowed_away","FTA_100_allowed_away","OREB_100_allowed_away","DREB_100_allowed_away","AST_100_allowed_away","STL_100_allowed_away","BLK_100_allowed_away","TO_100_allowed_away","PTS_100_allowed_away","POSS_allowed_away","rolling_FGM_100_allowed_last5_away","rolling_FGA_100_allowed_last5_away","rolling_FG3M_100_allowed_last5_away","rolling_FG3A_100_allowed_last5_away","rolling_FTM_100_allowed_last5_away","rolling_FTA_100_allowed_last5_away","rolling_OREB_100_allowed_last5_away","rolling_DREB_100_allowed_last5_away","rolling_AST_100_allowed_last5_away","rolling_STL_100_allowed_last5_away","rolling_BLK_100_allowed_last5_away","rolling_TO_100_allowed_last5_away","rolling_PTS_100_allowed_last5_away","rolling_POSS_allowed_last5_away","wins_away","losses_away"],"feature_types":["float","float","float","float","float","float","float","float","float","float","float","float","float","float","float","float","float","float","float","float","float","float","float","float","float","float","float","float","float","float","float","float","float","float","float","float","float","float","float","float","float","float","float","float","float","float","float","float","float","float","float","float","float","float","float","float","float","float","float","float","float","float","float","float","float","float","float","float","float","float","float","float","float","float","float","float","float","float","float","float","float","float","float","float","float","float","float","float","float","float","float","float","float","float","float","float","float","float","float","float","float","float","float","float","float","float","float","float","float","float","float","float","float","float","float","float","float","float","float","float"],"gradient_booster":{"model":{"gbtree_model_param":{"num_parallel_tree":"1","num_trees":"100"},"iteration_indptr":[0,1,2,3,4,5,6,7,8,9,10,11,12,13,14,15,16,17,18,19,20,21,22,23,24,25,26,27,28,29,30,31,32,33,34,35,36,37,38,39,40,41,42,43,44,45,46,47,48,49,50,51,52,53,54,55,56,57,58,59,60,61,62,63,64,65,66,67,68,69,70,71,72,73,74,75,76,77,78,79,80,81,82,83,84,85,86,87,88,89,90,91,92,93,94,95,96,97,98,99,100],"tree_info":[0,0,0,0,0,0,0,0,0,0,0,0,0,0,0,0,0,0,0,0,0,0,0,0,0,0,0,0,0,0,0,0,0,0,0,0,0,0,0,0,0,0,0,0,0,0,0,0,0,0,0,0,0,0,0,0,0,0,0,0,0,0,0,0,0,0,0,0,0,0,0,0,0,0,0,0,0,0,0,0,0,0,0,0,0,0,0,0,0,0,0,0,0,0,0,0,0,0,0,0],"trees":[{"base_weights":[2.2727622E-1,-6.939325E0,3.8622427E0,5.5271378E0,-9.863361E0,6.754246E-1,1.2889242E1,1.352706E1,-1.2742186E1,-1.3323707E1,-3.028986E0,8.430458E0,-1.8030783E0,6.105698E0,2.214014E1,2.796794E-1,6.581167E-2,-0E0,-1.4435266E-1,-1.7625047E-1,-4.8258033E-2,-1.2767348E-1,4.269967E-2,-0E0,1.5370275E-1,-4.1265216E-2,8.826337E-2,9.6088104E-2,-5.180642E-2,8.831232E-2,2.8931123E-1],"categories":[],"categories_nodes":[],"categories_segments":[],"categories_sizes":[],"default_left":[0,0,0,0,0,0,0,0,0,0,0,0,0,0,0,0,0,0,0,0,0,0,0,0,0,0,0,0,0,0,0],"id":0,"left_children":[1,3,5,7,9,11,13,15,17,19,21,23,25,27,29,-1,-1,-1,-1,-1,-1,-1,-1,-1,-1,-1,-1,-1,-1,-1,-1],"loss_changes":[1.0027437E4,4.806694E3,7.323449E3,3.9862368E3,2.4181133E3,3.691005E3,3.9421162E3,1.5449968E3,1.8273877E2,2.3903564E3,2.7557656E3,2.7193801E3,3.6433237E3,1.6803591E3,2.064457E3,0E0,0E0,0E0,0E0,0E0,0E0,0E0,0E0,0E0,0E0,0E0,0E0,0E0,0E0,0E0,0E0],"parents":[2147483647,0,0,1,1,2,2,3,3,4,4,5,5,6,6,7,7,8,8,9,9,10,10,11,11,12,12,13,13,14,14],"right_children":[2,4,6,8,10,12,14,16,18,20,22,24,26,28,30,-1,-1,-1,-1,-1,-1,-1,-1,-1,-1,-1,-1,-1,-1,-1,-1],"split_conditions":[3.3559614E-1,1.9876896E-1,5.8628106E-1,6.096245E-1,3.980635E-1,2.2177415E-1,4.6534684E-1,4.8889285E-1,2.836248E-1,5.854208E-1,3.9377448E-1,4.1574344E-1,5.622413E-1,5.473748E-1,2.7958685E-1,2.796794E-1,6.581167E-2,-0E0,-1.4435266E-1,-1.7625047E-1,-4.8258033E-2,-1.2767348E-1,4.269967E-2,-0E0,1.5370275E-1,-4.1265216E-2,8.826337E-2,9.6088104E-2,-5.180642E-2,8.831232E-2,2.8931123E-1],"split_indices":[0,6,42,71,60,10,2,21,3,97,14,53,99,62,85,0,0,0,0,0,0,0,0,0,0,0,0,0,0,0,0],"split_type":[0,0,0,0,0,0,0,0,0,0,0,0,0,0,0,0,0,0,0,0,0,0,0,0,0,0,0,0,0,0,0],"sum_hessian":[3.82E2,1.28E2,2.54E2,2.4E1,1.04E2,1.89E2,6.5E1,1.7E1,7E0,6.8E1,3.6E1,4.5E1,1.44E2,3.9E1,2.6E1,4E0,1.3E1,1E0,6E0,4.4E1,2.4E1,1.5E1,2.1E1,2.1E1,2.4E1,1.19E2,2.5E1,3E1,9E0,1E1,1.6E1],"tree_param":{"num_deleted":"0","num_feature":"120","num_nodes":"31","size_leaf_vector":"1"}},{"base_weights":[1.3151623E-1,-8.255201E0,3.9409409E0,-9.931727E0,6.062264E0,1.5244069E0,1.3682563E1,-1.1842813E1,1.7400337E0,-1.1133674E-1,1.2661152E1,-1.57864E1,2.672107E0,-9.268768E0,1.8143547E1,-1.4992863E-1,-4.5660067E-2,-7.035219E-2,1.3810714E-1,-1.993635E-2,1.6578802E-1,1.2285978E-2,-2.612968E-1,4.7893822E-2,-6.2215626E-2,-1.4776127E-1,1.5536736E-2,2.896276E-1,1.1720165E-1],"categories":[],"categories_nodes":[],"categories_segments":[],"categories_sizes":[],"default_left":[0,0,0,0,0,0,0,0,0,0,0,0,0,0,0,0,0,0,0,0,0,0,0,0,0,0,0,0,0],"id":1,"left_children":[1,3,5,7,9,11,13,15,17,-1,19,21,23,25,27,-1,-1,-1,-1,-1,-1,-1,-1,-1,-1,-1,-1,-1,-1],"loss_changes":[1.2328711E4,2.9866152E3,6.203632E3,2.4611836E3,1.7448751E3,4.3117637E3,5.636367E3,2.0209922E3,1.9002515E3,0E0,6.669929E2,2.4489324E3,3.8564094E3,6.138876E2,2.5427148E3,0E0,0E0,0E0,0E0,0E0,0E0,0E0,0E0,0E0,0E0,0E0,0E0,0E0,0E0],"parents":[2147483647,0,0,1,1,2,2,3,3,4,4,5,5,6,6,7,7,8,8,10,10,11,11,12,12,13,13,14,14],"right_children":[2,4,6,8,10,12,14,16,18,-1,20,22,24,26,28,-1,-1,-1,-1,-1,-1,-1,-1,-1,-1,-1,-1,-1,-1],"split_conditions":[3.310886E-1,7.05214E-1,6.5133005E-1,5.076561E-1,3.7746817E-1,7.062419E-2,4.2984402E-1,5.2595174E-1,4.765949E-1,-1.1133674E-1,4.5052052E-1,4.038292E-1,5.9120935E-1,5.1863617E-1,3.7535968E-1,-1.4992863E-1,-4.5660067E-2,-7.035219E-2,1.3810714E-1,-1.993635E-2,1.6578802E-1,1.2285978E-2,-2.612968E-1,4.7893822E-2,-6.2215626E-2,-1.4776127E-1,1.5536736E-2,2.896276E-1,1.1720165E-1],"split_indices":[0,76,104,103,17,5,93,96,21,0,68,96,23,19,113,0,0,0,0,0,0,0,0,0,0,0,0,0,0],"split_type":[0,0,0,0,0,0,0,0,0,0,0,0,0,0,0,0,0,0,0,0,0,0,0,0,0,0,0,0,0],"sum_hessian":[3.83E2,1.19E2,2.64E2,1.07E2,1.2E1,2.13E2,5.1E1,9.2E1,1.5E1,3E0,9E0,1.2E1,2.01E2,8E0,4.3E1,6.3E1,2.9E1,9E0,6E0,2E0,7E0,5E0,7E0,1.63E2,3.8E1,5E0,3E0,1.4E1,2.9E1],"tree_param":{"num_deleted":"0","num_feature":"120","num_nodes":"29","size_leaf_vector":"1"}},{"base_weights":[2.5427002E-1,-6.8769984E0,4.4701076E0,-6.518081E-1,-1.294393E1,1.6404496E0,1.3573943E1,1.2457978E1,-5.102328E0,-1.6188927E1,-1.486029E0,5.816907E0,-3.5038326E0,1.9862589E1,2.7024841E0,6.75844E-2,2.7714837E-1,8.466259E-3,-1.060909E-1,-2.3243402E-1,-1.04855366E-1,-6.1303344E-2,1.3752075E-1,-3.7320793E-2,8.982362E-2,-7.7287786E-2,5.9835304E-2,-2.458886E-2,2.2067288E-1,8.7786034E-2,-2.2495884E-2],"categories":[],"categories_nodes":[],"categories_segments":[],"categories_sizes":[],"default_left":[0,0,0,0,0,0,0,0,0,0,0,0,0,0,0,0,0,0,0,0,0,0,0,0,0,0,0,0,0,0,0],"id":2,"left_children":[1,3,5,7,9,11,13,15,17,19,21,23,25,27,29,-1,-1,-1,-1,-1,-1,-1,-1,-1,-1,-1,-1,-1,-1,-1,-1],"loss_changes":[1.1453095E4,5.3178916E3,6.1210806E3,4.259685E3,2.604671E3,3.9968447E3,3.7596387E3,1.2932681E3,1.8086268E3,1.8337021E3,1.3573176E3,3.1537908E3,3.4180942E3,1.8480322E3,7.1316254E2,0E0,0E0,0E0,0E0,0E0,0E0,0E0,0E0,0E0,0E0,0E0,0E0,0E0,0E0,0E0,0E0],"parents":[2147483647,0,0,1,1,2,2,3,3,4,4,5,5,6,6,7,7,8,8,9,9,10,10,11,11,12,12,13,13,14,14],"right_children":[2,4,6,8,10,12,14,16,18,20,22,24,26,28,30,-1,-1,-1,-1,-1,-1,-1,-1,-1,-1,-1,-1,-1,-1,-1,-1],"split_conditions":[3.4276012E-1,3.5941473E-1,5.8628106E-1,1.7427783E-1,6.622127E-1,5.3551304E-1,5.912735E-1,3.0913857E-1,4.6666667E-1,3.8537788E-1,4.8257878E-1,1.7213635E-1,6.154351E-1,3.8560367E-1,5.366653E-1,6.75844E-2,2.7714837E-1,8.466259E-3,-1.060909E-1,-2.3243402E-1,-1.04855366E-1,-6.1303344E-2,1.3752075E-1,-3.7320793E-2,8.982362E-2,-7.7287786E-2,5.9835304E-2,-2.458886E-2,2.2067288E-1,8.7786034E-2,-2.2495884E-2],"split_indices":[0,66,42,6,71,71,47,38,58,21,17,67,117,107,87,0,0,0,0,0,0,0,0,0,0,0,0,0,0,0,0],"split_type":[0,0,0,0,0,0,0,0,0,0,0,0,0,0,0,0,0,0,0,0,0,0,0,0,0,0,0,0,0,0,0],"sum_hessian":[3.78E2,1.4E2,2.38E2,7E1,7E1,1.83E2,5.5E1,1.7E1,5.3E1,5.4E1,1.6E1,1.01E2,8.2E1,3.4E1,2.1E1,1.4E1,3E0,2.6E1,2.7E1,2.2E1,3.2E1,1.3E1,3E0,2.5E1,7.6E1,5.7E1,2.5E1,3E0,3.1E1,9E0,1.2E1],"tree_param":{"num_deleted":"0","num_feature":"120","num_nodes":"31","size_leaf_vector":"1"}},{"base_weights":[1.727332E-1,-7.340827E0,3.6105936E0,-9.057096E0,7.83012E0,-1.73619E0,8.238701E0,-1.1423183E1,1.8180138E0,-7.670214E-2,1.161325E1,3.5218794E0,-7.9393764E0,1.0408972E1,-7.684454E0,-1.444757E-1,-2.4052393E-3,7.316183E-2,-1.2404573E-1,-7.0475936E-3,1.6202798E-1,2.6105213E-1,3.9997105E-3,1.3264103E-1,-9.435068E-2,-2.1897088E-1,1.16980605E-1,3.3841167E-2,-1.6696334E-1],"categories":[],"categories_nodes":[],"categories_segments":[],"categories_sizes":[],"default_left":[0,0,0,0,0,0,0,0,0,0,0,0,0,0,0,0,0,0,0,0,0,0,0,0,0,0,0,0,0],"id":3,"left_children":[1,3,5,7,9,11,13,15,17,-1,19,21,23,25,27,-1,-1,-1,-1,-1,-1,-1,-1,-1,-1,-1,-1,-1,-1],"loss_changes":[1.032951E4,3.3753008E3,6.8205947E3,2.9612793E3,9.29194E2,4.237616E3,5.2199443E3,3.142333E3,1.8123041E3,0E0,6.827689E2,4.928302E3,2.0708682E3,5.808758E3,1.9434155E3,0E0,0E0,0E0,0E0,0E0,0E0,0E0,0E0,0E0,0E0,0E0,0E0,0E0,0E0],"parents":[2147483647,0,0,1,1,2,2,3,3,4,4,5,5,6,6,7,7,8,8,10,10,11,11,12,12,13,13,14,14],"right_children":[2,4,6,8,10,12,14,16,18,-1,20,22,24,26,28,-1,-1,-1,-1,-1,-1,-1,-1,-1,-1,-1,-1,-1,-1],"split_conditions":[3.310886E-1,7.05214E-1,5.010456E-1,5.834096E-1,3.7746817E-1,4.3521017E-1,7.0387405E-1,6.3390535E-1,5.525679E-1,-7.670214E-2,4.5052052E-1,1.6808659E-1,8.137072E-2,2.4738806E-1,4.7364736E-1,-1.444757E-1,-2.4052393E-3,7.316183E-2,-1.2404573E-1,-7.0475936E-3,1.6202798E-1,2.6105213E-1,3.9997105E-3,1.3264103E-1,-9.435068E-2,-2.1897088E-1,1.16980605E-1,3.3841167E-2,-1.6696334E-1],"split_indices":[0,76,30,21,17,75,33,96,54,0,68,70,84,27,61,0,0,0,0,0,0,0,0,0,0,0,0,0,0],"split_type":[0,0,0,0,0,0,0,0,0,0,0,0,0,0,0,0,0,0,0,0,0,0,0,0,0,0,0,0,0],"sum_hessian":[3.97E2,1.24E2,2.73E2,1.12E2,1.2E1,1.27E2,1.46E2,9.2E1,2E1,2E0,1E1,6.9E1,5.8E1,1.29E2,1.7E1,7.2E1,2E1,1.5E1,5E0,3E0,7E0,7E0,6.2E1,3E0,5.5E1,4E0,1.25E2,8E0,9E0],"tree_param":{"num_deleted":"0","num_feature":"120","num_nodes":"29","size_leaf_vector":"1"}},{"base_weights":[6.54782E-2,-7.3796835E0,3.798427E0,-9.221886E0,6.4609523E0,6.100668E-1,1.2303624E1,4.1018405E0,-1.0790313E1,-1.0976721E-1,1.1629701E1,-2.9943154E0,6.0521584E0,4.734303E0,2.1898567E1,-9.8847605E-2,7.910566E-2,-5.1822104E-2,-1.3900575E-1,-7.0005963E-3,1.5347736E-1,-2.4061734E-3,-1.4068374E-1,2.4972832E-2,2.4442224E-1,7.7010185E-2,-1.714206E-1,2.581533E-1,7.2286283E-3],"categories":[],"categories_nodes":[],"categories_segments":[],"categories_sizes":[],"default_left":[0,0,0,0,0,0,0,0,0,0,0,0,0,0,0,0,0,0,0,0,0,0,0,0,0,0,0,0,0],"id":4,"left_children":[1,3,5,7,9,11,13,15,17,-1,19,21,23,25,27,-1,-1,-1,-1,-1,-1,-1,-1,-1,-1,-1,-1,-1,-1],"loss_changes":[1.1113739E4,3.496017E3,7.2026763E3,2.5494072E3,1.6792979E3,3.865047E3,5.083329E3,8.344772E2,1.7305088E3,0E0,6.496377E2,3.594225E3,5.0133906E3,2.9468662E3,2.558087E3,0E0,0E0,0E0,0E0,0E0,0E0,0E0,0E0,0E0,0E0,0E0,0E0,0E0,0E0],"parents":[2147483647,0,0,1,1,2,2,3,3,4,4,5,5,6,6,7,7,8,8,10,10,11,11,12,12,13,13,14,14],"right_children":[2,4,6,8,10,12,14,16,18,-1,20,22,24,26,28,-1,-1,-1,-1,-1,-1,-1,-1,-1,-1,-1,-1,-1,-1],"split_conditions":[3.310886E-1,7.05214E-1,3.8669774E-1,3.0262285E-1,3.7746817E-1,5.6272113E-1,5.395915E-1,2.1790512E-1,3.2053003E-1,-1.0976721E-1,4.5052052E-1,5.6167907E-1,5.552704E-1,6.4444166E-1,6.843727E-1,-9.8847605E-2,7.910566E-2,-5.1822104E-2,-1.3900575E-1,-7.0005963E-3,1.5347736E-1,-2.4061734E-3,-1.4068374E-1,2.4972832E-2,2.4442224E-1,7.7010185E-2,-1.714206E-1,2.581533E-1,7.2286283E-3],"split_indices":[0,76,7,17,17,60,102,64,66,0,68,110,8,90,60,0,0,0,0,0,0,0,0,0,0,0,0,0,0],"split_type":[0,0,0,0,0,0,0,0,0,0,0,0,0,0,0,0,0,0,0,0,0,0,0,0,0,0,0,0,0],"sum_hessian":[3.97E2,1.32E2,2.65E2,1.17E2,1.5E1,1.94E2,7.1E1,1.2E1,1.05E2,3E0,1.2E1,1.17E2,7.7E1,4.1E1,3E1,2E0,1E1,3.9E1,6.6E1,3E0,9E0,9.5E1,2.2E1,6.6E1,1.1E1,3.7E1,4E0,2.5E1,5E0],"tree_param":{"num_deleted":"0","num_feature":"120","num_nodes":"29","size_leaf_vector":"1"}},{"base_weights":[2.1097228E-1,-6.3756595E0,3.639656E0,1.3679919E0,-1.0522593E1,-6.3608867E-1,9.461519E0,8.518442E0,-8.159442E0,1.6618676E0,-1.3683063E1,6.290051E0,-4.150789E0,1.8404749E1,4.9367485E0,2.6107771E-2,1.568696E-1,-1.4154166E-1,4.7531852E-4,1.0777971E-1,-9.5305525E-2,-1.5895386E-1,2.9269231E-2,1.6467638E-1,5.4288947E-4,-6.35403E-2,8.6240366E-2,2.3678659E-1,3.76425E-2,-1.8557146E-1,6.306643E-2],"categories":[],"categories_nodes":[],"categories_segments":[],"categories_sizes":[],"default_left":[0,0,0,0,0,0,0,0,0,0,0,0,0,0,0,0,0,0,0,0,0,0,0,0,0,0,0,0,0,0,0],"id":5,"left_children":[1,3,5,7,9,11,13,15,17,19,21,23,25,27,29,-1,-1,-1,-1,-1,-1,-1,-1,-1,-1,-1,-1,-1,-1,-1,-1],"loss_changes":[8.941254E3,4.3819775E3,6.5024272E3,3.4087014E3,3.4541436E3,3.7250344E3,4.311869E3,1.1272219E3,1.0728846E3,2.144937E3,2.6733955E3,3.250585E3,2.9367476E3,2.65712E3,2.5932046E3,0E0,0E0,0E0,0E0,0E0,0E0,0E0,0E0,0E0,0E0,0E0,0E0,0E0,0E0,0E0,0E0],"parents":[2147483647,0,0,1,1,2,2,3,3,4,4,5,5,6,6,7,7,8,8,9,9,10,10,11,11,12,12,13,13,14,14],"right_children":[2,4,6,8,10,12,14,16,18,20,22,24,26,28,30,-1,-1,-1,-1,-1,-1,-1,-1,-1,-1,-1,-1,-1,-1,-1,-1],"split_conditions":[3.3559614E-1,3.0965912E-1,3.2841125E-1,3.6505875E-1,2.0642316E-1,4.931765E-1,2.327894E-1,2.6791903E-1,2.813924E-1,4.7802097E-1,6.572069E-1,3.5555312E-1,6.917687E-1,6.0037553E-1,9.959742E-2,2.6107771E-2,1.568696E-1,-1.4154166E-1,4.7531852E-4,1.0777971E-1,-9.5305525E-2,-1.5895386E-1,2.9269231E-2,1.6467638E-1,5.4288947E-4,-6.35403E-2,8.6240366E-2,2.3678659E-1,3.76425E-2,-1.8557146E-1,6.306643E-2],"split_indices":[0,66,7,50,114,37,10,112,67,5,110,73,69,54,85,0,0,0,0,0,0,0,0,0,0,0,0,0,0,0,0],"split_type":[0,0,0,0,0,0,0,0,0,0,0,0,0,0,0,0,0,0,0,0,0,0,0,0,0,0,0,0,0,0,0],"sum_hessian":[3.93E2,1.34E2,2.59E2,4.7E1,8.7E1,1.5E2,1.09E2,2.7E1,2E1,1.8E1,6.9E1,5E1,1E2,3.5E1,7.4E1,1.6E1,1.1E1,1.1E1,9E0,1E1,8E0,6.1E1,8E0,1.8E1,3.2E1,8.6E1,1.4E1,2.5E1,1E1,3E0,7.1E1],"tree_param":{"num_deleted":"0","num_feature":"120","num_nodes":"31","size_leaf_vector":"1"}},{"base_weights":[4.8809275E-1,-6.5152845E0,4.0775104E0,-9.255017E0,6.3113747E0,-4.021569E0,6.945221E0,-1.3419152E1,-3.1995788E0,-6.807049E0,1.3351251E1,-1.0319318E1,1.7386166E0,3.0829477E0,1.2231263E1,-1.8727179E-1,-2.6945619E-2,-1.1014482E-1,5.442097E-2,2.135082E-2,-1.407453E-1,7.175496E-3,2.0372762E-1,-1.4699507E-1,1.2800715E-2,1.1849717E-1,-4.311133E-2,-1.1577101E-3,1.1931014E-1,-1.9527033E-2,1.4736827E-1],"categories":[],"categories_nodes":[],"categories_segments":[],"categories_sizes":[],"default_left":[0,0,0,0,0,0,0,0,0,0,0,0,0,0,0,0,0,0,0,0,0,0,0,0,0,0,0,0,0,0,0],"id":6,"left_children":[1,3,5,7,9,11,13,15,17,19,21,23,25,27,29,-1,-1,-1,-1,-1,-1,-1,-1,-1,-1,-1,-1,-1,-1,-1,-1],"loss_changes":[9.979509E3,4.81711E3,6.1415957E3,2.7305244E3,2.4054941E3,2.5566887E3,3.8990625E3,3.6315654E3,3.3033435E3,6.7438904E2,1.4206589E3,1.7436958E3,2.3780283E3,3.2545205E3,2.9523633E3,0E0,0E0,0E0,0E0,0E0,0E0,0E0,0E0,0E0,0E0,0E0,0E0,0E0,0E0,0E0,0E0],"parents":[2147483647,0,0,1,1,2,2,3,3,4,4,5,5,6,6,7,7,8,8,9,9,10,10,11,11,12,12,13,13,14,14],"right_children":[2,4,6,8,10,12,14,16,18,20,22,24,26,28,30,-1,-1,-1,-1,-1,-1,-1,-1,-1,-1,-1,-1,-1,-1,-1,-1],"split_conditions":[3.3559614E-1,6.3537693E-1,3.1873232E-1,4.746354E-1,3.8816065E-1,4.1634116E-1,3.350629E-1,5.7121795E-1,4.029503E-1,4.7295332E-1,3.3530536E-1,5.9142727E-1,5.3205734E-1,6.4741534E-1,2.78589E-1,-1.8727179E-1,-2.6945619E-2,-1.1014482E-1,5.442097E-2,2.135082E-2,-1.407453E-1,7.175496E-3,2.0372762E-1,-1.4699507E-1,1.2800715E-2,1.1849717E-1,-4.311133E-2,-1.1577101E-3,1.1931014E-1,-1.9527033E-2,1.4736827E-1],"split_indices":[0,77,56,21,110,92,7,110,61,64,24,48,18,103,102,0,0,0,0,0,0,0,0,0,0,0,0,0,0,0,0],"split_type":[0,0,0,0,0,0,0,0,0,0,0,0,0,0,0,0,0,0,0,0,0,0,0,0,0,0,0,0,0,0,0],"sum_hessian":[3.94E2,1.33E2,2.61E2,1.1E2,2.3E1,6.8E1,1.93E2,6.4E1,4.6E1,8E0,1.5E1,3.2E1,3.6E1,1.13E2,8E1,4.2E1,2.2E1,2.4E1,2.2E1,4E0,4E0,6E0,9E0,2.3E1,9E0,1.3E1,2.3E1,8.4E1,2.9E1,1.2E1,6.8E1],"tree_param":{"num_deleted":"0","num_feature":"120","num_nodes":"31","size_leaf_vector":"1"}},{"base_weights":[3.7680617E-1,-7.6499186E0,4.635342E0,4.961365E0,-1.0303266E1,7.7047986E-1,1.0981015E1,1.7032087E1,-6.6924176E0,-1.2098005E1,3.009249E0,1.7144567E0,-2.1836306E1,6.0172844E0,1.9227821E1,2.6680306E-1,5.130548E-2,6.659922E-2,-1.1554027E-1,-1.6816089E-1,-6.596016E-2,-3.083942E-2,6.808393E-2,-6.986204E-3,8.61697E-2,-2.4334043E-1,-2.8395018E-2,-1.8323965E-2,1.4925353E-1,2.387667E-1,2.6293928E-2],"categories":[],"categories_nodes":[],"categories_segments":[],"categories_sizes":[],"default_left":[0,0,0,0,0,0,0,0,0,0,0,0,0,0,0,0,0,0,0,0,0,0,0,0,0,0,0,0,0,0,0],"id":7,"left_children":[1,3,5,7,9,11,13,15,17,19,21,23,25,27,29,-1,-1,-1,-1,-1,-1,-1,-1,-1,-1,-1,-1,-1,-1,-1,-1],"loss_changes":[1.3364102E4,4.616136E3,6.2417344E3,3.627723E3,2.7516025E3,3.4611494E3,3.7514258E3,1.1982202E3,9.966548E2,2.3931143E3,3.7087866E2,2.6070022E3,1.7760034E2,4.424461E3,2.61863E3,0E0,0E0,0E0,0E0,0E0,0E0,0E0,0E0,0E0,0E0,0E0,0E0,0E0,0E0,0E0,0E0],"parents":[2147483647,0,0,1,1,2,2,3,3,4,4,5,5,6,6,7,7,8,8,9,9,10,10,11,11,12,12,13,13,14,14],"right_children":[2,4,6,8,10,12,14,16,18,20,22,24,26,28,30,-1,-1,-1,-1,-1,-1,-1,-1,-1,-1,-1,-1,-1,-1,-1,-1],"split_conditions":[3.3559614E-1,1.9876896E-1,3.350629E-1,5.712202E-1,5.003642E-1,6.102163E-1,5.368659E-1,5.1652896E-1,5.045986E-1,3.7484637E-1,4.501715E-1,6.37122E-1,4.270905E-1,2.8454763E-1,4.3943146E-1,2.6680306E-1,5.130548E-2,6.659922E-2,-1.1554027E-1,-1.6816089E-1,-6.596016E-2,-3.083942E-2,6.808393E-2,-6.986204E-3,8.61697E-2,-2.4334043E-1,-2.8395018E-2,-1.8323965E-2,1.4925353E-1,2.387667E-1,2.6293928E-2],"split_indices":[0,6,7,22,10,2,42,21,15,87,77,117,1,67,100,0,0,0,0,0,0,0,0,0,0,0,0,0,0,0,0],"split_type":[0,0,0,0,0,0,0,0,0,0,0,0,0,0,0,0,0,0,0,0,0,0,0,0,0,0,0,0,0,0,0],"sum_hessian":[3.88E2,1.34E2,2.54E2,2.3E1,1.11E2,1.59E2,9.5E1,1.1E1,1.2E1,9.8E1,1.3E1,1.54E2,5E0,6.1E1,3.4E1,5E0,6E0,3E0,9E0,5.1E1,4.7E1,5E0,8E0,1.15E2,3.9E1,4E0,1E0,3.3E1,2.8E1,2.6E1,8E0],"tree_param":{"num_deleted":"0","num_feature":"120","num_nodes":"31","size_leaf_vector":"1"}},{"base_weights":[-6.060236E-1,-6.627239E0,2.1325736E0,5.6797147E0,-8.681115E0,-1.1382567E0,1.0505375E1,1.3304671E1,-5.521059E0,-1.1017577E1,2.3176542E-1,4.416318E0,-5.8078527E0,2.9543984E0,1.954043E1,2.2789724E-2,1.8595916E-1,5.7218798E-2,-1.3395901E-1,-2.7518012E-2,-1.3501109E-1,-1.5599617E-1,4.730481E-2,-2.4764962E-2,8.4541894E-2,-8.722031E-2,5.7382893E-2,7.64505E-2,-1.7591527E-1,2.2704342E-1,5.179631E-3],"categories":[],"categories_nodes":[],"categories_segments":[],"categories_sizes":[],"default_left":[0,0,0,0,0,0,0,0,0,0,0,0,0,0,0,0,0,0,0,0,0,0,0,0,0,0,0,0,0,0,0],"id":8,"left_children":[1,3,5,7,9,11,13,15,17,19,21,23,25,27,29,-1,-1,-1,-1,-1,-1,-1,-1,-1,-1,-1,-1,-1,-1,-1,-1],"loss_changes":[6.5143853E3,3.1986655E3,7.4626064E3,1.6979675E3,2.2324375E3,5.136608E3,5.110007E3,5.864623E2,8.752079E2,1.6626611E3,1.7735125E3,2.5562056E3,3.695167E3,4.384045E3,2.0355352E3,0E0,0E0,0E0,0E0,0E0,0E0,0E0,0E0,0E0,0E0,0E0,0E0,0E0,0E0,0E0,0E0],"parents":[2147483647,0,0,1,1,2,2,3,3,4,4,5,5,6,6,7,7,8,8,9,9,10,10,11,11,12,12,13,13,14,14],"right_children":[2,4,6,8,10,12,14,16,18,20,22,24,26,28,30,-1,-1,-1,-1,-1,-1,-1,-1,-1,-1,-1,-1,-1,-1,-1,-1],"split_conditions":[3.277925E-1,1.090524E-1,3.8669774E-1,3.6387557E-1,5.834096E-1,4.927362E-1,5.2786314E-1,4.104706E-1,2.610883E-1,4.188442E-1,2.605193E-1,3.6843324E-1,6.248262E-1,4.935394E-1,6.843727E-1,2.2789724E-2,1.8595916E-1,5.7218798E-2,-1.3395901E-1,-2.7518012E-2,-1.3501109E-1,-1.5599617E-1,4.730481E-2,-2.4764962E-2,8.4541894E-2,-8.722031E-2,5.7382893E-2,7.64505E-2,-1.7591527E-1,2.2704342E-1,5.179631E-3],"split_indices":[0,70,7,80,21,71,116,21,36,17,9,96,84,102,60,0,0,0,0,0,0,0,0,0,0,0,0,0,0,0,0],"split_type":[0,0,0,0,0,0,0,0,0,0,0,0,0,0,0,0,0,0,0,0,0,0,0,0,0,0,0,0,0,0,0],"sum_hessian":[3.92E2,1.22E2,2.7E2,1.7E1,1.05E2,1.95E2,7.5E1,1E1,7E0,8.3E1,2.2E1,8.9E1,1.06E2,4.2E1,3.3E1,4E0,6E0,3E0,4E0,2E1,6.3E1,4E0,1.8E1,3.3E1,5.6E1,8.5E1,2.1E1,3.5E1,7E0,2.8E1,5E0],"tree_param":{"num_deleted":"0","num_feature":"120","num_nodes":"31","size_leaf_vector":"1"}},{"base_weights":[1.332826E-1,-6.9522514E0,3.4236138E0,-2.1784942E0,-1.1695915E1,1.2877733E0,1.2031945E1,-2.0367939E1,-1.1968532E-1,-6.042873E0,-1.7678493E1,-3.337643E0,6.1196585E0,-9.104532E0,1.6070377E1,-2.8062484E-1,-1.4601222E-2,-4.5761056E-2,1.1849419E-1,1.1303287E-1,-8.264886E-2,-2.0525235E-1,-6.905618E-2,-5.537805E-2,9.9061325E-2,1.2856774E-1,1.489978E-2,-1.4552476E-1,1.5773416E-2,2.2165357E-1,5.323755E-2],"categories":[],"categories_nodes":[],"categories_segments":[],"categories_sizes":[],"default_left":[0,0,0,0,0,0,0,0,0,0,0,0,0,0,0,0,0,0,0,0,0,0,0,0,0,0,0,0,0,0,0],"id":9,"left_children":[1,3,5,7,9,11,13,15,17,19,21,23,25,27,29,-1,-1,-1,-1,-1,-1,-1,-1,-1,-1,-1,-1,-1,-1,-1,-1],"loss_changes":[9.22945E3,2.7898657E3,4.9368584E3,2.39129E3,1.9297705E3,4.916781E3,4.7930986E3,8.546809E2,3.2477551E3,1.4668391E3,6.646553E2,3.3559954E3,3.3099182E3,6.002519E2,2.7757773E3,0E0,0E0,0E0,0E0,0E0,0E0,0E0,0E0,0E0,0E0,0E0,0E0,0E0,0E0,0E0,0E0],"parents":[2147483647,0,0,1,1,2,2,3,3,4,4,5,5,6,6,7,7,8,8,9,9,10,10,11,11,12,12,13,13,14,14],"right_children":[2,4,6,8,10,12,14,16,18,20,22,24,26,28,30,-1,-1,-1,-1,-1,-1,-1,-1,-1,-1,-1,-1,-1,-1,-1,-1],"split_conditions":[3.310886E-1,3.5941473E-1,6.5133005E-1,1.5500148E-1,3.4495538E-1,5.2343374E-1,4.2984402E-1,5.311488E-1,5.385675E-1,1.908747E-1,6.288776E-1,6.711641E-1,4.7537562E-1,5.1863617E-1,5.73426E-1,-2.8062484E-1,-1.4601222E-2,-4.5761056E-2,1.1849419E-1,1.1303287E-1,-8.264886E-2,-2.0525235E-1,-6.905618E-2,-5.537805E-2,9.9061325E-2,1.2856774E-1,1.489978E-2,-1.4552476E-1,1.5773416E-2,2.2165357E-1,5.323755E-2],"split_indices":[0,66,104,25,63,72,93,8,13,115,24,62,69,19,66,0,0,0,0,0,0,0,0,0,0,0,0,0,0,0,0],"split_type":[0,0,0,0,0,0,0,0,0,0,0,0,0,0,0,0,0,0,0,0,0,0,0,0,0,0,0,0,0,0,0],"sum_hessian":[3.93E2,1.24E2,2.69E2,6.3E1,6.1E1,2.17E2,5.2E1,5E0,5.8E1,3.3E1,2.8E1,1.11E2,1.06E2,8E0,4.4E1,3E0,2E0,4.3E1,1.5E1,3E0,3E1,2.1E1,7E0,9.6E1,1.5E1,4.2E1,6.4E1,5E0,3E0,2.7E1,1.7E1],"tree_param":{"num_deleted":"0","num_feature":"120","num_nodes":"31","size_leaf_vector":"1"}},{"base_weights":[-2.670715E-1,-6.9900365E0,2.9471073E0,-2.4526248E0,-1.1937601E1,2.0401078E-1,1.0269241E1,-1.9018942E1,-8.689099E-2,-1.3101326E1,1.2343633E1,4.617361E0,-4.479351E0,3.5156412E0,1.9363594E1,-2.6019973E-1,-3.9002582E-2,2.691707E-2,-1.0339503E-1,4.1291423E-2,-1.5207545E-1,1.0864624E-2,1.5794621E-1,1.3386161E-2,1.2910007E-1,-1.2804842E-1,6.379954E-3,7.042811E-2,-1.4690004E-1,2.3002034E-1,4.673415E-3],"categories":[],"categories_nodes":[],"categories_segments":[],"categories_sizes":[],"default_left":[0,0,0,0,0,0,0,0,0,0,0,0,0,0,0,0,0,0,0,0,0,0,0,0,0,0,0,0,0,0,0],"id":10,"left_children":[1,3,5,7,9,11,13,15,17,19,21,23,25,27,29,-1,-1,-1,-1,-1,-1,-1,-1,-1,-1,-1,-1,-1,-1,-1,-1],"loss_changes":[8.516402E3,2.8039565E3,5.339122E3,2.6630332E3,1.9528633E3,4.0720132E3,4.3279297E3,7.1754663E2,1.8013993E3,2.2283027E3,9.33479E1,2.7195603E3,4.0931436E3,2.940868E3,2.0573691E3,0E0,0E0,0E0,0E0,0E0,0E0,0E0,0E0,0E0,0E0,0E0,0E0,0E0,0E0,0E0,0E0],"parents":[2147483647,0,0,1,1,2,2,3,3,4,4,5,5,6,6,7,7,8,8,9,9,10,10,11,11,12,12,13,13,14,14],"right_children":[2,4,6,8,10,12,14,16,18,20,22,24,26,28,30,-1,-1,-1,-1,-1,-1,-1,-1,-1,-1,-1,-1,-1,-1,-1,-1],"split_conditions":[3.310886E-1,3.795942E-1,3.8669774E-1,1.5500148E-1,6.6548115E-1,5.198136E-1,5.2786314E-1,7.418621E-1,3.5941473E-1,2.544432E-1,3.1848317E-1,5.552704E-1,4.9352813E-1,4.9956194E-1,6.843727E-1,-2.6019973E-1,-3.9002582E-2,2.691707E-2,-1.0339503E-1,4.1291423E-2,-1.5207545E-1,1.0864624E-2,1.5794621E-1,1.3386161E-2,1.2910007E-1,-1.2804842E-1,6.379954E-3,7.042811E-2,-1.4690004E-1,2.3002034E-1,4.673415E-3],"split_indices":[0,65,7,25,103,71,116,15,66,23,0,8,19,102,60,0,0,0,0,0,0,0,0,0,0,0,0,0,0,0,0],"split_type":[0,0,0,0,0,0,0,0,0,0,0,0,0,0,0,0,0,0,0,0,0,0,0,0,0,0,0,0,0,0,0],"sum_hessian":[3.91E2,1.26E2,2.65E2,6.7E1,5.9E1,1.94E2,7.1E1,7E0,6E1,5.7E1,2E0,1E2,9.4E1,4.2E1,2.9E1,4E0,3E0,4.8E1,1.2E1,6E0,5.1E1,1E0,1E0,7.3E1,2.7E1,3.5E1,5.9E1,3.6E1,6E0,2.4E1,5E0],"tree_param":{"num_deleted":"0","num_feature":"120","num_nodes":"31","size_leaf_vector":"1"}},{"base_weights":[-1.8861521E-2,-6.5276527E0,3.2380698E0,6.1885824E0,-9.083632E0,-1.2519422E0,9.571741E0,1.3550335E1,-8.210246E0,-1.28352E1,-1.1284083E0,-7.879351E0,2.0864918E0,1.779265E1,5.392151E0,4.6669105E-3,2.1634738E-1,-1.0136429E-1,-8.286568E-3,-9.723337E-2,-2.2640726E-1,-6.776822E-2,8.073684E-2,-2.521653E-1,-4.739837E-2,-1.2867291E-2,1.1871204E-1,2.4012335E-1,3.3869505E-2,-2.420661E-3,1.3841936E-1],"categories":[],"categories_nodes":[],"categories_segments":[],"categories_sizes":[],"default_left":[0,0,0,0,0,0,0,0,0,0,0,0,0,0,0,0,0,0,0,0,0,0,0,0,0,0,0,0,0,0,0],"id":11,"left_children":[1,3,5,7,9,11,13,15,17,19,21,23,25,27,29,-1,-1,-1,-1,-1,-1,-1,-1,-1,-1,-1,-1,-1,-1,-1,-1],"loss_changes":[8.228286E3,4.2962837E3,7.377586E3,2.5572312E3,3.2024463E3,3.4045413E3,3.5266064E3,1.6022417E3,9.7291016E1,1.8801602E3,1.9779429E3,2.593921E3,3.4166118E3,3.0313691E3,3.5178083E3,0E0,0E0,0E0,0E0,0E0,0E0,0E0,0E0,0E0,0E0,0E0,0E0,0E0,0E0,0E0,0E0],"parents":[2147483647,0,0,1,1,2,2,3,3,4,4,5,5,6,6,7,7,8,8,9,9,10,10,11,11,12,12,13,13,14,14],"right_children":[2,4,6,8,10,12,14,16,18,20,22,24,26,28,30,-1,-1,-1,-1,-1,-1,-1,-1,-1,-1,-1,-1,-1,-1,-1,-1],"split_conditions":[3.3559614E-1,1.9876896E-1,3.2841125E-1,6.4556956E-1,5.2595174E-1,3.1873232E-1,2.327894E-1,5.189657E-1,6.7686635E-1,4.8713762E-1,4.5718968E-1,3.5173225E-1,7.5394636E-1,6.0037553E-1,4.7922742E-1,4.6669105E-3,2.1634738E-1,-1.0136429E-1,-8.286568E-3,-9.723337E-2,-2.2640726E-1,-6.776822E-2,8.073684E-2,-2.521653E-1,-4.739837E-2,-1.2867291E-2,1.1871204E-1,2.4012335E-1,3.3869505E-2,-2.420661E-3,1.3841936E-1],"split_indices":[0,6,7,14,96,56,10,26,99,1,87,77,95,54,113,0,0,0,0,0,0,0,0,0,0,0,0,0,0,0,0],"split_type":[0,0,0,0,0,0,0,0,0,0,0,0,0,0,0,0,0,0,0,0,0,0,0,0,0,0,0,0,0,0,0],"sum_hessian":[3.85E2,1.28E2,2.57E2,2.1E1,1.07E2,1.51E2,1.06E2,1.4E1,7E0,7.2E1,3.5E1,5E1,1.01E2,3.4E1,7.2E1,6E0,8E0,5E0,2E0,5.7E1,1.5E1,2.2E1,1.3E1,6E0,4.4E1,7.6E1,2.5E1,2.3E1,1.1E1,4.4E1,2.8E1],"tree_param":{"num_deleted":"0","num_feature":"120","num_nodes":"31","size_leaf_vector":"1"}},{"base_weights":[3.9835297E-2,-5.940248E0,3.8908877E0,-7.0726595E0,2.0799547E1,-1.403786E0,9.325839E0,-3.1633258E-1,-1.0350113E1,2.4353014E-1,7.0309974E-2,7.9968305E0,-4.9497175E0,2.6090197E1,7.0166755E0,2.6396269E-2,-1.7530966E-1,-1.1939214E-1,8.464946E-2,1.984504E-1,1.6457805E-2,-1.2945046E-1,-2.841043E-3,3.8865965E-2,2.9357788E-1,4.0558763E-2,1.6395456E-1],"categories":[],"categories_nodes":[],"categories_segments":[],"categories_sizes":[],"default_left":[0,0,0,0,0,0,0,0,0,0,0,0,0,0,0,0,0,0,0,0,0,0,0,0,0,0,0],"id":12,"left_children":[1,3,5,7,9,11,13,15,17,-1,-1,19,21,23,25,-1,-1,-1,-1,-1,-1,-1,-1,-1,-1,-1,-1],"loss_changes":[8.910536E3,4.794424E3,6.804376E3,3.2284521E3,2.979663E1,4.0730664E3,4.2022E3,2.6031494E3,3.100127E3,0E0,0E0,2.4503457E3,3.2825798E3,7.750596E2,2.78163E3,0E0,0E0,0E0,0E0,0E0,0E0,0E0,0E0,0E0,0E0,0E0,0E0],"parents":[2147483647,0,0,1,1,2,2,3,3,4,4,5,5,6,6,7,7,8,8,11,11,12,12,13,13,14,14],"right_children":[2,4,6,8,10,12,14,16,18,-1,-1,20,22,24,26,-1,-1,-1,-1,-1,-1,-1,-1,-1,-1,-1,-1],"split_conditions":[3.529713E-1,8.910579E-1,5.010456E-1,2.9622114E-1,5.797489E-1,2.3225133E-1,2.5E-1,7.7334374E-1,7.826565E-1,2.4353014E-1,7.0309974E-2,4.2759302E-1,3.805069E-1,2.5662455E-1,4.1005242E-1,2.6396269E-2,-1.7530966E-1,-1.1939214E-1,8.464946E-2,1.984504E-1,1.6457805E-2,-1.2945046E-1,-2.841043E-3,3.8865965E-2,2.9357788E-1,4.0558763E-2,1.6395456E-1],"split_indices":[0,97,30,65,78,70,28,26,91,0,0,75,106,2,7,0,0,0,0,0,0,0,0,0,0,0,0],"split_type":[0,0,0,0,0,0,0,0,0,0,0,0,0,0,0,0,0,0,0,0,0,0,0,0,0,0,0],"sum_hessian":[3.84E2,1.5E2,2.34E2,1.45E2,5E0,1.19E2,1.15E2,4.8E1,9.7E1,3E0,2E0,3.2E1,8.7E1,1.2E1,1.03E2,4.2E1,6E0,9E1,7E0,1E1,2.2E1,3.1E1,5.6E1,2E0,1E1,8E1,2.3E1],"tree_param":{"num_deleted":"0","num_feature":"120","num_nodes":"27","size_leaf_vector":"1"}},{"base_weights":[2.1520901E-2,-7.0220656E0,3.2729952E0,-1.2773464E0,-1.0363194E1,5.710127E-1,1.0788507E1,-2.0471172E1,1.2281139E0,-1.1511796E1,1.1629466E1,4.927067E0,-4.659516E0,-1.108467E-1,1.6204668E1,-1.2714233E-2,-2.4091752E-1,5.4646406E-2,-5.235322E-2,-1.2646021E-1,5.778459E-2,1.659426E-1,-1.8989258E-2,1.2579677E-1,6.289662E-3,-1.357976E-1,3.9855614E-3,-8.904785E-2,5.792548E-2,-1.3295389E-2,2.0492725E-1],"categories":[],"categories_nodes":[],"categories_segments":[],"categories_sizes":[],"default_left":[0,0,0,0,0,0,0,0,0,0,0,0,0,0,0,0,0,0,0,0,0,0,0,0,0,0,0,0,0,0,0],"id":13,"left_children":[1,3,5,7,9,11,13,15,17,19,21,23,25,27,29,-1,-1,-1,-1,-1,-1,-1,-1,-1,-1,-1,-1,-1,-1,-1,-1],"loss_changes":[8.813659E3,2.3005562E3,5.3302363E3,2.29311E3,2.1331465E3,4.489068E3,4.1215576E3,3.110188E2,1.2069E3,1.5578936E3,3.642077E2,3.510779E3,4.0594717E3,1.3523796E3,3.5562588E3,0E0,0E0,0E0,0E0,0E0,0E0,0E0,0E0,0E0,0E0,0E0,0E0,0E0,0E0,0E0,0E0],"parents":[2147483647,0,0,1,1,2,2,3,3,4,4,5,5,6,6,7,7,8,8,9,9,10,10,11,11,12,12,13,13,14,14],"right_children":[2,4,6,8,10,12,14,16,18,20,22,24,26,28,30,-1,-1,-1,-1,-1,-1,-1,-1,-1,-1,-1,-1,-1,-1,-1,-1],"split_conditions":[3.310886E-1,3.0965912E-1,3.8669774E-1,2.9490378E-1,7.826565E-1,5.2779675E-1,5.3216076E-1,1.8368192E-2,3.62682E-1,7.5498223E-1,7.5274664E-1,2.3082222E-1,4.9352813E-1,3.4735987E-1,1.820669E-1,-1.2714233E-2,-2.4091752E-1,5.4646406E-2,-5.235322E-2,-1.2646021E-1,5.778459E-2,1.659426E-1,-1.8989258E-2,1.2579677E-1,6.289662E-3,-1.357976E-1,3.9855614E-3,-8.904785E-2,5.792548E-2,-1.3295389E-2,2.0492725E-1],"split_indices":[0,66,7,77,91,71,90,0,50,21,1,70,19,37,101,0,0,0,0,0,0,0,0,0,0,0,0,0,0,0,0],"split_type":[0,0,0,0,0,0,0,0,0,0,0,0,0,0,0,0,0,0,0,0,0,0,0,0,0,0,0,0,0,0,0],"sum_hessian":[3.82E2,1.2E2,2.62E2,4.5E1,7.5E1,1.94E2,6.8E1,4E0,4.1E1,7.2E1,3E0,1.06E2,8.8E1,2.3E1,4.5E1,1E0,3E0,2.5E1,1.6E1,6.8E1,4E0,2E0,1E0,3.7E1,6.9E1,3.1E1,5.7E1,9E0,1.4E1,9E0,3.6E1],"tree_param":{"num_deleted":"0","num_feature":"120","num_nodes":"31","size_leaf_vector":"1"}},{"base_weights":[9.122143E-1,-6.0901732E0,4.077015E0,-7.9309063E0,6.1724086E0,1.9623514E0,1.2230504E1,-1.0224225E1,2.277308E0,-1.0429087E-1,1.1094491E1,2.4750733E0,-2.9575998E-1,-9.084456E0,1.6212147E1,-1.3615485E-1,-2.2113295E-3,7.234882E-2,-1.3034679E-1,1.3879631E-1,-2.525748E-2,-1.4351012E-2,6.663968E-2,-1.4432031E-1,1.4457465E-2,2.2375067E-1,5.0162353E-2],"categories":[],"categories_nodes":[],"categories_segments":[],"categories_sizes":[],"default_left":[0,0,0,0,0,0,0,0,0,0,0,0,0,0,0,0,0,0,0,0,0,0,0,0,0,0,0],"id":14,"left_children":[1,3,5,7,9,11,13,15,17,-1,19,21,-1,23,25,-1,-1,-1,-1,-1,-1,-1,-1,-1,-1,-1,-1],"loss_changes":[8.578358E3,2.7951313E3,4.544769E3,2.5126992E3,1.5225034E3,3.5350847E3,4.8533823E3,2.915995E3,1.6918181E3,0E0,5.7605115E2,3.4837983E3,0E0,5.792387E2,3.0127275E3,0E0,0E0,0E0,0E0,0E0,0E0,0E0,0E0,0E0,0E0,0E0,0E0],"parents":[2147483647,0,0,1,1,2,2,3,3,4,4,5,5,6,6,7,7,8,8,10,10,11,11,13,13,14,14],"right_children":[2,4,6,8,10,12,14,16,18,-1,20,22,-1,24,26,-1,-1,-1,-1,-1,-1,-1,-1,-1,-1,-1,-1],"split_conditions":[3.310886E-1,7.05214E-1,6.5133005E-1,5.834096E-1,3.7746817E-1,8.5826015E-1,4.2984402E-1,6.0333383E-1,5.525679E-1,-1.0429087E-1,6.644376E-1,5.2343374E-1,-2.9575998E-1,5.1863617E-1,5.73426E-1,-1.3615485E-1,-2.2113295E-3,7.234882E-2,-1.3034679E-1,1.3879631E-1,-2.525748E-2,-1.4351012E-2,6.663968E-2,-1.4432031E-1,1.4457465E-2,2.2375067E-1,5.0162353E-2],"split_indices":[0,76,104,21,17,86,93,19,54,0,14,72,0,19,66,0,0,0,0,0,0,0,0,0,0,0,0],"split_type":[0,0,0,0,0,0,0,0,0,0,0,0,0,0,0,0,0,0,0,0,0,0,0,0,0,0,0],"sum_hessian":[3.84E2,1.19E2,2.65E2,1.04E2,1.5E1,2.12E2,5.3E1,8.5E1,1.9E1,3E0,1.2E1,2.1E2,2E0,8E0,4.5E1,6.3E1,2.2E1,1.5E1,4E0,1E1,2E0,1.09E2,1.01E2,5E0,3E0,2.8E1,1.7E1],"tree_param":{"num_deleted":"0","num_feature":"120","num_nodes":"27","size_leaf_vector":"1"}},{"base_weights":[-3.3281635E-2,-6.5427775E0,3.1872406E0,-7.5138073E0,2.3144217E1,-8.6399513E-1,8.890748E0,-1.2166543E0,-1.1110632E1,2.6169223E-1,4.6226744E-2,-3.8839724E0,5.761531E0,1.6339619E1,5.2466817E0,-1.941372E-1,2.0140039E-2,-1.2695597E-1,6.9334716E-2,4.750492E-2,-6.3017316E-2,-9.384991E-2,9.044655E-2,2.2001666E-1,3.201251E-2,5.2739135E-3,1.1580764E-1],"categories":[],"categories_nodes":[],"categories_segments":[],"categories_sizes":[],"default_left":[0,0,0,0,0,0,0,0,0,0,0,0,0,0,0,0,0,0,0,0,0,0,0,0,0,0,0],"id":15,"left_children":[1,3,5,7,9,11,13,15,17,-1,-1,19,21,23,25,-1,-1,-1,-1,-1,-1,-1,-1,-1,-1,-1,-1],"loss_changes":[8.325888E3,4.0359648E3,6.15426E3,2.8778892E3,3.987549E1,3.1630874E3,2.849253E3,2.927291E3,2.4686396E3,0E0,0E0,2.3115078E3,2.5885176E3,2.509995E3,2.2654966E3,0E0,0E0,0E0,0E0,0E0,0E0,0E0,0E0,0E0,0E0,0E0,0E0],"parents":[2147483647,0,0,1,1,2,2,3,3,4,4,5,5,6,6,7,7,8,8,11,11,12,12,13,13,14,14],"right_children":[2,4,6,8,10,12,14,16,18,-1,-1,20,22,24,26,-1,-1,-1,-1,-1,-1,-1,-1,-1,-1,-1,-1],"split_conditions":[3.3559614E-1,8.8552886E-1,3.2841125E-1,3.078331E-1,3.314095E-1,4.8824918E-1,2.327894E-1,1.5500148E-1,7.826565E-1,2.6169223E-1,4.6226744E-2,2.3225133E-1,1.6684361E-1,6.0037553E-1,4.7922742E-1,-1.941372E-1,2.0140039E-2,-1.2695597E-1,6.9334716E-2,4.750492E-2,-6.3017316E-2,-9.384991E-2,9.044655E-2,2.2001666E-1,3.201251E-2,5.2739135E-3,1.1580764E-1],"split_indices":[0,97,7,66,0,39,10,25,91,0,0,70,36,54,113,0,0,0,0,0,0,0,0,0,0,0,0],"split_type":[0,0,0,0,0,0,0,0,0,0,0,0,0,0,0,0,0,0,0,0,0,0,0,0,0,0,0],"sum_hessian":[3.94E2,1.3E2,2.64E2,1.27E2,3E0,1.55E2,1.09E2,4.7E1,8E1,2E0,1E0,1.07E2,4.8E1,3.4E1,7.5E1,6E0,4.1E1,7.4E1,6E0,2.3E1,8.4E1,8E0,4E1,2.3E1,1.1E1,4.4E1,3.1E1],"tree_param":{"num_deleted":"0","num_feature":"120","num_nodes":"27","size_leaf_vector":"1"}},{"base_weights":[1.9243831E-3,-6.8543844E0,3.1443882E0,-9.250407E0,2.668462E0,-1.9212492E-1,1.2222923E1,-1.1246513E1,1.8183672E0,-1.040387E1,7.805748E0,-3.4826005E0,5.455357E0,1.7798079E0,1.77727E1,-8.89866E-3,-1.3424501E-1,-3.6305223E-2,1.2897399E-1,1.6932461E-3,-1.4476666E-1,-2.094527E-2,1.1779316E-1,-1.2948902E-1,-8.134452E-4,1.0441261E-2,1.3452876E-1,9.954667E-2,-3.52357E-2,4.732764E-3,2.3402065E-1],"categories":[],"categories_nodes":[],"categories_segments":[],"categories_sizes":[],"default_left":[0,0,0,0,0,0,0,0,0,0,0,0,0,0,0,0,0,0,0,0,0,0,0,0,0,0,0,0,0,0,0],"id":16,"left_children":[1,3,5,7,9,11,13,15,17,19,21,23,25,27,29,-1,-1,-1,-1,-1,-1,-1,-1,-1,-1,-1,-1,-1,-1,-1,-1],"loss_changes":[7.9897563E3,2.7017842E3,7.7245244E3,2.105933E3,1.7645465E3,3.5108196E3,3.9030498E3,1.7610215E3,1.015214E3,3.409527E2,7.744719E2,3.8329688E3,2.4163171E3,1.1645813E3,4.293135E3,0E0,0E0,0E0,0E0,0E0,0E0,0E0,0E0,0E0,0E0,0E0,0E0,0E0,0E0,0E0,0E0],"parents":[2147483647,0,0,1,1,2,2,3,3,4,4,5,5,6,6,7,7,8,8,9,9,10,10,11,11,12,12,13,13,14,14],"right_children":[2,4,6,8,10,12,14,16,18,20,22,24,26,28,30,-1,-1,-1,-1,-1,-1,-1,-1,-1,-1,-1,-1,-1,-1,-1,-1],"split_conditions":[3.310886E-1,5.834096E-1,3.8669774E-1,5.6337386E-1,3.6138818E-1,5.741114E-1,5.3216076E-1,2.7905256E-1,4.765949E-1,3.1233558E-1,3.535812E-1,3.7875736E-1,6.9651276E-1,3.6029354E-1,1.8052489E-1,-8.89866E-3,-1.3424501E-1,-3.6305223E-2,1.2897399E-1,1.6932461E-3,-1.4476666E-1,-2.094527E-2,1.1779316E-1,-1.2948902E-1,-8.134452E-4,1.0441261E-2,1.3452876E-1,9.954667E-2,-3.52357E-2,4.732764E-3,2.3402065E-1],"split_indices":[0,21,7,60,51,60,90,36,21,8,19,46,35,39,115,0,0,0,0,0,0,0,0,0,0,0,0,0,0,0,0],"split_type":[0,0,0,0,0,0,0,0,0,0,0,0,0,0,0,0,0,0,0,0,0,0,0,0,0,0,0,0,0,0,0],"sum_hessian":[3.68E2,1.15E2,2.53E2,9.2E1,2.3E1,1.86E2,6.7E1,7.8E1,1.4E1,6E0,1.7E1,1.18E2,6.8E1,2.4E1,4.3E1,1.4E1,6.4E1,1E1,4E0,2E0,4E0,5E0,1.2E1,3E1,8.8E1,4.5E1,2.3E1,9E0,1.5E1,1.1E1,3.2E1],"tree_param":{"num_deleted":"0","num_feature":"120","num_nodes":"31","size_leaf_vector":"1"}},{"base_weights":[2.8364667E-1,-6.7333384E0,3.4239664E0,-9.769423E0,1.8927336E0,9.9874437E-1,1.5139692E1,-1.2032684E1,1.6977146E0,-8.368722E0,1.087636E1,-2.6243076E0,6.6499643E0,2.970731E1,5.3627505E0,7.542667E-2,-1.3054843E-1,6.294859E-2,-8.195693E-2,3.4226514E-2,-1.168937E-1,-4.101169E-2,1.4468384E-1,8.430404E-3,-1.0933048E-1,3.113111E-2,1.9152641E-1,6.4294025E-2,3.3789352E-1,-5.3827442E-2,1.2635583E-1],"categories":[],"categories_nodes":[],"categories_segments":[],"categories_sizes":[],"default_left":[0,0,0,0,0,0,0,0,0,0,0,0,0,0,0,0,0,0,0,0,0,0,0,0,0,0,0,0,0,0,0],"id":17,"left_children":[1,3,5,7,9,11,13,15,17,19,21,23,25,27,29,-1,-1,-1,-1,-1,-1,-1,-1,-1,-1,-1,-1,-1,-1,-1,-1],"loss_changes":[8.305631E3,3.086686E3,7.362829E3,2.2859238E3,3.0428699E3,4.4834424E3,6.06395E3,1.603877E3,7.804474E2,6.7518225E2,1.0408667E3,3.869957E3,3.6691194E3,1.2967881E3,2.3365542E3,0E0,0E0,0E0,0E0,0E0,0E0,0E0,0E0,0E0,0E0,0E0,0E0,0E0,0E0,0E0,0E0],"parents":[2147483647,0,0,1,1,2,2,3,3,4,4,5,5,6,6,7,7,8,8,9,9,10,10,11,11,12,12,13,13,14,14],"right_children":[2,4,6,8,10,12,14,16,18,20,22,24,26,28,30,-1,-1,-1,-1,-1,-1,-1,-1,-1,-1,-1,-1,-1,-1,-1,-1],"split_conditions":[3.310886E-1,5.408422E-1,4.1005242E-1,5.003642E-1,4.1756445E-1,5.741114E-1,5.224838E-1,1.2276765E-1,5.8846223E-1,3.36238E-1,4.104706E-1,5.317412E-1,5.435481E-1,1.820669E-1,4.5352572E-1,7.542667E-2,-1.3054843E-1,6.294859E-2,-8.195693E-2,3.4226514E-2,-1.168937E-1,-4.101169E-2,1.4468384E-1,8.430404E-3,-1.0933048E-1,3.113111E-2,1.9152641E-1,6.4294025E-2,3.3789352E-1,-5.3827442E-2,1.2635583E-1],"split_indices":[0,1,7,10,68,60,7,114,93,66,21,110,8,101,107,0,0,0,0,0,0,0,0,0,0,0,0,0,0,0,0],"split_type":[0,0,0,0,0,0,0,0,0,0,0,0,0,0,0,0,0,0,0,0,0,0,0,0,0,0,0,0,0,0,0],"sum_hessian":[3.74E2,1.15E2,2.59E2,8.5E1,3E1,2.16E2,4.3E1,7.1E1,1.4E1,1.4E1,1.6E1,1.32E2,8.4E1,1.6E1,2.7E1,3E0,6.8E1,1E1,4E0,3E0,1.1E1,3E0,1.3E1,9.4E1,3.8E1,6.7E1,1.7E1,3E0,1.3E1,1.1E1,1.6E1],"tree_param":{"num_deleted":"0","num_feature":"120","num_nodes":"31","size_leaf_vector":"1"}},{"base_weights":[-1.9115998E-1,-6.368142E0,3.1918488E0,-7.2643214E-1,-1.2355008E1,1.7064188E-1,1.0906882E1,-4.1744437E0,1.3666281E1,-1.5092298E1,-4.926177E0,-1.6850597E1,1.2966493E0,5.151514E0,1.793823E1,-7.362656E-2,5.7296567E-2,1.8926501E-1,-4.1097138E-2,-3.0026695E-2,-1.8089499E-1,7.5062424E-2,-7.757984E-2,-2.517908E-1,-7.1614212E-3,8.8217854E-2,-1.106072E-2,1.4618585E-1,-4.2909933E-3,2.1228454E-1,2.3080443E-3],"categories":[],"categories_nodes":[],"categories_segments":[],"categories_sizes":[],"default_left":[0,0,0,0,0,0,0,0,0,0,0,0,0,0,0,0,0,0,0,0,0,0,0,0,0,0,0,0,0,0,0],"id":18,"left_children":[1,3,5,7,9,11,13,15,17,19,21,23,25,27,29,-1,-1,-1,-1,-1,-1,-1,-1,-1,-1,-1,-1,-1,-1,-1,-1],"loss_changes":[8.235653E3,4.68523E3,5.9181973E3,3.7236104E3,1.2410635E3,3.5533547E3,2.7317588E3,1.975282E3,1.487323E3,1.654833E3,8.093291E2,1.492376E3,3.1774526E3,2.2161294E3,1.8064258E3,0E0,0E0,0E0,0E0,0E0,0E0,0E0,0E0,0E0,0E0,0E0,0E0,0E0,0E0,0E0,0E0],"parents":[2147483647,0,0,1,1,2,2,3,3,4,4,5,5,6,6,7,7,8,8,9,9,10,10,11,11,12,12,13,13,14,14],"right_children":[2,4,6,8,10,12,14,16,18,20,22,24,26,28,30,-1,-1,-1,-1,-1,-1,-1,-1,-1,-1,-1,-1,-1,-1,-1,-1],"split_conditions":[3.3559614E-1,3.5941473E-1,3.8669774E-1,7.05214E-1,5.2595174E-1,7.062419E-2,5.395915E-1,5.834096E-1,6.644376E-1,2.0360172E-1,2.1791045E-1,4.6275517E-1,2.3082222E-1,3.0491534E-1,6.843727E-1,-7.362656E-2,5.7296567E-2,1.8926501E-1,-4.1097138E-2,-3.0026695E-2,-1.8089499E-1,7.5062424E-2,-7.757984E-2,-2.517908E-1,-7.1614212E-3,8.8217854E-2,-1.106072E-2,1.4618585E-1,-4.2909933E-3,2.1228454E-1,2.3080443E-3],"split_indices":[0,66,7,76,96,5,102,21,14,114,27,65,70,83,60,0,0,0,0,0,0,0,0,0,0,0,0,0,0,0,0],"split_type":[0,0,0,0,0,0,0,0,0,0,0,0,0,0,0,0,0,0,0,0,0,0,0,0,0,0,0,0,0,0,0],"sum_hessian":[3.91E2,1.38E2,2.53E2,7.2E1,6.6E1,1.83E2,7E1,5.9E1,1.3E1,4.7E1,1.9E1,1E1,1.73E2,4E1,3E1,4.5E1,1.4E1,1E1,3E0,1E1,3.7E1,3E0,1.6E1,6E0,4E0,4.1E1,1.32E2,1.4E1,2.6E1,2.5E1,5E0],"tree_param":{"num_deleted":"0","num_feature":"120","num_nodes":"31","size_leaf_vector":"1"}},{"base_weights":[-5.357809E-1,-6.0136423E0,2.3050177E0,8.740068E0,-8.786596E0,2.3784097E-2,1.2437914E1,6.881882E-1,2.0815617E1,-2.687643E-1,-7.179481E0,-1.7585989E1,1.2385232E0,-7.673908E-1,1.7626572E1,-5.1256202E-2,5.814221E-2,4.180664E-3,2.3318341E-1,-1.2285251E-1,-8.835843E-3,-2.2187388E-2,-2.3600818E-1,-2.8443512E-2,6.4915024E-2,5.946543E-2,-6.673675E-2,-4.2760067E-2,2.0847736E-1],"categories":[],"categories_nodes":[],"categories_segments":[],"categories_sizes":[],"default_left":[0,0,0,0,0,0,0,0,0,0,0,0,0,0,0,0,0,0,0,0,0,0,0,0,0,0,0,0,0],"id":19,"left_children":[1,3,5,7,9,11,13,15,17,-1,19,21,23,25,27,-1,-1,-1,-1,-1,-1,-1,-1,-1,-1,-1,-1,-1,-1],"loss_changes":[5.992337E3,5.4950825E3,5.8468755E3,2.047472E3,2.918083E3,4.4764053E3,3.2232275E3,4.775166E2,3.9556177E2,0E0,3.3297432E3,1.143458E3,4.2457285E3,6.3524396E2,2.5137734E3,0E0,0E0,0E0,0E0,0E0,0E0,0E0,0E0,0E0,0E0,0E0,0E0,0E0,0E0],"parents":[2147483647,0,0,1,1,2,2,3,3,4,4,5,5,6,6,7,7,8,8,10,10,11,11,12,12,13,13,14,14],"right_children":[2,4,6,8,10,12,14,16,18,-1,20,22,24,26,28,-1,-1,-1,-1,-1,-1,-1,-1,-1,-1,-1,-1,-1,-1],"split_conditions":[3.3559614E-1,2.7913615E-1,6.5133005E-1,4.5218965E-1,1.9184162E-1,7.062419E-2,4.5290872E-1,4.4127843E-1,2.320505E-1,-2.687643E-1,4.746354E-1,4.038292E-1,5.010456E-1,4.2237863E-1,2.765025E-1,-5.1256202E-2,5.814221E-2,4.180664E-3,2.3318341E-1,-1.2285251E-1,-8.835843E-3,-2.2187388E-2,-2.3600818E-1,-2.8443512E-2,6.4915024E-2,5.946543E-2,-6.673675E-2,-4.2760067E-2,2.0847736E-1],"split_indices":[0,36,104,16,101,5,93,20,1,0,21,96,30,48,82,0,0,0,0,0,0,0,0,0,0,0,0,0,0],"split_type":[0,0,0,0,0,0,0,0,0,0,0,0,0,0,0,0,0,0,0,0,0,0,0,0,0,0,0,0,0],"sum_hessian":[3.82E2,1.3E2,2.52E2,2E1,1.1E2,2.07E2,4.5E1,1.3E1,7E0,7E0,1.03E2,1.2E1,1.95E2,1.3E1,3.2E1,6E0,7E0,1E0,6E0,5.6E1,4.7E1,4E0,8E0,1.1E2,8.5E1,6E0,7E0,4E0,2.8E1],"tree_param":{"num_deleted":"0","num_feature":"120","num_nodes":"29","size_leaf_vector":"1"}},{"base_weights":[-3.4070528E-1,-8.228827E0,2.2155824E0,-9.549054E0,1.5797351E-1,3.0572155E-1,1.1414542E1,1.7669582E0,-1.19955E1,-3.644125E0,7.1421013E0,2.298649E1,5.0194435E0,-1.20911255E-1,7.290589E-2,-1.3435212E-1,9.810444E-2,-2.6863283E-1,-2.7643112E-2,4.7462996E-2,1.7394821E-1,2.9109517E-1,1.1248665E-1,1.1467098E-1,-6.2102884E-2],"categories":[],"categories_nodes":[],"categories_segments":[],"categories_sizes":[],"default_left":[0,0,0,0,0,0,0,0,0,0,0,0,0,0,0,0,0,0,0,0,0,0,0,0,0],"id":20,"left_children":[1,3,5,7,-1,9,11,13,15,17,19,21,23,-1,-1,-1,-1,-1,-1,-1,-1,-1,-1,-1,-1],"loss_changes":[7.867196E3,3.2492861E3,5.157037E3,2.5751084E3,0E0,6.671689E3,3.5361143E3,1.4669982E3,2.5716025E3,3.0560498E3,2.0770122E3,7.262197E2,2.6100652E3,0E0,0E0,0E0,0E0,0E0,0E0,0E0,0E0,0E0,0E0,0E0,0E0],"parents":[2147483647,0,0,1,1,2,2,3,3,5,5,6,6,7,7,8,8,9,9,10,10,11,11,12,12],"right_children":[2,4,6,8,-1,10,12,14,16,18,20,22,24,-1,-1,-1,-1,-1,-1,-1,-1,-1,-1,-1,-1],"split_conditions":[3.2089552E-1,7.2201806E-1,4.1340277E-1,2.8022838E-1,1.5797351E-1,5.741114E-1,4.751075E-1,4.4589454E-1,8.166516E-1,1.6967309E-1,5.435481E-1,6.3962525E-1,4.506198E-1,-1.20911255E-1,7.290589E-2,-1.3435212E-1,9.810444E-2,-2.6863283E-1,-2.7643112E-2,4.7462996E-2,1.7394821E-1,2.9109517E-1,1.1248665E-1,1.1467098E-1,-6.2102884E-2],"split_indices":[27,14,7,36,0,60,54,68,21,64,8,15,66,0,0,0,0,0,0,0,0,0,0,0,0],"split_type":[0,0,0,0,0,0,0,0,0,0,0,0,0,0,0,0,0,0,0,0,0,0,0,0,0],"sum_hessian":[3.87E2,9.4E1,2.93E2,9E1,4E0,2.44E2,4.9E1,1.6E1,7.4E1,1.55E2,8.9E1,1.6E1,3.3E1,4E0,1.2E1,7E1,4E0,4E0,1.51E2,7.4E1,1.5E1,9E0,7E0,2.1E1,1.2E1],"tree_param":{"num_deleted":"0","num_feature":"120","num_nodes":"25","size_leaf_vector":"1"}},{"base_weights":[3.568713E-2,-8.092804E0,2.6560922E0,-9.515657E0,1.3212518E1,8.766212E0,-4.2192844E-1,-8.5681736E-1,-1.2303942E1,-0E0,1.5682462E-1,-3.6936913E0,1.1633527E1,7.5970526E0,-2.885623E0,6.80199E-2,-8.4928066E-2,-1.7796196E-1,-6.247749E-2,-6.981705E-2,1.4043675E-1,1.715607E-1,6.3216135E-2,-4.602929E-2,1.3657501E-1,-2.6667914E-1,-1.9627007E-2],"categories":[],"categories_nodes":[],"categories_segments":[],"categories_sizes":[],"default_left":[0,0,0,0,0,0,0,0,0,0,0,0,0,0,0,0,0,0,0,0,0,0,0,0,0,0,0],"id":21,"left_children":[1,3,5,7,9,11,13,15,17,-1,-1,19,21,23,25,-1,-1,-1,-1,-1,-1,-1,-1,-1,-1,-1,-1],"loss_changes":[8.259231E3,3.0495977E3,5.5337695E3,2.1318525E3,2.1795886E2,3.5914531E3,3.9102888E3,1.4626831E3,2.054371E3,0E0,0E0,1.277265E3,2.175331E3,3.541439E3,3.218163E3,0E0,0E0,0E0,0E0,0E0,0E0,0E0,0E0,0E0,0E0,0E0,0E0],"parents":[2147483647,0,0,1,1,2,2,3,3,4,4,5,5,6,6,7,7,8,8,11,11,12,12,13,13,14,14],"right_children":[2,4,6,8,10,12,14,16,18,-1,-1,20,22,24,26,-1,-1,-1,-1,-1,-1,-1,-1,-1,-1,-1,-1],"split_conditions":[3.25E-1,7.174664E-1,2.7283004E-1,4.8211166E-1,1.4075777E-1,3.5967633E-1,1.9359547E-1,3.656992E-1,2.9486778E-1,-0E0,1.5682462E-1,6.129016E-1,3.5555556E-1,3.7136707E-1,1.6967309E-1,6.80199E-2,-8.4928066E-2,-1.7796196E-1,-6.247749E-2,-6.981705E-2,1.4043675E-1,1.715607E-1,6.3216135E-2,-4.602929E-2,1.3657501E-1,-2.6667914E-1,-1.9627007E-2],"split_indices":[27,14,70,49,0,60,10,36,70,0,0,14,58,79,64,0,0,0,0,0,0,0,0,0,0,0,0],"split_type":[0,0,0,0,0,0,0,0,0,0,0,0,0,0,0,0,0,0,0,0,0,0,0,0,0,0,0],"sum_hessian":[3.85E2,9.3E1,2.92E2,8.8E1,5E0,9.7E1,1.95E2,2.2E1,6.6E1,1E0,4E0,1.8E1,7.9E1,4.5E1,1.5E2,1.1E1,1.1E1,3.3E1,3.3E1,1.6E1,2E0,3.7E1,4.2E1,1.5E1,3E1,4E0,1.46E2],"tree_param":{"num_deleted":"0","num_feature":"120","num_nodes":"27","size_leaf_vector":"1"}},{"base_weights":[4.0381353E-2,-6.040809E0,2.8955514E0,-7.775298E0,5.958448E0,5.6731415E0,-3.9392443E0,-9.381622E0,2.0707963E0,-1.0076412E-1,1.07154255E1,2.5665004E0,1.3903564E1,-7.46981E0,7.085245E0,-3.1327154E-2,-1.2342519E-1,-7.563472E-2,1.259072E-1,1.3441962E-1,-2.5498046E-2,3.4872282E-2,-1.692391E-1,1.15726385E-2,1.7706594E-1,-4.9636696E-2,-2.3719648E-1,-2.6907027E-2,1.4323822E-1],"categories":[],"categories_nodes":[],"categories_segments":[],"categories_sizes":[],"default_left":[0,0,0,0,0,0,0,0,0,0,0,0,0,0,0,0,0,0,0,0,0,0,0,0,0,0,0,0,0],"id":22,"left_children":[1,3,5,7,9,11,13,15,17,-1,19,21,23,25,27,-1,-1,-1,-1,-1,-1,-1,-1,-1,-1,-1,-1,-1,-1],"loss_changes":[6.768553E3,2.6624756E3,5.0755776E3,1.7683062E3,1.421177E3,4.775325E3,3.0962808E3,1.675001E3,1.8201757E3,0E0,5.505736E2,2.5784683E3,2.4468389E3,2.217812E3,1.4493418E3,0E0,0E0,0E0,0E0,0E0,0E0,0E0,0E0,0E0,0E0,0E0,0E0,0E0,0E0],"parents":[2147483647,0,0,1,1,2,2,3,3,4,4,5,5,6,6,7,7,8,8,10,10,11,11,12,12,13,13,14,14],"right_children":[2,4,6,8,10,12,14,16,18,-1,20,22,24,26,28,-1,-1,-1,-1,-1,-1,-1,-1,-1,-1,-1,-1,-1,-1],"split_conditions":[3.310886E-1,7.05214E-1,5.709209E-1,5.076561E-1,3.7746817E-1,3.8669774E-1,6.869403E-1,3.2053003E-1,4.6910638E-1,-1.0076412E-1,6.644376E-1,9.365721E-1,3.575885E-1,5.664456E-1,4.0858373E-1,-3.1327154E-2,-1.2342519E-1,-7.563472E-2,1.259072E-1,1.3441962E-1,-2.5498046E-2,3.4872282E-2,-1.692391E-1,1.15726385E-2,1.7706594E-1,-4.9636696E-2,-2.3719648E-1,-2.6907027E-2,1.4323822E-1],"split_indices":[0,76,101,103,17,7,27,66,21,0,14,32,80,2,44,0,0,0,0,0,0,0,0,0,0,0,0,0,0],"split_type":[0,0,0,0,0,0,0,0,0,0,0,0,0,0,0,0,0,0,0,0,0,0,0,0,0,0,0,0,0],"sum_hessian":[3.87E2,1.23E2,2.64E2,1.08E2,1.5E1,1.88E2,7.6E1,9.3E1,1.5E1,3E0,1.2E1,1.38E2,5E1,5.8E1,1.8E1,3.1E1,6.2E1,8E0,7E0,1E1,2E0,1.33E2,5E0,1.2E1,3.8E1,5.2E1,6E0,8E0,1E1],"tree_param":{"num_deleted":"0","num_feature":"120","num_nodes":"29","size_leaf_vector":"1"}},{"base_weights":[-5.0747335E-1,-6.5862427E0,2.79079E0,-7.7883983E0,1.0609166E1,-9.7991246E-1,8.38759E0,-1.552231E0,-1.1343877E1,2.0768056E0,1.9175075E-1,-3.1405063E0,6.454877E0,1.7062836E1,4.0105815E0,-1.4630161E-1,3.3212047E-2,-1.3204151E-1,-2.0803694E-2,3.4374695E-2,-1.7627379E-2,-1.4451438E-1,-7.527185E-3,1.2576431E-1,-7.34168E-2,1.9740698E-1,1.2300156E-2,-7.857599E-2,6.709792E-2],"categories":[],"categories_nodes":[],"categories_segments":[],"categories_sizes":[],"default_left":[0,0,0,0,0,0,0,0,0,0,0,0,0,0,0,0,0,0,0,0,0,0,0,0,0,0,0,0,0],"id":23,"left_children":[1,3,5,7,9,11,13,15,17,19,-1,21,23,25,27,-1,-1,-1,-1,-1,-1,-1,-1,-1,-1,-1,-1,-1,-1],"loss_changes":[7.780453E3,2.9427896E3,5.3273594E3,2.8098647E3,6.1334436E2,2.4607224E3,3.730399E3,3.1753142E3,1.3479736E3,4.47219E1,0E0,3.1689392E3,3.057478E3,1.3629443E3,2.304349E3,0E0,0E0,0E0,0E0,0E0,0E0,0E0,0E0,0E0,0E0,0E0,0E0,0E0,0E0],"parents":[2147483647,0,0,1,1,2,2,3,3,4,4,5,5,6,6,7,7,8,8,9,9,11,11,12,12,13,13,14,14],"right_children":[2,4,6,8,10,12,14,16,18,20,-1,22,24,26,28,-1,-1,-1,-1,-1,-1,-1,-1,-1,-1,-1,-1,-1,-1],"split_conditions":[3.3559614E-1,7.826565E-1,3.2841125E-1,3.0965912E-1,7.0614576E-1,5.0468946E-1,2.327894E-1,4.9694952E-1,6.1163455E-1,2.0969397E-1,1.9175075E-1,3.3581692E-1,8.070363E-1,7.3114043E-1,4.1282898E-1,-1.4630161E-1,3.3212047E-2,-1.3204151E-1,-2.0803694E-2,3.4374695E-2,-1.7627379E-2,-1.4451438E-1,-7.527185E-3,1.2576431E-1,-7.34168E-2,1.9740698E-1,1.2300156E-2,-7.857599E-2,6.709792E-2],"split_indices":[0,91,7,66,18,39,10,107,87,0,0,32,12,60,11,0,0,0,0,0,0,0,0,0,0,0,0,0,0],"split_type":[0,0,0,0,0,0,0,0,0,0,0,0,0,0,0,0,0,0,0,0,0,0,0,0,0,0,0,0,0],"sum_hessian":[3.85E2,1.35E2,2.5E2,1.27E2,8E0,1.5E2,1E2,4.7E1,8E1,5E0,3E0,1.17E2,3.3E1,3.2E1,6.8E1,1.2E1,3.5E1,6.6E1,1.4E1,4E0,1E0,1.9E1,9.8E1,2.3E1,1E1,2.7E1,5E0,1.2E1,5.6E1],"tree_param":{"num_deleted":"0","num_feature":"120","num_nodes":"29","size_leaf_vector":"1"}},{"base_weights":[-4.847457E-1,-9.111658E0,2.0171533E0,2.8572803E0,-1.2198747E1,-5.714758E-1,8.901297E0,-1.1858596E-1,7.867048E0,-1.9873577E1,-6.5503416E0,-4.405353E0,6.5398965E0,2.0380865E1,4.8522635E0,-5.0501913E-2,1.1653207E-1,-2.7251807E-1,-9.352807E-2,-1.0116643E-1,4.605884E-2,-1.3206346E-1,-2.3507409E-2,3.7953794E-2,2.3937856E-1,2.4577965E-1,-3.445282E-2,7.4780826E-3,1.6663907E-1],"categories":[],"categories_nodes":[],"categories_segments":[],"categories_sizes":[],"default_left":[0,0,0,0,0,0,0,0,0,0,0,0,0,0,0,0,0,0,0,0,0,0,0,0,0,0,0,0,0],"id":24,"left_children":[1,3,5,7,9,11,13,-1,15,17,19,21,23,25,27,-1,-1,-1,-1,-1,-1,-1,-1,-1,-1,-1,-1,-1,-1],"loss_changes":[8.592587E3,3.3685752E3,5.5135825E3,1.5735474E3,2.877872E3,6.1891416E3,3.754084E3,0E0,8.529339E2,1.871002E3,1.8061158E3,2.605063E3,3.6320322E3,2.298166E3,3.0908794E3,0E0,0E0,0E0,0E0,0E0,0E0,0E0,0E0,0E0,0E0,0E0,0E0,0E0,0E0],"parents":[2147483647,0,0,1,1,2,2,3,3,4,4,5,5,6,6,8,8,9,9,10,10,11,11,12,12,13,13,14,14],"right_children":[2,4,6,8,10,12,14,-1,16,18,20,22,24,26,28,-1,-1,-1,-1,-1,-1,-1,-1,-1,-1,-1,-1,-1,-1],"split_conditions":[3.2089552E-1,2.8022838E-1,3.8669774E-1,4.4589454E-1,2.9486778E-1,5.741114E-1,2.826087E-1,-1.1858596E-1,4.7438383E-1,5.0739694E-1,5.690982E-1,3.50036E-1,5.552704E-1,6.2569636E-1,6.857143E-1,-5.0501913E-2,1.1653207E-1,-2.7251807E-1,-9.352807E-2,-1.0116643E-1,4.605884E-2,-1.3206346E-1,-2.3507409E-2,3.7953794E-2,2.3937856E-1,2.4577965E-1,-3.445282E-2,7.4780826E-3,1.6663907E-1],"split_indices":[27,36,7,68,70,60,118,0,18,21,77,32,8,84,59,0,0,0,0,0,0,0,0,0,0,0,0,0,0],"split_type":[0,0,0,0,0,0,0,0,0,0,0,0,0,0,0,0,0,0,0,0,0,0,0,0,0,0,0,0,0],"sum_hessian":[3.95E2,8.8E1,3.07E2,1.8E1,7E1,2.24E2,8.3E1,4E0,1.4E1,2.8E1,4.2E1,1.46E2,7.8E1,2E1,6.3E1,3E0,1.1E1,1.5E1,1.3E1,3.2E1,1E1,2.6E1,1.2E2,6.9E1,9E0,1.7E1,3E0,4.8E1,1.5E1],"tree_param":{"num_deleted":"0","num_feature":"120","num_nodes":"29","size_leaf_vector":"1"}},{"base_weights":[-1.3742723E-1,-6.7847643E0,2.9304748E0,-1.118093E1,-1.9924091E0,5.314409E-1,1.0684866E1,-1.7181578E1,-1.5659485E0,1.3160015E1,-3.7004116E0,7.886546E0,-1.8107041E0,-5.5872173E0,1.2866908E1,1.1069302E-2,-1.8757631E-1,1.0268811E-1,-5.8299374E-2,1.6539502E-1,-1.770868E-2,1.276885E-2,-9.4450995E-2,6.7578927E-3,1.6085558E-1,-1.7668271E-1,-3.2406093E-3,-9.1963924E-2,8.192639E-2,6.522146E-2,2.0157276E-1],"categories":[],"categories_nodes":[],"categories_segments":[],"categories_sizes":[],"default_left":[0,0,0,0,0,0,0,0,0,0,0,0,0,0,0,0,0,0,0,0,0,0,0,0,0,0,0,0,0,0,0],"id":25,"left_children":[1,3,5,7,9,11,13,15,17,19,21,23,25,27,29,-1,-1,-1,-1,-1,-1,-1,-1,-1,-1,-1,-1,-1,-1,-1,-1],"loss_changes":[8.0380786E3,2.576376E3,4.993787E3,3.6622944E3,1.65523E3,3.602041E3,2.3697705E3,1.1873301E3,1.422638E3,3.8668433E2,1.6417639E3,2.952547E3,3.7099844E3,5.3675616E2,2.3895615E3,0E0,0E0,0E0,0E0,0E0,0E0,0E0,0E0,0E0,0E0,0E0,0E0,0E0,0E0,0E0,0E0],"parents":[2147483647,0,0,1,1,2,2,3,3,4,4,5,5,6,6,7,7,8,8,9,9,10,10,11,11,12,12,13,13,14,14],"right_children":[2,4,6,8,10,12,14,16,18,20,22,24,26,28,30,-1,-1,-1,-1,-1,-1,-1,-1,-1,-1,-1,-1,-1,-1,-1,-1],"split_conditions":[3.314095E-1,3.369535E-1,3.953136E-1,5.854208E-1,2.1699773E-1,2.3082222E-1,1.4593522E-1,5.3303566E-2,3.4347638E-1,7.5274664E-1,3.5244697E-1,5.9626865E-1,2.5480863E-1,5.510132E-1,6.0406935E-1,1.1069302E-2,-1.8757631E-1,1.0268811E-1,-5.8299374E-2,1.6539502E-1,-1.770868E-2,1.276885E-2,-9.4450995E-2,6.7578927E-3,1.6085558E-1,-1.7668271E-1,-3.2406093E-3,-9.1963924E-2,8.192639E-2,6.522146E-2,2.0157276E-1],"split_indices":[0,60,7,97,80,70,63,6,81,1,66,27,76,1,90,0,0,0,0,0,0,0,0,0,0,0,0,0,0,0,0],"split_type":[0,0,0,0,0,0,0,0,0,0,0,0,0,0,0,0,0,0,0,0,0,0,0,0,0,0,0,0,0,0,0],"sum_hessian":[3.91E2,1.23E2,2.68E2,6.3E1,6E1,2.06E2,6.2E1,3.8E1,2.5E1,5E0,5.5E1,4.9E1,1.57E2,7E0,5.5E1,3E0,3.5E1,6E0,1.9E1,4E0,1E0,3E1,2.5E1,2.7E1,2.2E1,1.2E1,1.45E2,6E0,1E0,3.1E1,2.4E1],"tree_param":{"num_deleted":"0","num_feature":"120","num_nodes":"31","size_leaf_vector":"1"}},{"base_weights":[1.1372342E-1,-5.2357283E0,3.5010777E0,-7.5376425E0,6.5426116E0,1.2589656E0,1.3537066E1,-1.1819767E1,-2.3290024E0,-1.5777757E1,1.1842524E1,-1.819527E0,6.6181498E0,2.2787537E1,6.275207E0,-1.583289E-1,-3.4385443E-2,-9.035447E-2,4.030795E-2,4.8792295E-2,-2.2216831E-1,-6.0794916E-2,1.5295781E-1,-4.1927613E-2,7.3356636E-2,2.755885E-2,2.3117393E-1,2.719705E-1,-0E0,3.3693933E-3,1.5180622E-1],"categories":[],"categories_nodes":[],"categories_segments":[],"categories_sizes":[],"default_left":[0,0,0,0,0,0,0,0,0,0,0,0,0,0,0,0,0,0,0,0,0,0,0,0,0,0,0,0,0,0,0],"id":26,"left_children":[1,3,5,7,9,11,13,15,17,19,21,23,25,27,29,-1,-1,-1,-1,-1,-1,-1,-1,-1,-1,-1,-1,-1,-1,-1,-1],"loss_changes":[7.0836914E3,4.182547E3,5.3488237E3,2.7883252E3,3.2928853E3,3.2812578E3,2.678581E3,2.2366904E3,2.5974067E3,9.115043E2,1.4793228E3,2.7915098E3,4.498586E3,1.8585059E3,1.3782026E3,0E0,0E0,0E0,0E0,0E0,0E0,0E0,0E0,0E0,0E0,0E0,0E0,0E0,0E0,0E0,0E0],"parents":[2147483647,0,0,1,1,2,2,3,3,4,4,5,5,6,6,7,7,8,8,9,9,10,10,11,11,12,12,13,13,14,14],"right_children":[2,4,6,8,10,12,14,16,18,20,22,24,26,28,30,-1,-1,-1,-1,-1,-1,-1,-1,-1,-1,-1,-1,-1,-1,-1,-1],"split_conditions":[3.529713E-1,6.895185E-1,4.0811077E-1,4.746354E-1,1.6641791E-1,5.637297E-1,5.224838E-1,5.810087E-1,4.4151336E-1,4.038131E-1,1.3330264E-1,5.1623714E-1,5.4837394E-1,6.0014015E-1,2.8439003E-1,-1.583289E-1,-3.4385443E-2,-9.035447E-2,4.030795E-2,4.8792295E-2,-2.2216831E-1,-6.0794916E-2,1.5295781E-1,-4.1927613E-2,7.3356636E-2,2.755885E-2,2.3117393E-1,2.719705E-1,-0E0,3.3693933E-3,1.5180622E-1],"split_indices":[0,76,7,21,27,60,7,97,42,1,23,39,8,60,4,0,0,0,0,0,0,0,0,0,0,0,0,0,0,0,0],"split_type":[0,0,0,0,0,0,0,0,0,0,0,0,0,0,0,0,0,0,0,0,0,0,0,0,0,0,0,0,0,0,0],"sum_hessian":[3.88E2,1.5E2,2.38E2,1.26E2,2.4E1,1.96E2,4.2E1,6.8E1,5.8E1,4E0,2E1,1.25E2,7.1E1,1.7E1,2.5E1,4.5E1,2.3E1,2.8E1,3E1,1E0,3E0,3E0,1.7E1,1E2,2.5E1,5.9E1,1.2E1,1.4E1,3E0,1.6E1,9E0],"tree_param":{"num_deleted":"0","num_feature":"120","num_nodes":"31","size_leaf_vector":"1"}},{"base_weights":[2.591428E-2,-6.0591416E0,3.1135294E0,-6.8532023E0,2.540529E-1,4.300556E-1,1.1117643E1,-1.8763986E0,-1.1435867E1,7.1987705E0,-1.9167842E0,1.4625005E1,3.8715822E-1,-7.426243E-2,6.7915805E-2,2.8506309E-2,-1.3479763E-1,2.6994972E-2,1.6163984E-1,-5.253888E-2,4.899296E-2,1.8114826E-1,3.4904886E-2,6.08928E-2,-5.2708305E-2],"categories":[],"categories_nodes":[],"categories_segments":[],"categories_sizes":[],"default_left":[0,0,0,0,0,0,0,0,0,0,0,0,0,0,0,0,0,0,0,0,0,0,0,0,0],"id":27,"left_children":[1,3,5,7,-1,9,11,13,15,17,19,21,23,-1,-1,-1,-1,-1,-1,-1,-1,-1,-1,-1,-1],"loss_changes":[7.287034E3,3.503109E3,5.512079E3,2.8852026E3,0E0,3.1156294E3,2.403996E3,3.1310156E3,2.0100752E3,1.9527002E3,3.3485037E3,1.7681377E3,6.135563E2,0E0,0E0,0E0,0E0,0E0,0E0,0E0,0E0,0E0,0E0,0E0,0E0],"parents":[2147483647,0,0,1,1,2,2,3,3,5,5,6,6,7,7,8,8,9,9,10,10,11,11,12,12],"right_children":[2,4,6,8,-1,10,12,14,16,18,20,22,24,-1,-1,-1,-1,-1,-1,-1,-1,-1,-1,-1,-1],"split_conditions":[3.3559614E-1,8.8552886E-1,5.8628106E-1,3.5244697E-1,2.540529E-1,2.327894E-1,6.2391543E-1,3.768947E-1,2.197667E-1,5.36435E-1,5.907459E-1,6.758307E-1,6.1859894E-1,-7.426243E-2,6.7915805E-2,2.8506309E-2,-1.3479763E-1,2.6994972E-2,1.6163984E-1,-5.253888E-2,4.899296E-2,1.8114826E-1,3.4904886E-2,6.08928E-2,-5.2708305E-2],"split_indices":[0,97,42,66,0,10,96,87,64,50,79,75,87,0,0,0,0,0,0,0,0,0,0,0,0],"split_type":[0,0,0,0,0,0,0,0,0,0,0,0,0,0,0,0,0,0,0,0,0,0,0,0,0],"sum_hessian":[3.85E2,1.29E2,2.56E2,1.27E2,2E0,1.93E2,6.3E1,6.2E1,6.5E1,4.9E1,1.44E2,4.7E1,1.6E1,3.8E1,2.4E1,8E0,5.7E1,3.4E1,1.5E1,9.7E1,4.7E1,3.5E1,1.2E1,8E0,8E0],"tree_param":{"num_deleted":"0","num_feature":"120","num_nodes":"25","size_leaf_vector":"1"}},{"base_weights":[5.261984E-1,-5.309541E0,3.3493044E0,-6.509134E0,1.2233522E1,6.3368976E-1,1.0892836E1,-8.487227E0,1.5590963E0,3.3191473E0,1.8828805E-1,5.09642E0,-3.032408E0,3.4134808E0,1.9483816E1,-1.2859936E-1,-4.3573428E-2,-9.310566E-2,7.736257E-2,5.0380006E-2,1.0356241E-2,1.22950755E-1,1.1955028E-2,-6.0735486E-2,8.6816445E-2,-2.4190495E-2,1.3386536E-1,2.1563265E-1,-0E0],"categories":[],"categories_nodes":[],"categories_segments":[],"categories_sizes":[],"default_left":[0,0,0,0,0,0,0,0,0,0,0,0,0,0,0,0,0,0,0,0,0,0,0,0,0,0,0,0,0],"id":28,"left_children":[1,3,5,7,9,11,13,15,17,19,-1,21,23,25,27,-1,-1,-1,-1,-1,-1,-1,-1,-1,-1,-1,-1,-1,-1],"loss_changes":[6.3428433E3,2.7548083E3,5.2940615E3,1.9180029E3,3.838479E2,3.1747004E3,4.2788086E3,1.6233438E3,1.7514885E3,7.687889E0,0E0,2.4215796E3,3.870449E3,2.2990151E3,1.2937676E3,0E0,0E0,0E0,0E0,0E0,0E0,0E0,0E0,0E0,0E0,0E0,0E0,0E0,0E0],"parents":[2147483647,0,0,1,1,2,2,3,3,4,4,5,5,6,6,7,7,8,8,9,9,11,11,12,12,13,13,14,14],"right_children":[2,4,6,8,10,12,14,16,18,20,-1,22,24,26,28,-1,-1,-1,-1,-1,-1,-1,-1,-1,-1,-1,-1,-1,-1],"split_conditions":[3.310886E-1,7.802026E-1,3.8669774E-1,5.834096E-1,7.0614576E-1,4.927362E-1,5.3874683E-1,3.719787E-1,4.1764757E-1,4.2929435E-1,1.8828805E-1,2.3082222E-1,6.248262E-1,4.9664155E-1,9.156054E-1,-1.2859936E-1,-4.3573428E-2,-9.310566E-2,7.736257E-2,5.0380006E-2,1.0356241E-2,1.22950755E-1,1.1955028E-2,-6.0735486E-2,8.6816445E-2,-2.4190495E-2,1.3386536E-1,2.1563265E-1,-0E0],"split_indices":[0,91,7,21,18,71,116,87,14,9,0,70,84,113,84,0,0,0,0,0,0,0,0,0,0,0,0,0,0],"split_type":[0,0,0,0,0,0,0,0,0,0,0,0,0,0,0,0,0,0,0,0,0,0,0,0,0,0,0,0,0],"sum_hessian":[3.82E2,1.24E2,2.58E2,1.17E2,7E0,1.91E2,6.7E1,9.4E1,2.3E1,4E0,3E0,8.6E1,1.05E2,3.7E1,3E1,4.4E1,5E1,8E0,1.5E1,1E0,3E0,2.9E1,5.7E1,8.4E1,2.1E1,2.4E1,1.3E1,2.7E1,3E0],"tree_param":{"num_deleted":"0","num_feature":"120","num_nodes":"29","size_leaf_vector":"1"}},{"base_weights":[1.3722057E-2,-5.9409633E0,2.7597492E0,-7.7363625E0,9.739722E0,1.9612232E-1,9.683118E0,-9.493902E0,-0E0,-5.0484443E0,1.3057027E1,3.8461637E0,-3.9485722E0,3.1008973E0,1.877768E1,-4.5194466E-2,-1.3846414E-1,-7.456908E-2,6.86906E-2,-7.680273E-2,2.1245116E-3,1.9993896E-2,1.4963993E-1,1.3598738E-2,1.1722084E-1,-1.15333885E-1,7.870355E-3,7.13424E-2,-8.00057E-2,2.0807068E-1,-5.5092033E-2],"categories":[],"categories_nodes":[],"categories_segments":[],"categories_sizes":[],"default_left":[0,0,0,0,0,0,0,0,0,0,0,0,0,0,0,0,0,0,0,0,0,0,0,0,0,0,0,0,0,0,0],"id":29,"left_children":[1,3,5,7,9,11,13,15,17,19,21,23,25,27,29,-1,-1,-1,-1,-1,-1,-1,-1,-1,-1,-1,-1,-1,-1,-1,-1],"loss_changes":[6.5048716E3,3.6442344E3,4.8238564E3,1.5442886E3,7.6915234E2,3.0559033E3,4.290667E3,1.8905195E3,1.2292628E3,5.8375572E1,1.8065393E2,2.0680527E3,3.4186812E3,2.077284E3,1.6905127E3,0E0,0E0,0E0,0E0,0E0,0E0,0E0,0E0,0E0,0E0,0E0,0E0,0E0,0E0,0E0,0E0],"parents":[2147483647,0,0,1,1,2,2,3,3,4,4,5,5,6,6,7,7,8,8,9,9,10,10,11,11,12,12,13,13,14,14],"right_children":[2,4,6,8,10,12,14,16,18,20,22,24,26,28,30,-1,-1,-1,-1,-1,-1,-1,-1,-1,-1,-1,-1,-1,-1,-1,-1],"split_conditions":[3.310886E-1,7.05214E-1,3.8669774E-1,5.834096E-1,1.23606704E-1,5.2779675E-1,5.3874683E-1,3.8867372E-1,3.2196116E-1,2.0057921E-1,3.9491194E-1,4.813515E-1,4.9352813E-1,5.4704005E-1,7.828759E-1,-4.5194466E-2,-1.3846414E-1,-7.456908E-2,6.86906E-2,-7.680273E-2,2.1245116E-3,1.9993896E-2,1.4963993E-1,1.3598738E-2,1.1722084E-1,-1.15333885E-1,7.870355E-3,7.13424E-2,-8.00057E-2,2.0807068E-1,-5.5092033E-2],"split_indices":[0,76,7,21,100,71,116,3,85,0,21,63,19,61,87,0,0,0,0,0,0,0,0,0,0,0,0,0,0,0,0],"split_type":[0,0,0,0,0,0,0,0,0,0,0,0,0,0,0,0,0,0,0,0,0,0,0,0,0,0,0,0,0,0,0],"sum_hessian":[3.95E2,1.24E2,2.71E2,1.12E2,1.2E1,1.99E2,7.2E1,9.1E1,2.1E1,2E0,1E1,1.06E2,9.3E1,4.3E1,2.9E1,4.4E1,4.7E1,1E1,1.1E1,1E0,1E0,2E0,8E0,8.2E1,2.4E1,3.5E1,5.8E1,3.2E1,1.1E1,2.7E1,2E0],"tree_param":{"num_deleted":"0","num_feature":"120","num_nodes":"31","size_leaf_vector":"1"}},{"base_weights":[1.3098468E-1,-5.628342E0,3.1519122E0,-6.511668E0,2.2230888E1,6.0878867E-1,1.0693834E1,-1.3877876E0,-1.0780289E1,2.5074196E-1,4.5117248E-2,-2.5069785E0,6.771348E0,5.60729E0,1.7824564E1,-1.4120908E-1,1.4219756E-2,-1.4583138E-1,-2.3961486E-2,-1.1273554E-1,-7.0539553E-4,2.6245784E-2,1.9038112E-1,8.468465E-2,-4.9610402E-2,4.399378E-2,2.4294712E-1],"categories":[],"categories_nodes":[],"categories_segments":[],"categories_sizes":[],"default_left":[0,0,0,0,0,0,0,0,0,0,0,0,0,0,0,0,0,0,0,0,0,0,0,0,0,0,0],"id":30,"left_children":[1,3,5,7,9,11,13,15,17,-1,-1,19,21,23,25,-1,-1,-1,-1,-1,-1,-1,-1,-1,-1,-1,-1],"loss_changes":[6.9052437E3,3.56052E3,4.975332E3,2.88529E3,2.7436768E1,3.8027437E3,2.2023818E3,2.2788843E3,2.242168E3,0E0,0E0,2.7962012E3,3.2860713E3,1.2911587E3,2.1128525E3,0E0,0E0,0E0,0E0,0E0,0E0,0E0,0E0,0E0,0E0,0E0,0E0],"parents":[2147483647,0,0,1,1,2,2,3,3,4,4,5,5,6,6,7,7,8,8,11,11,12,12,13,13,14,14],"right_children":[2,4,6,8,10,12,14,16,18,-1,-1,20,22,24,26,-1,-1,-1,-1,-1,-1,-1,-1,-1,-1,-1,-1],"split_conditions":[3.3559614E-1,8.8552886E-1,5.8628106E-1,3.5244697E-1,3.314095E-1,5.741114E-1,4.6534684E-1,3.5402173E-1,5.2595174E-1,2.5074196E-1,4.5117248E-2,2.954478E-1,5.435481E-1,7.06554E-1,2.7958685E-1,-1.4120908E-1,1.4219756E-2,-1.4583138E-1,-2.3961486E-2,-1.1273554E-1,-7.0539553E-4,2.6245784E-2,1.9038112E-1,8.468465E-2,-4.9610402E-2,4.399378E-2,2.4294712E-1],"split_indices":[0,97,42,66,0,60,2,26,96,0,0,13,8,75,85,0,0,0,0,0,0,0,0,0,0,0,0],"split_type":[0,0,0,0,0,0,0,0,0,0,0,0,0,0,0,0,0,0,0,0,0,0,0,0,0,0,0],"sum_hessian":[3.94E2,1.35E2,2.59E2,1.32E2,3E0,1.95E2,6.4E1,6.1E1,7.1E1,2E0,1E0,1.3E2,6.5E1,3.9E1,2.5E1,1E1,5.1E1,4.8E1,2.3E1,2.7E1,1.03E2,5E1,1.5E1,3.1E1,8E0,9E0,1.6E1],"tree_param":{"num_deleted":"0","num_feature":"120","num_nodes":"27","size_leaf_vector":"1"}},{"base_weights":[9.123588E-2,-4.429559E0,3.0309818E0,4.4285294E-1,-9.480621E0,-1.5230634E0,7.903665E0,-3.4767566E0,1.0381257E1,-1.0309175E1,1.2169874E1,7.113906E0,-4.3290734E0,1.1155787E1,-3.3117776E0,-8.121167E-2,1.9674007E-2,1.21825166E-1,-1.1658838E-1,1.04000986E-1,-1.10985436E-1,1.46851195E-2,1.516931E-1,1.1636414E-1,-7.0593044E-2,-1.07992E-1,1.3355248E-3,-7.515397E-2,1.2376932E-1,-1.2013882E-1,3.5211902E-2],"categories":[],"categories_nodes":[],"categories_segments":[],"categories_sizes":[],"default_left":[0,0,0,0,0,0,0,0,0,0,0,0,0,0,0,0,0,0,0,0,0,0,0,0,0,0,0,0,0,0,0],"id":31,"left_children":[1,3,5,7,9,11,13,15,17,19,21,23,25,27,29,-1,-1,-1,-1,-1,-1,-1,-1,-1,-1,-1,-1,-1,-1,-1,-1],"loss_changes":[5.3148013E3,3.8915457E3,5.4056143E3,3.235849E3,1.5765718E3,3.109191E3,4.3489556E3,1.5345718E3,1.1465234E3,1.4080576E3,6.2290894E1,2.146896E3,2.799146E3,2.2306084E3,1.7071304E3,0E0,0E0,0E0,0E0,0E0,0E0,0E0,0E0,0E0,0E0,0E0,0E0,0E0,0E0,0E0,0E0],"parents":[2147483647,0,0,1,1,2,2,3,3,4,4,5,5,6,6,7,7,8,8,9,9,10,10,11,11,12,12,13,13,14,14],"right_children":[2,4,6,8,10,12,14,16,18,20,22,24,26,28,30,-1,-1,-1,-1,-1,-1,-1,-1,-1,-1,-1,-1,-1,-1,-1,-1],"split_conditions":[3.529713E-1,3.646113E-1,5.136686E-1,3.6542186E-1,6.6548115E-1,2.3225133E-1,6.42334E-1,4.6861112E-1,7.81708E-1,2.3343784E-1,3.1848317E-1,5.175341E-1,3.805069E-1,1.3130598E-1,4.6457106E-1,-8.121167E-2,1.9674007E-2,1.21825166E-1,-1.1658838E-1,1.04000986E-1,-1.10985436E-1,1.46851195E-2,1.516931E-1,1.1636414E-1,-7.0593044E-2,-1.07992E-1,1.3355248E-3,-7.515397E-2,1.2376932E-1,-1.2013882E-1,3.5211902E-2],"split_indices":[0,66,30,67,103,70,33,46,74,30,0,86,106,107,99,0,0,0,0,0,0,0,0,0,0,0,0,0,0,0,0],"split_type":[0,0,0,0,0,0,0,0,0,0,0,0,0,0,0,0,0,0,0,0,0,0,0,0,0,0,0,0,0,0,0],"sum_hessian":[3.97E2,1.56E2,2.41E2,8E1,7.6E1,1.25E2,1.16E2,5.8E1,2.2E1,7.4E1,2E0,3E1,9.5E1,9E1,2.6E1,3.1E1,2.7E1,2.1E1,1E0,2E0,7.2E1,1E0,1E0,2.3E1,7E0,3.8E1,5.7E1,5E0,8.5E1,1.1E1,1.5E1],"tree_param":{"num_deleted":"0","num_feature":"120","num_nodes":"31","size_leaf_vector":"1"}},{"base_weights":[-1.3323216E-1,-4.9541874E0,2.8112776E0,-8.551548E0,-7.269701E-1,-2.1415772E-2,1.1443471E1,7.266666E0,-1.04611435E1,4.4585495E0,-6.0560126E0,1.2390479E1,-1.4721609E0,1.5874623E1,2.2515237E0,-2.4653116E-2,1.2481111E-1,-1.4632326E-1,-3.216213E-2,-3.723488E-2,9.842271E-2,-1.2364252E-1,3.2156754E-2,-1.23819835E-1,1.6340072E-1,2.8479619E-2,-5.6770965E-2,1.7744543E-1,-4.777357E-2,8.040469E-2,-2.8013732E-2],"categories":[],"categories_nodes":[],"categories_segments":[],"categories_sizes":[],"default_left":[0,0,0,0,0,0,0,0,0,0,0,0,0,0,0,0,0,0,0,0,0,0,0,0,0,0,0,0,0,0,0],"id":32,"left_children":[1,3,5,7,9,11,13,15,17,19,21,23,25,27,29,-1,-1,-1,-1,-1,-1,-1,-1,-1,-1,-1,-1,-1,-1,-1,-1],"loss_changes":[5.5947085E3,2.2548171E3,5.990391E3,2.5488354E3,1.9902859E3,3.356648E3,2.392481E3,5.3826587E2,2.1025054E3,1.6689087E3,2.1451128E3,2.2153447E3,3.0698596E3,1.7041357E3,6.6792096E2,0E0,0E0,0E0,0E0,0E0,0E0,0E0,0E0,0E0,0E0,0E0,0E0,0E0,0E0,0E0,0E0],"parents":[2147483647,0,0,1,1,2,2,3,3,4,4,5,5,6,6,7,7,8,8,9,9,10,10,11,11,12,12,13,13,14,14],"right_children":[2,4,6,8,10,12,14,16,18,20,22,24,26,28,30,-1,-1,-1,-1,-1,-1,-1,-1,-1,-1,-1,-1,-1,-1,-1,-1],"split_conditions":[3.529713E-1,3.5615635E-1,5.8628106E-1,1.5842228E-1,5.040369E-1,1.9802134E-1,5.912735E-1,4.5218965E-1,5.854208E-1,4.2808345E-1,4.4389585E-1,3.2610866E-1,5.198136E-1,9.1754997E-1,5.366653E-1,-2.4653116E-2,1.2481111E-1,-1.4632326E-1,-3.216213E-2,-3.723488E-2,9.842271E-2,-1.2364252E-1,3.2156754E-2,-1.23819835E-1,1.6340072E-1,2.8479619E-2,-5.6770965E-2,1.7744543E-1,-4.777357E-2,8.040469E-2,-2.8013732E-2],"split_indices":[0,60,42,6,111,83,47,16,97,21,10,8,71,90,87,0,0,0,0,0,0,0,0,0,0,0,0,0,0,0,0],"split_type":[0,0,0,0,0,0,0,0,0,0,0,0,0,0,0,0,0,0,0,0,0,0,0,0,0,0,0,0,0,0,0],"sum_hessian":[3.91E2,1.48E2,2.43E2,7.9E1,6.9E1,1.84E2,5.9E1,8E0,7.1E1,3.5E1,3.4E1,1.8E1,1.66E2,3.9E1,2E1,3E0,5E0,4.4E1,2.7E1,1.4E1,2.1E1,2E1,1.4E1,2E0,1.6E1,8.2E1,8.4E1,3.6E1,3E0,9E0,1.1E1],"tree_param":{"num_deleted":"0","num_feature":"120","num_nodes":"31","size_leaf_vector":"1"}},{"base_weights":[3.6836542E-2,-5.404995E0,2.85234E0,7.309428E0,-7.658668E0,-6.475482E-1,7.6565714E0,-0E0,2.2905602E-1,-1.2402068E1,-1.8642461E0,-1.3377751E0,2.1663417E-1,1.5541123E1,3.8377535E0,6.0314637E-2,-7.512272E-2,-1.4686918E-1,6.9866944E-3,4.11938E-2,-9.553787E-2,-3.073006E-2,7.379467E-2,1.9089979E-1,-9.194214E-3,-9.528047E-3,1.2113588E-1],"categories":[],"categories_nodes":[],"categories_segments":[],"categories_sizes":[],"default_left":[0,0,0,0,0,0,0,0,0,0,0,0,0,0,0,0,0,0,0,0,0,0,0,0,0,0,0],"id":33,"left_children":[1,3,5,7,9,11,13,15,-1,17,19,21,-1,23,25,-1,-1,-1,-1,-1,-1,-1,-1,-1,-1,-1,-1],"loss_changes":[5.9116875E3,3.85234E3,4.2936787E3,2.3150645E3,3.0431455E3,2.3099907E3,3.1279463E3,7.68853E2,0E0,1.8702725E3,2.4800632E3,2.230604E3,0E0,2.0598535E3,2.9820908E3,0E0,0E0,0E0,0E0,0E0,0E0,0E0,0E0,0E0,0E0,0E0,0E0],"parents":[2147483647,0,0,1,1,2,2,3,3,4,4,5,5,6,6,7,7,9,9,10,10,11,11,13,13,14,14],"right_children":[2,4,6,8,10,12,14,16,-1,18,20,22,-1,24,26,-1,-1,-1,-1,-1,-1,-1,-1,-1,-1,-1,-1],"split_conditions":[3.3559614E-1,2.7913615E-1,3.2841125E-1,5.3789884E-1,4.746354E-1,9.3854976E-1,2.327894E-1,4.0903145E-1,2.2905602E-1,4.7320017E-1,4.199091E-1,7.102839E-1,2.1663417E-1,7.3114043E-1,4.8925292E-1,6.0314637E-2,-7.512272E-2,-1.4686918E-1,6.9866944E-3,4.11938E-2,-9.553787E-2,-3.073006E-2,7.379467E-2,1.9089979E-1,-9.194214E-3,-9.528047E-3,1.2113588E-1],"split_indices":[0,36,7,78,21,87,10,79,0,100,40,69,0,60,113,0,0,0,0,0,0,0,0,0,0,0,0],"split_type":[0,0,0,0,0,0,0,0,0,0,0,0,0,0,0,0,0,0,0,0,0,0,0,0,0,0,0],"sum_hessian":[3.83E2,1.3E2,2.53E2,1.9E1,1.11E2,1.47E2,1.06E2,1.4E1,5E0,6E1,5.1E1,1.44E2,3E0,3.3E1,7.3E1,8E0,6E0,5.1E1,9E0,2.9E1,2.2E1,1.21E2,2.3E1,2.7E1,6E0,4.7E1,2.6E1],"tree_param":{"num_deleted":"0","num_feature":"120","num_nodes":"27","size_leaf_vector":"1"}},{"base_weights":[-1.3608234E-1,-7.3908176E0,2.0810218E0,-3.4295003E0,-1.5239455E1,-2.9731357E-1,8.583056E0,9.613543E0,-6.9029717E0,5.0888977E0,-1.7866564E1,-3.9992306E0,6.49439E0,2.2112616E1,3.9929576E0,-1.21071115E-1,1.5057193E-1,-1.2064125E-1,3.511491E-2,-1.7537598E-2,8.081268E-2,-2.0671065E-1,-4.3132346E-2,-1.4748003E-1,-1.9168355E-2,3.787602E-2,2.2872159E-1,2.5531164E-1,6.265994E-2,-2.7012723E-2,1.2209739E-1],"categories":[],"categories_nodes":[],"categories_segments":[],"categories_sizes":[],"default_left":[0,0,0,0,0,0,0,0,0,0,0,0,0,0,0,0,0,0,0,0,0,0,0,0,0,0,0,0,0,0,0],"id":34,"left_children":[1,3,5,7,9,11,13,15,17,19,21,23,25,27,29,-1,-1,-1,-1,-1,-1,-1,-1,-1,-1,-1,-1,-1,-1,-1,-1],"loss_changes":[6.1485337E3,2.6855747E3,4.535339E3,2.8830674E3,1.724602E3,5.4546343E3,4.7164614E3,1.872634E3,2.7327542E3,1.1972736E2,8.485508E2,3.085769E3,3.2347273E3,7.8459766E2,3.3867854E3,0E0,0E0,0E0,0E0,0E0,0E0,0E0,0E0,0E0,0E0,0E0,0E0,0E0,0E0,0E0,0E0],"parents":[2147483647,0,0,1,1,2,2,3,3,4,4,5,5,6,6,7,7,8,8,9,9,10,10,11,11,12,12,13,13,14,14],"right_children":[2,4,6,8,10,12,14,16,18,20,22,24,26,28,30,-1,-1,-1,-1,-1,-1,-1,-1,-1,-1,-1,-1,-1,-1,-1,-1],"split_conditions":[3.25E-1,5.7502186E-1,3.8669774E-1,2.797452E-1,2.511553E-1,5.741114E-1,2.826087E-1,1.6641791E-1,5.6914973E-1,1.1308872E-2,7.5E-1,3.50036E-1,5.544231E-1,6.50609E-1,5.8630407E-1,-1.21071115E-1,1.5057193E-1,-1.2064125E-1,3.511491E-2,-1.7537598E-2,8.081268E-2,-2.0671065E-1,-4.3132346E-2,-1.4748003E-1,-1.9168355E-2,3.787602E-2,2.2872159E-1,2.5531164E-1,6.265994E-2,-2.7012723E-2,1.2209739E-1],"split_indices":[27,81,7,83,79,60,118,27,21,0,28,32,8,26,69,0,0,0,0,0,0,0,0,0,0,0,0,0,0,0,0],"split_type":[0,0,0,0,0,0,0,0,0,0,0,0,0,0,0,0,0,0,0,0,0,0,0,0,0,0,0,0,0,0,0],"sum_hessian":[3.79E2,8.8E1,2.91E2,6E1,2.8E1,2.14E2,7.7E1,1.2E1,4.8E1,3E0,2.5E1,1.39E2,7.5E1,1.8E1,5.9E1,2E0,1E1,3.2E1,1.6E1,1E0,2E0,2E1,5E0,2.1E1,1.18E2,6.6E1,9E0,1.4E1,4E0,3.3E1,2.6E1],"tree_param":{"num_deleted":"0","num_feature":"120","num_nodes":"31","size_leaf_vector":"1"}},{"base_weights":[-1.6182302E-1,-5.5272818E0,2.6477027E0,-6.4044433E0,2.1920464E1,1.8220909E-1,9.893E0,-1.4993913E0,-1.067202E1,2.4730298E-1,4.4344176E-2,-2.1118486E0,7.573355E0,4.773113E0,1.7604206E1,-2.3082751E-1,5.1670233E-3,-1.4354339E-1,-2.838623E-2,1.476775E-1,-3.2297876E-2,1.5493265E-1,1.2199667E-2,1.2689818E-1,1.4254483E-4,6.047892E-2,2.3297237E-1],"categories":[],"categories_nodes":[],"categories_segments":[],"categories_sizes":[],"default_left":[0,0,0,0,0,0,0,0,0,0,0,0,0,0,0,0,0,0,0,0,0,0,0,0,0,0,0],"id":35,"left_children":[1,3,5,7,9,11,13,15,17,-1,-1,19,21,23,25,-1,-1,-1,-1,-1,-1,-1,-1,-1,-1,-1,-1],"loss_changes":[5.9415303E3,3.4573804E3,4.6048667E3,2.7374072E3,2.7436768E1,3.3273389E3,2.4375557E3,2.8036006E3,1.9552646E3,0E0,0E0,2.881127E3,2.2947341E3,1.5505155E3,1.4369629E3,0E0,0E0,0E0,0E0,0E0,0E0,0E0,0E0,0E0,0E0,0E0,0E0],"parents":[2147483647,0,0,1,1,2,2,3,3,4,4,5,5,6,6,7,7,8,8,11,11,12,12,13,13,14,14],"right_children":[2,4,6,8,10,12,14,16,18,-1,-1,20,22,24,26,-1,-1,-1,-1,-1,-1,-1,-1,-1,-1,-1,-1],"split_conditions":[3.3559614E-1,8.8552886E-1,5.8628106E-1,3.5244697E-1,3.314095E-1,6.919295E-1,4.6534684E-1,1.5500148E-1,5.2595174E-1,2.4730298E-1,4.4344176E-2,1.8761921E-1,4.4600272E-1,3.979389E-1,2.7958685E-1,-2.3082751E-1,5.1670233E-3,-1.4354339E-1,-2.838623E-2,1.476775E-1,-3.2297876E-2,1.5493265E-1,1.2199667E-2,1.2689818E-1,1.4254483E-4,6.047892E-2,2.3297237E-1],"split_indices":[0,97,42,66,0,87,2,25,96,0,0,83,81,11,85,0,0,0,0,0,0,0,0,0,0,0,0],"split_type":[0,0,0,0,0,0,0,0,0,0,0,0,0,0,0,0,0,0,0,0,0,0,0,0,0,0,0],"sum_hessian":[3.91E2,1.34E2,2.57E2,1.31E2,3E0,1.93E2,6.4E1,6.2E1,6.9E1,2E0,1E0,1.48E2,4.5E1,4E1,2.4E1,4E0,5.8E1,4.6E1,2.3E1,8E0,1.4E2,1.9E1,2.6E1,1.4E1,2.6E1,9E0,1.5E1],"tree_param":{"num_deleted":"0","num_feature":"120","num_nodes":"27","size_leaf_vector":"1"}},{"base_weights":[6.159338E-1,-5.350992E0,3.3487358E0,-2.6126244E0,-1.09805E1,-5.957691E-1,6.981641E0,1.1631383E0,-9.0526285E0,-0E0,-1.4708482E1,8.647747E0,-3.2833562E0,-2.0589332E-1,8.03085E0,1.058471E-1,-2.4610361E-2,-1.3027424E-1,6.627851E-3,7.9157345E-2,-1.0763192E-1,-1.8577208E-1,-1.754477E-2,1.3030069E-1,-6.679744E-2,6.0681305E-3,-1.123684E-1,1.0386001E-1,-6.726919E-2],"categories":[],"categories_nodes":[],"categories_segments":[],"categories_sizes":[],"default_left":[0,0,0,0,0,0,0,0,0,0,0,0,0,0,0,0,0,0,0,0,0,0,0,0,0,0,0,0,0],"id":36,"left_children":[1,3,5,7,9,11,13,15,17,19,21,23,25,-1,27,-1,-1,-1,-1,-1,-1,-1,-1,-1,-1,-1,-1,-1,-1],"loss_changes":[6.3599224E3,1.831794E3,3.8459036E3,2.0783796E3,1.6194438E3,3.2543628E3,4.2708843E3,1.9081232E3,1.2417449E3,1.1070961E3,1.409185E3,2.1184219E3,3.1613086E3,0E0,4.818001E3,0E0,0E0,0E0,0E0,0E0,0E0,0E0,0E0,0E0,0E0,0E0,0E0,0E0,0E0],"parents":[2147483647,0,0,1,1,2,2,3,3,4,4,5,5,6,6,7,7,8,8,9,9,10,10,11,11,12,12,14,14],"right_children":[2,4,6,8,10,12,14,16,18,20,22,24,26,-1,28,-1,-1,-1,-1,-1,-1,-1,-1,-1,-1,-1,-1,-1,-1],"split_conditions":[3.310886E-1,5.466616E-1,5.010456E-1,6.140245E-1,1.7539397E-1,2.3082222E-1,2.4738806E-1,4.1480157E-1,5.532121E-1,3.3306476E-1,6.018025E-1,5.175341E-1,4.690383E-1,-2.0589332E-1,7.0387405E-1,1.058471E-1,-2.4610361E-2,-1.3027424E-1,6.627851E-3,7.9157345E-2,-1.0763192E-1,-1.8577208E-1,-1.754477E-2,1.3030069E-1,-6.679744E-2,6.0681305E-3,-1.123684E-1,1.0386001E-1,-6.726919E-2],"split_indices":[0,81,30,94,83,70,27,69,78,66,87,86,75,0,33,0,0,0,0,0,0,0,0,0,0,0,0,0,0],"split_type":[0,0,0,0,0,0,0,0,0,0,0,0,0,0,0,0,0,0,0,0,0,0,0,0,0,0,0,0,0],"sum_hessian":[3.87E2,1.21E2,2.66E2,8.3E1,3.8E1,1.28E2,1.38E2,5.3E1,3E1,1E1,2.8E1,2.8E1,1E2,4E0,1.34E2,1.4E1,3.9E1,2.1E1,9E0,6E0,4E0,2.1E1,7E0,2.2E1,6E0,6.8E1,3.2E1,1.16E2,1.8E1],"tree_param":{"num_deleted":"0","num_feature":"120","num_nodes":"29","size_leaf_vector":"1"}},{"base_weights":[-1.4985563E-1,-4.6697316E0,2.5326576E0,-6.6307526E0,9.063984E0,-4.348761E0,4.9514384E0,-1.0735105E1,-1.870589E0,-1.9798441E-1,1.4422924E1,-2.3536816E1,-2.088154E0,1.2743558E0,9.050981E0,-1.5176778E-1,-3.4103002E-2,-6.740323E-2,3.916848E-2,1.7837791E-1,-5.6199253E-2,-2.5614637E-1,-4.443518E-2,-4.383547E-2,1.2070077E-1,1.2506574E-1,-1.1787543E-2,2.7470377E-1,7.36164E-2],"categories":[],"categories_nodes":[],"categories_segments":[],"categories_sizes":[],"default_left":[0,0,0,0,0,0,0,0,0,0,0,0,0,0,0,0,0,0,0,0,0,0,0,0,0,0,0,0,0],"id":37,"left_children":[1,3,5,7,9,11,13,15,17,-1,19,21,23,25,27,-1,-1,-1,-1,-1,-1,-1,-1,-1,-1,-1,-1,-1,-1],"loss_changes":[4.669672E3,3.9524746E3,4.0525825E3,2.428753E3,3.2843833E3,2.6550696E3,2.6782197E3,2.0998472E3,1.747513E3,0E0,1.2919094E3,5.708423E1,1.9728524E3,2.6923892E3,2.291183E3,0E0,0E0,0E0,0E0,0E0,0E0,0E0,0E0,0E0,0E0,0E0,0E0,0E0,0E0],"parents":[2147483647,0,0,1,1,2,2,3,3,4,4,5,5,6,6,7,7,8,8,10,10,11,11,12,12,13,13,14,14],"right_children":[2,4,6,8,10,12,14,16,18,-1,20,22,24,26,28,-1,-1,-1,-1,-1,-1,-1,-1,-1,-1,-1,-1,-1,-1],"split_conditions":[3.4276012E-1,6.895185E-1,3.053197E-1,3.369535E-1,1.3330264E-1,1.0784914E-1,5.2343374E-1,5.854208E-1,4.6423593E-1,-1.9798441E-1,6.9820666E-1,5.434657E-1,7.394694E-1,1.9678453E-1,1.12857334E-1,-1.5176778E-1,-3.4103002E-2,-6.740323E-2,3.916848E-2,1.7837791E-1,-5.6199253E-2,-2.5614637E-1,-4.443518E-2,-4.383547E-2,1.2070077E-1,1.2506574E-1,-1.1787543E-2,2.7470377E-1,7.36164E-2],"split_indices":[0,76,42,60,23,63,72,97,21,0,14,0,25,115,84,0,0,0,0,0,0,0,0,0,0,0,0,0,0],"split_type":[0,0,0,0,0,0,0,0,0,0,0,0,0,0,0,0,0,0,0,0,0,0,0,0,0,0,0,0,0],"sum_hessian":[3.82E2,1.42E2,2.4E2,1.25E2,1.7E1,6.2E1,1.78E2,6.6E1,5.9E1,2E0,1.5E1,5E0,5.7E1,9.5E1,8.3E1,4E1,2.6E1,3.2E1,2.7E1,1.3E1,2E0,4E0,1E0,5E1,7E0,1.6E1,7.9E1,5E0,7.8E1],"tree_param":{"num_deleted":"0","num_feature":"120","num_nodes":"29","size_leaf_vector":"1"}},{"base_weights":[4.1270125E-1,-4.67696E0,2.8300488E0,-6.2473755E0,7.109309E0,9.453643E-1,1.06511965E1,-8.016237E0,3.9849784E0,-6.7306824E-2,9.981606E0,-1.4871157E0,7.5703645E0,2.1274536E1,2.8614E0,-9.8524675E-2,1.7217703E-2,-7.936464E-2,9.7859316E-2,1.2539345E-1,-2.4145113E-2,-1.124881E-1,9.913724E-3,4.6174772E-2,2.4007794E-1,2.4840242E-1,-2.5376382E-3,-5.9846103E-2,9.616808E-2],"categories":[],"categories_nodes":[],"categories_segments":[],"categories_sizes":[],"default_left":[0,0,0,0,0,0,0,0,0,0,0,0,0,0,0,0,0,0,0,0,0,0,0,0,0,0,0,0,0],"id":38,"left_children":[1,3,5,7,9,11,13,15,17,-1,19,21,23,25,27,-1,-1,-1,-1,-1,-1,-1,-1,-1,-1,-1,-1,-1,-1],"loss_changes":[4.83482E3,2.407191E3,3.901615E3,2.0881548E3,7.2019025E2,3.511907E3,4.1463657E3,1.7591147E3,1.3285734E3,0E0,4.835708E2,3.8859673E3,2.6445576E3,1.684459E3,1.9723516E3,0E0,0E0,0E0,0E0,0E0,0E0,0E0,0E0,0E0,0E0,0E0,0E0,0E0,0E0],"parents":[2147483647,0,0,1,1,2,2,3,3,4,4,5,5,6,6,7,7,8,8,10,10,11,11,12,12,13,13,14,14],"right_children":[2,4,6,8,10,12,14,16,18,-1,20,22,24,26,28,-1,-1,-1,-1,-1,-1,-1,-1,-1,-1,-1,-1,-1,-1],"split_conditions":[3.310886E-1,7.05214E-1,4.0944517E-1,5.076561E-1,3.7746817E-1,6.3974816E-1,5.224838E-1,6.6074115E-1,4.4493392E-1,-6.7306824E-2,6.644376E-1,2.992775E-1,5.5542886E-1,7.0387405E-1,4.29238E-1,-9.8524675E-2,1.7217703E-2,-7.936464E-2,9.7859316E-2,1.2539345E-1,-2.4145113E-2,-1.124881E-1,9.913724E-3,4.6174772E-2,2.4007794E-1,2.4840242E-1,-2.5376382E-3,-5.9846103E-2,9.616808E-2],"split_indices":[0,76,7,103,17,117,7,23,83,0,14,13,8,33,24,0,0,0,0,0,0,0,0,0,0,0,0,0,0],"split_type":[0,0,0,0,0,0,0,0,0,0,0,0,0,0,0,0,0,0,0,0,0,0,0,0,0,0,0,0,0],"sum_hessian":[3.9E2,1.25E2,2.65E2,1.11E2,1.4E1,2.15E2,5E1,9.5E1,1.6E1,2E0,1.2E1,1.58E2,5.7E1,2E1,3E1,8E1,1.5E1,5E0,1.1E1,1E1,2E0,3.1E1,1.27E2,5E1,7E0,1.7E1,3E0,1.3E1,1.7E1],"tree_param":{"num_deleted":"0","num_feature":"120","num_nodes":"29","size_leaf_vector":"1"}},{"base_weights":[-3.4969354E-1,6.1934776E0,-2.5703359E0,1.5622296E0,1.4553631E1,2.2298515E0,-5.114438E0,-1.0317408E1,5.181854E0,1.866326E1,2.3987746E0,4.722577E0,-1.2974165E1,-1.2446597E0,-1.0159828E1,6.87653E-2,-1.370279E-1,1.5008466E-1,7.6855845E-3,2.2104597E-1,3.3490576E-2,-3.4730278E-2,6.967506E-2,1.4500646E-1,8.8309515E-3,-2.3803358E-1,1.7604185E-2,-1.4532727E-1,7.819787E-3,-7.394268E-2,-1.8332821E-1],"categories":[],"categories_nodes":[],"categories_segments":[],"categories_sizes":[],"default_left":[0,0,0,0,0,0,0,0,0,0,0,0,0,0,0,0,0,0,0,0,0,0,0,0,0,0,0,0,0,0,0],"id":39,"left_children":[1,3,5,7,9,11,13,15,17,19,21,23,25,27,29,-1,-1,-1,-1,-1,-1,-1,-1,-1,-1,-1,-1,-1,-1,-1,-1],"loss_changes":[5.5925273E3,3.7247788E3,3.5309895E3,2.848548E3,1.6351265E3,3.8925493E3,3.650004E3,1.0503927E3,2.1569917E3,1.2073867E3,3.2147217E2,3.2503955E3,2.3985713E3,2.9527144E3,1.6130732E3,0E0,0E0,0E0,0E0,0E0,0E0,0E0,0E0,0E0,0E0,0E0,0E0,0E0,0E0,0E0,0E0],"parents":[2147483647,0,0,1,1,2,2,3,3,4,4,5,5,6,6,7,7,8,8,9,9,10,10,11,11,12,12,13,13,14,14],"right_children":[2,4,6,8,10,12,14,16,18,20,22,24,26,28,30,-1,-1,-1,-1,-1,-1,-1,-1,-1,-1,-1,-1,-1,-1,-1,-1],"split_conditions":[2.2725607E-1,5.850746E-1,4.4947404E-1,5.041247E-1,5.644186E-1,6.726325E-1,3.8539436E-1,3.5820895E-1,5.9202E-1,7.410897E-1,6.5695935E-1,2.980144E-1,3.1881166E-1,2.6598096E-1,5.2903026E-1,6.87653E-2,-1.370279E-1,1.5008466E-1,7.6855845E-3,2.2104597E-1,3.3490576E-2,-3.4730278E-2,6.967506E-2,1.4500646E-1,8.8309515E-3,-2.3803358E-1,1.7604185E-2,-1.4532727E-1,7.819787E-3,-7.394268E-2,-1.8332821E-1],"split_indices":[10,27,37,90,33,13,65,27,104,87,21,25,113,77,42,0,0,0,0,0,0,0,0,0,0,0,0,0,0,0,0],"split_type":[0,0,0,0,0,0,0,0,0,0,0,0,0,0,0,0,0,0,0,0,0,0,0,0,0,0,0,0,0,0,0],"sum_hessian":[3.82E2,9.6E1,2.86E2,6.3E1,3.3E1,9.9E1,1.87E2,1.4E1,4.9E1,2.4E1,9E0,8.6E1,1.3E1,1.07E2,8E1,2E0,1.2E1,1.4E1,3.5E1,1.9E1,5E0,4E0,5E0,2.3E1,6.3E1,7E0,6E0,1.3E1,9.4E1,6.2E1,1.8E1],"tree_param":{"num_deleted":"0","num_feature":"120","num_nodes":"31","size_leaf_vector":"1"}},{"base_weights":[-1.2401162E-1,-8.123066E0,1.583075E0,3.0527692E0,-1.1635304E1,1.1453741E-2,8.459982E0,1.1282859E1,-7.5348887E0,1.3884972E0,-1.5999663E1,-2.9132454E0,5.535972E0,2.4208464E1,4.5246787E0,1.3378423E-1,1.0724051E-2,3.1364813E-2,-1.4392859E-1,-7.962502E-2,6.183521E-2,-1.8408689E-1,3.7312318E-2,7.921317E-2,-3.9515156E-2,6.504049E-2,-1.512599E-1,2.866304E-1,1.4566999E-2,1.1586332E-1,-4.677283E-2],"categories":[],"categories_nodes":[],"categories_segments":[],"categories_sizes":[],"default_left":[0,0,0,0,0,0,0,0,0,0,0,0,0,0,0,0,0,0,0,0,0,0,0,0,0,0,0,0,0,0,0],"id":40,"left_children":[1,3,5,7,9,11,13,15,17,19,21,23,25,27,29,-1,-1,-1,-1,-1,-1,-1,-1,-1,-1,-1,-1,-1,-1,-1,-1],"loss_changes":[5.317172E3,2.7506382E3,3.4553132E3,1.6561746E3,3.0320625E3,4.268172E3,3.494479E3,1.8869348E2,7.010343E2,7.222303E2,1.9952324E3,1.9834701E3,1.969166E3,1.0727695E3,3.3047607E3,0E0,0E0,0E0,0E0,0E0,0E0,0E0,0E0,0E0,0E0,0E0,0E0,0E0,0E0,0E0,0E0],"parents":[2147483647,0,0,1,1,2,2,3,3,4,4,5,5,6,6,7,7,8,8,9,9,10,10,11,11,12,12,13,13,14,14],"right_children":[2,4,6,8,10,12,14,16,18,20,22,24,26,28,30,-1,-1,-1,-1,-1,-1,-1,-1,-1,-1,-1,-1,-1,-1,-1,-1],"split_conditions":[2.914179E-1,3.6609077E-1,4.111564E-1,4.0722468E-1,1.7539397E-1,5.741114E-1,2.826087E-1,2.56188E-1,2.4720527E-1,1.5500148E-1,5.903901E-1,1.8420358E-1,8.058136E-1,5.797489E-1,4.1580334E-1,1.3378423E-1,1.0724051E-2,3.1364813E-2,-1.4392859E-1,-7.962502E-2,6.183521E-2,-1.8408689E-1,3.7312318E-2,7.921317E-2,-3.9515156E-2,6.504049E-2,-1.512599E-1,2.866304E-1,1.4566999E-2,1.1586332E-1,-4.677283E-2],"split_indices":[27,82,7,20,83,60,118,7,6,25,7,83,110,78,66,0,0,0,0,0,0,0,0,0,0,0,0,0,0,0,0],"split_type":[0,0,0,0,0,0,0,0,0,0,0,0,0,0,0,0,0,0,0,0,0,0,0,0,0,0,0,0,0,0,0],"sum_hessian":[3.86E2,6.7E1,3.19E2,1.6E1,5.1E1,2.61E2,5.8E1,9E0,7E0,1.3E1,3.8E1,1.71E2,9E1,1E1,4.8E1,7E0,2E0,3E0,4E0,4E0,9E0,3.4E1,4E0,1.4E1,1.57E2,8.7E1,3E0,8E0,2E0,2.7E1,2.1E1],"tree_param":{"num_deleted":"0","num_feature":"120","num_nodes":"31","size_leaf_vector":"1"}},{"base_weights":[1.3926962E-2,-5.7552414E0,2.9979188E0,4.504554E0,-8.213397E0,4.181806E-1,1.0197079E1,1.0432451E1,-9.772014E0,-1.2145853E1,-6.664298E-1,3.714644E0,-3.860784E0,1.4264439E-1,1.3297214E1,1.391871E-1,-5.6057565E-2,3.07782E-3,-1.1310877E-1,-9.781015E-2,-2.4166682E-1,-5.5636104E-2,7.074252E-2,-3.337981E-2,6.1248016E-2,-5.9669856E-2,1.153952E-1,-8.74565E-2,4.82744E-2,-3.3165892E-3,1.7035858E-1],"categories":[],"categories_nodes":[],"categories_segments":[],"categories_sizes":[],"default_left":[0,0,0,0,0,0,0,0,0,0,0,0,0,0,0,0,0,0,0,0,0,0,0,0,0,0,0,0,0,0,0],"id":41,"left_children":[1,3,5,7,9,11,13,15,17,19,21,23,25,27,29,-1,-1,-1,-1,-1,-1,-1,-1,-1,-1,-1,-1,-1,-1,-1,-1],"loss_changes":[6.6939946E3,3.400879E3,4.746693E3,2.3962751E3,3.1654434E3,2.7084543E3,2.0876973E3,1.2156604E3,1.4807214E2,1.6156152E3,1.5169664E3,1.8777297E3,2.80613E3,7.881077E2,2.6492852E3,0E0,0E0,0E0,0E0,0E0,0E0,0E0,0E0,0E0,0E0,0E0,0E0,0E0,0E0,0E0,0E0],"parents":[2147483647,0,0,1,1,2,2,3,3,4,4,5,5,6,6,7,7,8,8,9,9,10,10,11,11,12,12,13,13,14,14],"right_children":[2,4,6,8,10,12,14,16,18,20,22,24,26,28,30,-1,-1,-1,-1,-1,-1,-1,-1,-1,-1,-1,-1,-1,-1,-1,-1],"split_conditions":[3.3559614E-1,1.9876896E-1,3.8669774E-1,6.096245E-1,5.2595174E-1,3.6423644E-1,4.0869492E-1,6.5098524E-1,2.836248E-1,6.535964E-1,4.5718968E-1,3.012787E-1,7.396666E-1,2.9672343E-1,1.8052489E-1,1.391871E-1,-5.6057565E-2,3.07782E-3,-1.1310877E-1,-9.781015E-2,-2.4166682E-1,-5.5636104E-2,7.074252E-2,-3.337981E-2,6.1248016E-2,-5.9669856E-2,1.153952E-1,-8.74565E-2,4.82744E-2,-3.3165892E-3,1.7035858E-1],"split_indices":[0,6,7,71,96,10,90,14,3,26,87,96,25,16,115,0,0,0,0,0,0,0,0,0,0,0,0,0,0,0,0],"split_type":[0,0,0,0,0,0,0,0,0,0,0,0,0,0,0,0,0,0,0,0,0,0,0,0,0,0,0,0,0,0,0],"sum_hessian":[3.86E2,1.31E2,2.55E2,2.5E1,1.06E2,1.89E2,6.6E1,1.8E1,7E0,6.9E1,3.7E1,1.07E2,8.2E1,1.6E1,5E1,1.5E1,3E0,1E0,6E0,6E1,9E0,2.3E1,1.4E1,2.7E1,8E1,7.3E1,9E0,5E0,1.1E1,1.1E1,3.9E1],"tree_param":{"num_deleted":"0","num_feature":"120","num_nodes":"31","size_leaf_vector":"1"}},{"base_weights":[-4.0334788E-1,-5.176846E0,2.4669704E0,6.428239E0,-7.652315E0,2.6421207E-1,1.0080274E1,9.929342E0,-9.465795E-2,-1.0694822E1,-2.004781E0,4.198063E0,-4.526743E0,1.9183819E1,4.7750807E0,3.199563E-2,2.0331407E-1,-7.563301E-2,-1.9536605E-1,-6.350733E-2,5.187609E-2,5.4017987E-2,-1.8979442E-1,-7.154379E-2,6.389741E-2,5.157377E-2,2.3418035E-1,6.8182964E-3,1.6195612E-1],"categories":[],"categories_nodes":[],"categories_segments":[],"categories_sizes":[],"default_left":[0,0,0,0,0,0,0,0,0,0,0,0,0,0,0,0,0,0,0,0,0,0,0,0,0,0,0,0,0],"id":42,"left_children":[1,3,5,7,9,11,13,15,-1,17,19,21,23,25,27,-1,-1,-1,-1,-1,-1,-1,-1,-1,-1,-1,-1,-1,-1],"loss_changes":[5.344884E3,4.283667E3,4.0692202E3,1.6160839E3,2.042833E3,3.6185115E3,2.4707705E3,1.4539727E3,0E0,1.9247832E3,1.4415522E3,3.0836143E3,2.55055E3,9.4838525E2,1.6728279E3,0E0,0E0,0E0,0E0,0E0,0E0,0E0,0E0,0E0,0E0,0E0,0E0,0E0,0E0],"parents":[2147483647,0,0,1,1,2,2,3,3,4,4,5,5,6,6,7,7,9,9,10,10,11,11,12,12,13,13,14,14],"right_children":[2,4,6,8,10,12,14,16,-1,18,20,22,24,26,28,-1,-1,-1,-1,-1,-1,-1,-1,-1,-1,-1,-1,-1,-1],"split_conditions":[3.4276012E-1,1.9876896E-1,5.8628106E-1,6.4705884E-1,5.2595174E-1,5.3551304E-1,5.0470954E-1,5.157602E-1,-9.465795E-2,4.8713762E-1,5.7453144E-1,5.7573926E-1,3.8669774E-1,4.3199366E-1,6.248262E-1,3.199563E-2,2.0331407E-1,-7.563301E-2,-1.9536605E-1,-6.350733E-2,5.187609E-2,5.4017987E-2,-1.8979442E-1,-7.154379E-2,6.389741E-2,5.157377E-2,2.3418035E-1,6.8182964E-3,1.6195612E-1],"split_indices":[0,6,42,119,96,71,46,47,0,1,22,42,7,51,84,0,0,0,0,0,0,0,0,0,0,0,0,0,0],"split_type":[0,0,0,0,0,0,0,0,0,0,0,0,0,0,0,0,0,0,0,0,0,0,0,0,0,0,0,0,0],"sum_hessian":[3.87E2,1.45E2,2.42E2,2.5E1,1.2E2,1.89E2,5.3E1,2.1E1,4E0,7.7E1,4.3E1,1.04E2,8.5E1,1.8E1,3.5E1,1.4E1,7E0,5.9E1,1.8E1,2.7E1,1.6E1,1E2,4E0,6.9E1,1.6E1,5E0,1.3E1,2.7E1,8E0],"tree_param":{"num_deleted":"0","num_feature":"120","num_nodes":"29","size_leaf_vector":"1"}},{"base_weights":[4.688029E-2,-5.312677E0,2.5838072E0,-6.8467174E0,5.38311E0,5.946957E-1,1.1225344E1,5.010885E0,-7.9820347E0,-9.4039984E-2,9.788097E0,-2.4812121E0,5.491945E0,2.4152975E1,2.656237E0,-4.1104737E-3,1.2599365E-1,-9.524847E-2,1.4353254E-2,1.2317497E-1,-2.431972E-2,-4.689413E-2,7.194397E-2,9.433574E-2,-2.7144276E-2,6.187758E-2,2.8125829E-1,-6.593036E-2,8.906535E-2],"categories":[],"categories_nodes":[],"categories_segments":[],"categories_sizes":[],"default_left":[0,0,0,0,0,0,0,0,0,0,0,0,0,0,0,0,0,0,0,0,0,0,0,0,0,0,0,0,0],"id":43,"left_children":[1,3,5,7,9,11,13,15,17,-1,19,21,23,25,27,-1,-1,-1,-1,-1,-1,-1,-1,-1,-1,-1,-1,-1,-1],"loss_changes":[5.313817E3,2.1159236E3,4.54184E3,1.5505342E3,1.2132158E3,3.2997593E3,5.3604805E3,4.519711E2,1.503311E3,0E0,4.7209656E2,2.9217866E3,2.778407E3,1.0964102E3,1.9114329E3,0E0,0E0,0E0,0E0,0E0,0E0,0E0,0E0,0E0,0E0,0E0,0E0,0E0,0E0],"parents":[2147483647,0,0,1,1,2,2,3,3,4,4,5,5,6,6,7,7,8,8,10,10,11,11,12,12,13,13,14,14],"right_children":[2,4,6,8,10,12,14,16,18,-1,20,22,24,26,28,-1,-1,-1,-1,-1,-1,-1,-1,-1,-1,-1,-1,-1,-1],"split_conditions":[3.310886E-1,7.05214E-1,4.1005242E-1,2.0406123E-1,3.7746817E-1,4.8960838E-1,5.224838E-1,3.6054462E-1,5.003642E-1,-9.4039984E-2,6.644376E-1,6.8731344E-1,5.559202E-1,1.820669E-1,4.29238E-1,-4.1104737E-3,1.2599365E-1,-9.524847E-2,1.4353254E-2,1.2317497E-1,-2.431972E-2,-4.689413E-2,7.194397E-2,9.433574E-2,-2.7144276E-2,6.187758E-2,2.8125829E-1,-6.593036E-2,8.906535E-2],"split_indices":[0,76,7,16,17,39,7,99,10,0,14,27,23,101,24,0,0,0,0,0,0,0,0,0,0,0,0,0,0],"split_type":[0,0,0,0,0,0,0,0,0,0,0,0,0,0,0,0,0,0,0,0,0,0,0,0,0,0,0,0,0],"sum_hessian":[3.88E2,1.24E2,2.64E2,1.09E2,1.5E1,2.16E2,4.8E1,9E0,1E2,3E0,1.2E1,1.33E2,8.3E1,1.8E1,3E1,6E0,3E0,8.6E1,1.4E1,1E1,2E0,1.09E2,2.4E1,5.6E1,2.7E1,4E0,1.4E1,1.2E1,1.8E1],"tree_param":{"num_deleted":"0","num_feature":"120","num_nodes":"29","size_leaf_vector":"1"}},{"base_weights":[5.466772E-1,-6.42696E0,2.692115E0,-7.7018785E0,1.5426823E-1,4.547028E-1,9.74069E0,-1.17512245E1,-1.2457426E0,-2.8000553E0,6.0242944E0,-2.8061903E0,1.3749979E1,-4.2024653E-2,-1.7204265E-1,-9.1129795E-2,5.8591425E-2,-4.0336642E-2,1.3424145E-1,2.7956946E-2,1.901528E-1,4.056975E-2,-1.0053974E-1,1.951173E-2,1.6643314E-1],"categories":[],"categories_nodes":[],"categories_segments":[],"categories_sizes":[],"default_left":[0,0,0,0,0,0,0,0,0,0,0,0,0,0,0,0,0,0,0,0,0,0,0,0,0],"id":44,"left_children":[1,3,5,7,-1,9,11,13,15,17,19,21,23,-1,-1,-1,-1,-1,-1,-1,-1,-1,-1,-1,-1],"loss_changes":[5.819802E3,2.719852E3,4.674905E3,2.2525684E3,0E0,4.1525728E3,3.665562E3,2.072401E3,2.0676467E3,2.9639014E3,3.4426055E3,9.874208E2,1.7932109E3,0E0,0E0,0E0,0E0,0E0,0E0,0E0,0E0,0E0,0E0,0E0,0E0],"parents":[2147483647,0,0,1,1,2,2,3,3,5,5,6,6,7,7,8,8,9,9,10,10,11,11,12,12],"right_children":[2,4,6,8,-1,10,12,14,16,18,20,22,24,-1,-1,-1,-1,-1,-1,-1,-1,-1,-1,-1,-1],"split_conditions":[3.2089552E-1,7.2201806E-1,6.3953674E-1,5.3802055E-1,1.5426823E-1,5.741114E-1,3.154772E-1,3.7111285E-1,4.0612414E-1,6.7452496E-1,5.435481E-1,5.706072E-1,2.7776825E-1,-4.2024653E-2,-1.7204265E-1,-9.1129795E-2,5.8591425E-2,-4.0336642E-2,1.3424145E-1,2.7956946E-2,1.901528E-1,4.056975E-2,-1.0053974E-1,1.951173E-2,1.6643314E-1],"split_indices":[27,14,90,21,0,60,0,11,17,62,8,15,76,0,0,0,0,0,0,0,0,0,0,0,0],"split_type":[0,0,0,0,0,0,0,0,0,0,0,0,0,0,0,0,0,0,0,0,0,0,0,0,0],"sum_hessian":[3.86E2,9E1,2.96E2,8.6E1,4E0,2.26E2,7E1,5.2E1,3.4E1,1.43E2,8.3E1,1.7E1,5.3E1,2.3E1,2.9E1,1.6E1,1.8E1,1.34E2,9E0,6.8E1,1.5E1,9E0,8E0,1.1E1,4.2E1],"tree_param":{"num_deleted":"0","num_feature":"120","num_nodes":"25","size_leaf_vector":"1"}},{"base_weights":[-9.216309E-3,-2.442113E0,4.6578383E0,3.877508E0,-4.322991E0,-5.2851515E0,7.381359E0,1.8296165E0,2.3303272E1,-5.2892284E0,1.3637627E1,1.4054605E1,-9.184796E0,1.2790811E1,2.8599985E0,-4.2729393E-2,4.9564276E-2,3.0144936E-1,6.1887775E-2,-7.7270515E-2,-1.3412134E-3,2.9668672E-2,2.2347352E-1,3.9592374E-2,1.7840855E-1,-1.1717211E-1,3.0377695E-2,1.6086169E-1,-2.8252773E-2,-3.0703783E-2,1.09869935E-1],"categories":[],"categories_nodes":[],"categories_segments":[],"categories_sizes":[],"default_left":[0,0,0,0,0,0,0,0,0,0,0,0,0,0,0,0,0,0,0,0,0,0,0,0,0,0,0,0,0,0,0],"id":45,"left_children":[1,3,5,7,9,11,13,15,17,19,21,23,25,27,29,-1,-1,-1,-1,-1,-1,-1,-1,-1,-1,-1,-1,-1,-1,-1,-1],"loss_changes":[4.4260547E3,3.07446E3,3.6757856E3,2.2779333E3,3.5446638E3,2.413599E3,2.5098042E3,1.0914766E3,3.2783008E2,2.3720767E3,8.510968E2,8.2475464E1,8.5136206E2,2.5258115E3,2.9261885E3,0E0,0E0,0E0,0E0,0E0,0E0,0E0,0E0,0E0,0E0,0E0,0E0,0E0,0E0,0E0,0E0],"parents":[2147483647,0,0,1,1,2,2,3,3,4,4,5,5,6,6,7,7,8,8,9,9,10,10,11,11,12,12,13,13,14,14],"right_children":[2,4,6,8,10,12,14,16,18,20,22,24,26,28,30,-1,-1,-1,-1,-1,-1,-1,-1,-1,-1,-1,-1,-1,-1,-1,-1],"split_conditions":[5.3843284E-1,4E-1,2.7691576E-1,6.818241E-1,7.884285E-1,2.4444444E-1,2.7536976E-1,4.8759866E-1,6.88809E-1,5.8014816E-1,2.0090193E-1,4.4374573E-1,5.058974E-1,7.2873944E-1,5.4815805E-1,-4.2729393E-2,4.9564276E-2,3.0144936E-1,6.1887775E-2,-7.7270515E-2,-1.3412134E-3,2.9668672E-2,2.2347352E-1,3.9592374E-2,1.7840855E-1,-1.1717211E-1,3.0377695E-2,1.6086169E-1,-2.8252773E-2,-3.0703783E-2,1.09869935E-1],"split_indices":[27,59,26,62,34,58,70,77,1,19,54,0,113,43,74,0,0,0,0,0,0,0,0,0,0,0,0,0,0,0,0],"split_type":[0,0,0,0,0,0,0,0,0,0,0,0,0,0,0,0,0,0,0,0,0,0,0,0,0,0,0,0,0,0,0],"sum_hessian":[3.87E2,2.55E2,1.32E2,5.8E1,1.97E2,2.8E1,1.04E2,5.4E1,4E0,1.88E2,9E0,4E0,2.4E1,4.6E1,5.8E1,1.8E1,3.6E1,2E0,2E0,1.27E2,6.1E1,5E0,4E0,2E0,2E0,2E1,4E0,3.8E1,8E0,3.4E1,2.4E1],"tree_param":{"num_deleted":"0","num_feature":"120","num_nodes":"31","size_leaf_vector":"1"}},{"base_weights":[7.585802E-1,-4.2985096E0,3.3596733E0,9.227612E-1,-8.724463E0,1.0680951E0,1.0391912E1,1.10198555E1,-2.8854816E0,-1.4852481E1,-3.8510695E0,-1.7266905E0,6.153596E0,1.2032187E1,-1.0005227E-1,1.2333015E-2,2.36886E-1,-6.277394E-2,5.18054E-2,-1.9973956E-1,-4.5909617E-2,-7.674943E-2,6.1672192E-2,-1.1574954E-1,4.613305E-3,2.5453016E-2,1.7670563E-1,1.399078E-1,-2.0706877E-2],"categories":[],"categories_nodes":[],"categories_segments":[],"categories_sizes":[],"default_left":[0,0,0,0,0,0,0,0,0,0,0,0,0,0,0,0,0,0,0,0,0,0,0,0,0,0,0,0,0],"id":46,"left_children":[1,3,5,7,9,11,13,15,17,19,21,23,25,27,-1,-1,-1,-1,-1,-1,-1,-1,-1,-1,-1,-1,-1,-1,-1],"loss_changes":[5.170499E3,3.1049434E3,4.153714E3,2.4590925E3,2.0606567E3,2.8274097E3,2.3071187E3,2.1009639E3,1.3220822E3,1.4933413E3,1.7006256E3,2.7880684E3,2.8420593E3,1.698873E3,0E0,0E0,0E0,0E0,0E0,0E0,0E0,0E0,0E0,0E0,0E0,0E0,0E0,0E0,0E0],"parents":[2147483647,0,0,1,1,2,2,3,3,4,4,5,5,6,6,7,7,8,8,9,9,10,10,11,11,12,12,13,13],"right_children":[2,4,6,8,10,12,14,16,18,20,22,24,26,28,-1,-1,-1,-1,-1,-1,-1,-1,-1,-1,-1,-1,-1,-1,-1],"split_conditions":[3.3559614E-1,3.5244697E-1,5.8628106E-1,4.159807E-1,3.8635615E-1,5.741114E-1,6.260895E-1,4.7916177E-1,6.2007743E-1,6.355332E-1,2.8977108E-1,4.117647E-1,5.435481E-1,7.715681E-1,-1.0005227E-1,1.2333015E-2,2.36886E-1,-6.277394E-2,5.18054E-2,-1.9973956E-1,-4.5909617E-2,-7.674943E-2,6.1672192E-2,-1.1574954E-1,4.613305E-3,2.5453016E-2,1.7670563E-1,1.399078E-1,-2.0706877E-2],"split_indices":[0,66,42,69,21,60,100,78,82,71,57,119,8,75,0,0,0,0,0,0,0,0,0,0,0,0,0,0,0],"split_type":[0,0,0,0,0,0,0,0,0,0,0,0,0,0,0,0,0,0,0,0,0,0,0,0,0,0,0,0,0],"sum_hessian":[3.9E2,1.32E2,2.58E2,6.1E1,7.1E1,1.96E2,6.2E1,1.6E1,4.5E1,3E1,4.1E1,1.27E2,6.9E1,5.8E1,4E0,1E1,6E0,3.2E1,1.3E1,1.9E1,1.1E1,3E1,1.1E1,2.2E1,1.05E2,5.4E1,1.5E1,5.1E1,7E0],"tree_param":{"num_deleted":"0","num_feature":"120","num_nodes":"29","size_leaf_vector":"1"}},{"base_weights":[-2.0985621E-1,1.6859884E1,-9.7395885E-1,-2.1174655E0,2.1386421E1,-7.2871175E0,8.612053E-1,3.7545837E-2,-5.690015E-2,2.8265268E-1,3.4902953E-2,-1.0640133E1,2.468179E0,2.9394362E0,-5.2360816E0,-2.579854E-1,-8.631614E-2,-1.6020717E-1,6.5962695E-2,1.665166E-2,2.0362231E-1,1.362943E-2,-9.604983E-2],"categories":[],"categories_nodes":[],"categories_segments":[],"categories_sizes":[],"default_left":[0,0,0,0,0,0,0,0,0,0,0,0,0,0,0,0,0,0,0,0,0,0,0],"id":47,"left_children":[1,3,5,7,9,11,13,-1,-1,-1,-1,15,17,19,21,-1,-1,-1,-1,-1,-1,-1,-1],"loss_changes":[5.023792E3,1.5045737E3,4.2967485E3,1.2838274E2,1.4821768E3,2.7788218E3,3.6638667E3,0E0,0E0,0E0,0E0,1.534418E3,1.8663774E3,4.7115034E3,2.1469202E3,0E0,0E0,0E0,0E0,0E0,0E0,0E0,0E0],"parents":[2147483647,0,0,1,1,2,2,3,3,4,4,5,5,6,6,11,11,12,12,13,13,14,14],"right_children":[2,4,6,8,10,12,14,-1,-1,-1,-1,16,18,20,22,-1,-1,-1,-1,-1,-1,-1,-1],"split_conditions":[5.1256426E-2,3.0841437E-1,3.2089552E-1,2.4016982E-1,6.369376E-1,5.40353E-1,5.987543E-1,3.7545837E-2,-5.690015E-2,2.8265268E-1,3.4902953E-2,1.8301176E-1,1.5500148E-1,6.7452496E-1,3.4413928E-1,-2.579854E-1,-8.631614E-2,-1.6020717E-1,6.5962695E-2,1.665166E-2,2.0362231E-1,1.362943E-2,-9.604983E-2],"split_indices":[10,99,27,2,75,64,101,0,0,0,0,115,25,62,4,0,0,0,0,0,0,0,0],"split_type":[0,0,0,0,0,0,0,0,0,0,0,0,0,0,0,0,0,0,0,0,0,0,0],"sum_hessian":[3.83E2,1.5E1,3.68E2,3E0,1.2E1,8.2E1,2.86E2,1E0,2E0,8E0,4E0,6.1E1,2.1E1,2.14E2,7.2E1,5E0,5.6E1,3E0,1.8E1,2.01E2,1.3E1,2.9E1,4.3E1],"tree_param":{"num_deleted":"0","num_feature":"120","num_nodes":"23","size_leaf_vector":"1"}},{"base_weights":[-2.8958786E-1,-4.850678E0,1.9931802E0,-6.2929387E0,6.3013973E0,-4.2760584E-1,9.299752E0,-8.204459E0,2.590298E0,-9.273834E-2,1.1232313E1,8.217366E-1,-9.238632E0,3.463839E0,1.6926407E1,-1.4110288E-1,-4.731534E-2,7.1535684E-2,-9.4373025E-2,1.3883E-1,1.6700914E-2,-2.3963258E-2,4.825742E-2,7.783169E-3,-1.9028302E-1,-4.082502E-3,1.394297E-1,3.0065946E-2,2.3400377E-1],"categories":[],"categories_nodes":[],"categories_segments":[],"categories_sizes":[],"default_left":[0,0,0,0,0,0,0,0,0,0,0,0,0,0,0,0,0,0,0,0,0,0,0,0,0,0,0,0,0],"id":48,"left_children":[1,3,5,7,9,11,13,15,17,-1,19,21,23,25,27,-1,-1,-1,-1,-1,-1,-1,-1,-1,-1,-1,-1,-1,-1],"loss_changes":[4.0415632E3,2.1423774E3,4.5870938E3,1.9987383E3,1.3486108E3,2.1718662E3,2.762463E3,1.8397671E3,1.2790134E3,0E0,2.6649878E2,2.2424622E3,2.4429998E3,1.5842542E3,2.3462612E3,0E0,0E0,0E0,0E0,0E0,0E0,0E0,0E0,0E0,0E0,0E0,0E0,0E0,0E0],"parents":[2147483647,0,0,1,1,2,2,3,3,4,4,5,5,6,6,7,7,8,8,10,10,11,11,12,12,13,13,14,14],"right_children":[2,4,6,8,10,12,14,16,18,-1,20,22,24,26,28,-1,-1,-1,-1,-1,-1,-1,-1,-1,-1,-1,-1,-1,-1],"split_conditions":[3.310886E-1,7.05214E-1,5.8628106E-1,5.834096E-1,3.7746817E-1,7.591999E-1,4.537343E-1,3.4780827E-1,5.525679E-1,-9.273834E-2,5.704714E-1,5.779805E-1,4.0736234E-1,6.248262E-1,2.7958685E-1,-1.4110288E-1,-4.731534E-2,7.1535684E-2,-9.4373025E-2,1.3883E-1,1.6700914E-2,-2.3963258E-2,4.825742E-2,7.783169E-3,-1.9028302E-1,-4.082502E-3,1.394297E-1,3.0065946E-2,2.3400377E-1],"split_indices":[0,76,42,21,17,33,2,87,54,0,37,12,60,84,85,0,0,0,0,0,0,0,0,0,0,0,0,0,0],"split_type":[0,0,0,0,0,0,0,0,0,0,0,0,0,0,0,0,0,0,0,0,0,0,0,0,0,0,0,0,0],"sum_hessian":[3.85E2,1.28E2,2.57E2,1.14E2,1.4E1,1.94E2,6.3E1,9.4E1,2E1,3E0,1.1E1,1.71E2,2.3E1,3.7E1,2.6E1,3.3E1,6.1E1,1.5E1,5E0,8E0,3E0,9.5E1,7.6E1,1.2E1,1.1E1,2.8E1,9E0,9E0,1.7E1],"tree_param":{"num_deleted":"0","num_feature":"120","num_nodes":"29","size_leaf_vector":"1"}},{"base_weights":[-1.9912978E-1,-1.0704389E0,1.1956294E1,-3.5243027E0,4.1840773E0,1.7115744E1,-1.8723791E0,-4.321807E0,9.998885E0,-2.262525E0,1.023042E1,8.457804E0,2.478866E1,-6.930129E0,1.4024298E-1,-1.0664671E-1,-2.7748715E-2,3.5019465E-2,1.703313E-1,-6.078337E-2,1.2429064E-1,1.6038024E-1,3.0812554E-2,1.07492626E-1,-1.1009303E-2,3.468551E-1,7.949446E-2,-9.8948784E-2,4.1310336E-3],"categories":[],"categories_nodes":[],"categories_segments":[],"categories_sizes":[],"default_left":[0,0,0,0,0,0,0,0,0,0,0,0,0,0,0,0,0,0,0,0,0,0,0,0,0,0,0,0,0],"id":49,"left_children":[1,3,5,7,9,11,13,15,17,19,21,23,25,27,-1,-1,-1,-1,-1,-1,-1,-1,-1,-1,-1,-1,-1,-1,-1],"loss_changes":[4.197104E3,4.7986367E3,1.9540452E3,2.7930898E3,4.661625E3,9.476846E2,8.2210315E2,2.301957E3,5.526565E2,3.3865012E3,2.460205E3,2.7928925E2,1.1269937E3,1.788945E2,0E0,0E0,0E0,0E0,0E0,0E0,0E0,0E0,0E0,0E0,0E0,0E0,0E0,0E0,0E0],"parents":[2147483647,0,0,1,1,2,2,3,3,4,4,5,5,6,6,7,7,8,